%YAML:1.0
---
opencv_ml_svm:
   format: 3
   svmType: C_SVC
   kernel:
      type: CHI2
      gamma: 1.
   C: 1.
   term_criteria: { iterations:100 }
   var_count: 200
   class_count: 10
   class_labels: !!opencv-matrix
      rows: 10
      cols: 1
      dt: i
      data: [ 0, 1, 2, 3, 4, 5, 6, 7, 8, 9 ]
   sv_total: 492
   support_vectors:
      - [ 1.80180185e-02, 9.00900923e-03, 0., 0., 0., 0., 9.00900923e-03,
          0., 1.80180185e-02, 1.89189196e-01, 0., 0., 0., 0., 0.,
          9.00900923e-03, 0., 2.70270277e-02, 0., 0., 0., 0.,
          1.80180185e-02, 0., 0., 0., 9.00900923e-03, 0., 0., 0., 0., 0.,
          0., 0., 0., 0., 0., 0., 0., 0., 1.80180185e-02, 1.80180185e-02,
          1.80180185e-02, 0., 0., 0., 9.00900923e-03, 0., 0.,
          5.40540554e-02, 9.00900923e-03, 0., 0., 0., 0., 0., 0., 0., 0.,
          0., 0., 0., 0., 9.00900923e-03, 0., 0., 0., 0., 0., 0., 0., 0.,
          0., 9.00900923e-03, 1.80180185e-02, 0., 0., 2.70270277e-02, 0.,
          0., 1.80180185e-02, 0., 1.35135144e-01, 1.80180185e-02, 0., 0.,
          0., 0., 0., 0., 0., 0., 0., 9.00900923e-03, 0., 9.00900923e-03,
          1.80180185e-02, 0., 0., 0., 0., 0., 0., 0., 0., 1.80180185e-02,
          9.00900923e-03, 9.00900923e-03, 0., 0., 0., 0., 1.80180185e-02,
          0., 0., 9.00900923e-03, 0., 0., 0., 1.80180185e-02, 0., 0., 0.,
          0., 2.70270277e-02, 0., 0., 0., 0., 0., 0., 1.80180185e-02, 0.,
          2.70270277e-02, 0., 1.80180185e-02, 9.00900923e-03, 0., 0., 0.,
          0., 0., 0., 0., 0., 0., 0., 0., 0., 9.00900923e-03, 0., 0., 0.,
          0., 0., 9.00900923e-03, 9.00900923e-03, 2.70270277e-02,
          1.80180185e-02, 0., 0., 0., 9.00900923e-03, 0., 0., 0., 0., 0.,
          0., 0., 0., 0., 0., 0., 0., 0., 9.00900923e-03, 0.,
          9.00900923e-03, 9.00900923e-03, 0., 0., 0., 0., 0., 0., 0., 0.,
          0., 0., 0., 0., 0., 0., 0., 0., 0., 0., 0., 9.00900923e-03 ]
      - [ 0., 0., 0., 0., 7.40740728e-03, 7.40740728e-03, 7.40740728e-03,
          0., 0., 5.18518500e-02, 0., 1.48148146e-02, 0., 0., 0., 0.,
          7.40740728e-03, 2.22222209e-02, 0., 0., 0., 0., 7.40740728e-03,
          7.40740728e-03, 0., 0., 0., 0., 1.48148146e-02, 0., 0.,
          7.40740728e-03, 1.48148146e-02, 0., 0., 0., 0., 0., 0., 0., 0.,
          0., 0., 0., 0., 7.40740728e-03, 0., 1.48148146e-02,
          7.40740728e-03, 1.48148146e-02, 1.48148146e-02, 7.40740728e-03,
          0., 0., 0., 0., 0., 7.40740728e-03, 0., 0., 0., 0., 0.,
          5.92592582e-02, 1.48148146e-02, 0., 0., 0., 7.40740728e-03, 0.,
          0., 1.48148146e-02, 0., 5.18518500e-02, 7.40740746e-02, 0.,
          7.40740728e-03, 7.40740728e-03, 0., 0., 0., 0., 2.96296291e-02,
          0., 0., 0., 0., 7.40740728e-03, 7.40740728e-03, 7.40740728e-03,
          0., 0., 0., 0., 3.70370373e-02, 7.40740728e-03, 1.48148146e-02,
          0., 7.40740728e-03, 0., 0., 0., 1.48148146e-02, 0.,
          7.40740728e-03, 7.40740728e-03, 0., 0., 0., 0., 0., 0.,
          1.48148146e-02, 0., 7.40740728e-03, 0., 0., 7.40740728e-03,
          7.40740728e-03, 0., 0., 0., 0., 7.40740728e-03, 1.48148146e-02,
          0., 1.48148146e-02, 0., 0., 0., 0., 0., 0., 0., 0.,
          7.40740728e-03, 0., 7.40740728e-03, 2.96296291e-02,
          7.40740728e-03, 0., 0., 7.40740728e-03, 7.40740728e-03, 0., 0.,
          0., 7.40740728e-03, 7.40740728e-03, 2.96296291e-02, 0., 0.,
          7.40740728e-03, 0., 0., 1.48148146e-02, 0., 0., 7.40740728e-03,
          7.40740728e-03, 0., 0., 1.48148146e-02, 0., 0., 7.40740728e-03,
          0., 1.48148146e-02, 0., 0., 0., 0., 0., 0., 0., 0., 0.,
          7.40740728e-03, 0., 1.48148146e-02, 0., 0., 0., 0., 0., 0., 0.,
          1.48148146e-02, 5.18518500e-02, 0., 7.40740728e-03, 0., 0.,
          7.40740728e-03, 0., 0., 0., 0., 0., 7.40740728e-03 ]
      - [ 0., 0., 0., 0., 0., 0., 0., 1.53846154e-02, 0., 0., 0., 0., 0.,
          0., 0., 0., 4.61538471e-02, 0., 0., 0., 0., 0., 0., 0., 0.,
          1.53846154e-02, 0., 1.53846154e-02, 1.53846154e-02, 0., 0., 0.,
          0., 0., 0., 1.53846154e-02, 0., 0., 1.53846154e-02, 0., 0.,
          3.07692308e-02, 0., 0., 0., 0., 0., 1.53846154e-02,
          1.53846154e-02, 0., 0., 0., 0., 0., 0., 0., 0., 1.53846154e-02,
          0., 0., 0., 0., 0., 3.07692308e-02, 0., 0., 0., 0., 0., 0., 0.,
          0., 0., 0., 3.07692308e-02, 0., 0., 0., 0., 0., 0., 0., 0.,
          1.53846154e-02, 1.53846154e-02, 0., 0., 1.53846154e-02, 0., 0.,
          3.07692308e-02, 0., 0., 0., 0., 1.53846154e-02, 0., 0., 0., 0.,
          0., 0., 3.07692308e-02, 0., 1.53846154e-02, 0., 1.53846154e-02,
          0., 0., 1.53846154e-02, 0., 0., 0., 0., 0., 0., 1.53846154e-02,
          0., 0., 0., 0., 0., 0., 0., 3.07692308e-02, 0., 3.07692308e-02,
          0., 0., 1.53846154e-02, 1.53846154e-02, 0., 1.53846154e-02, 0.,
          1.53846154e-02, 0., 1.53846154e-02, 0., 1.53846154e-02,
          4.61538471e-02, 0., 0., 0., 0., 0., 0., 0., 1.53846154e-02,
          4.61538471e-02, 3.07692308e-02, 0., 0., 1.53846154e-02, 0., 0.,
          0., 1.53846154e-02, 0., 0., 1.53846154e-02, 0., 0., 0., 0., 0.,
          0., 0., 0., 0., 0., 1.53846154e-02, 0., 0., 0., 4.61538471e-02,
          0., 0., 1.53846154e-02, 0., 0., 0., 3.07692308e-02,
          1.53846154e-02, 0., 0., 0., 0., 3.07692308e-02, 0., 0., 0., 0.,
          0., 0., 0., 3.07692308e-02, 1.53846154e-02, 0., 0., 0. ]
      - [ 9.61538497e-03, 2.88461559e-02, 9.61538497e-03, 0., 0., 0.,
          1.92307699e-02, 0., 0., 2.88461559e-02, 0., 0., 0., 0., 0., 0.,
          0., 3.84615399e-02, 0., 0., 0., 0., 9.61538497e-03, 0., 0., 0.,
          0., 0., 1.92307699e-02, 0., 0., 0., 0., 0., 0., 0., 0., 0.,
          9.61538497e-03, 0., 0., 4.80769239e-02, 0., 0., 0., 0., 0.,
          9.61538497e-03, 3.84615399e-02, 9.61538497e-03, 4.80769239e-02,
          0., 0., 0., 9.61538497e-03, 0., 0., 0., 0., 0., 0.,
          9.61538497e-03, 0., 2.88461559e-02, 0., 0., 0., 0., 0., 0.,
          9.61538497e-03, 9.61538497e-03, 0., 0., 3.84615399e-02, 0., 0.,
          0., 0., 0., 9.61538497e-03, 0., 0., 0., 0., 1.92307699e-02, 0.,
          1.92307699e-02, 9.61538497e-03, 0., 0., 9.61538497e-03, 0., 0.,
          9.61538497e-03, 0., 0., 0., 0., 0., 0., 0., 1.92307699e-02, 0.,
          2.88461559e-02, 9.61538497e-03, 0., 9.61538497e-03, 0., 0.,
          9.61538497e-03, 9.61538497e-03, 9.61538497e-03, 0., 0., 0., 0.,
          0., 0., 9.61538497e-03, 1.92307699e-02, 0., 0., 0.,
          1.92307699e-02, 1.92307699e-02, 0., 0., 0., 0., 9.61538497e-03,
          0., 0., 0., 9.61538497e-03, 9.61538497e-03, 0., 0., 0.,
          1.92307699e-02, 9.61538497e-03, 9.61538497e-03, 0., 0., 0., 0.,
          9.61538497e-03, 0., 0., 0., 9.61538497e-03, 0., 0., 0., 0.,
          9.61538497e-03, 1.92307699e-02, 0., 4.80769239e-02, 0., 0.,
          9.61538497e-03, 0., 0., 0., 0., 9.61538497e-03, 0., 0., 0., 0.,
          2.88461559e-02, 0., 0., 0., 9.61538497e-03, 9.61538497e-03, 0.,
          9.61538497e-03, 0., 0., 0., 0., 0., 0., 0., 1.92307699e-02,
          9.61538497e-03, 2.88461559e-02, 0., 0., 0., 1.92307699e-02, 0.,
          0., 0., 9.61538497e-03, 0., 0., 0. ]
      - [ 1.85185187e-02, 0., 9.25925933e-03, 0., 0., 0., 1.85185187e-02,
          0., 0., 7.40740746e-02, 0., 0., 9.25925933e-03, 0., 0., 0.,
          9.25925933e-03, 9.25925933e-03, 0., 0., 0., 0., 9.25925933e-03,
          9.25925933e-03, 0., 9.25925933e-03, 0., 0., 0., 0., 0.,
          9.25925933e-03, 0., 0., 0., 9.25925933e-03, 0., 0., 0., 0., 0.,
          1.85185187e-02, 0., 0., 0., 0., 9.25925933e-03, 9.25925933e-03,
          6.48148134e-02, 0., 0., 0., 0., 0., 9.25925933e-03, 0., 0., 0.,
          0., 0., 0., 0., 9.25925933e-03, 9.25925970e-02, 0., 0., 0., 0.,
          0., 0., 0., 0., 0., 0., 3.70370373e-02, 0., 0., 9.25925933e-03,
          0., 0., 0., 0., 1.11111112e-01, 9.25925933e-03, 0., 0., 0., 0.,
          9.25925933e-03, 0., 0., 0., 0., 0., 9.25925933e-03,
          1.85185187e-02, 0., 0., 0., 0., 0., 0., 1.01851851e-01, 0.,
          2.77777780e-02, 9.25925933e-03, 0., 9.25925933e-03, 0., 0., 0.,
          0., 9.25925933e-03, 0., 0., 9.25925933e-03, 0., 0., 0., 0., 0.,
          0., 0., 0., 1.85185187e-02, 0., 0., 0., 0., 1.85185187e-02, 0.,
          0., 0., 9.25925933e-03, 0., 0., 0., 0., 0., 0., 0., 0., 0., 0.,
          0., 0., 0., 0., 0., 0., 0., 0., 0., 0., 0., 9.25925933e-03,
          9.25925933e-03, 0., 5.55555560e-02, 0., 0., 0., 0., 0., 0., 0.,
          9.25925933e-03, 0., 0., 0., 1.85185187e-02, 0., 0., 0., 0., 0.,
          0., 1.85185187e-02, 0., 0., 0., 0., 0., 0., 1.85185187e-02,
          9.25925933e-03, 0., 1.85185187e-02, 0., 0., 0., 0., 0., 0., 0.,
          0., 9.25925933e-03, 0., 0., 0. ]
      - [ 0., 2.05479451e-02, 0., 0., 6.84931502e-03, 0., 0.,
          1.36986300e-02, 0., 2.05479451e-02, 0., 0., 0., 0.,
          6.84931502e-03, 0., 6.84931502e-03, 0., 0., 6.84931502e-03, 0.,
          0., 0., 0., 0., 0., 0., 6.84931502e-03, 4.10958901e-02, 0., 0.,
          1.36986300e-02, 0., 0., 6.84931502e-03, 0., 0., 0.,
          1.36986300e-02, 0., 0., 0., 0., 2.05479451e-02, 6.84931502e-03,
          0., 6.84931502e-03, 2.05479451e-02, 0., 1.36986300e-02, 0., 0.,
          0., 6.84931502e-03, 1.36986300e-02, 0., 0., 0., 0.,
          6.84931502e-03, 0., 0., 0., 2.05479451e-02, 0., 0.,
          6.84931502e-03, 0., 0., 6.84931502e-03, 0., 6.84931502e-03, 0.,
          0., 6.84931502e-03, 0., 6.84931502e-03, 2.73972601e-02, 0.,
          1.36986300e-02, 0., 0., 6.84931502e-03, 6.84931502e-03,
          6.84931502e-03, 0., 0., 0., 1.36986300e-02, 0., 6.84931502e-03,
          0., 2.05479451e-02, 0., 6.84931502e-03, 0., 0., 0., 0., 0.,
          6.84931502e-03, 0., 1.36986300e-02, 2.05479451e-02,
          6.84931502e-03, 0., 0., 0., 6.84931502e-03, 2.05479451e-02,
          6.84931502e-03, 0., 3.42465751e-02, 3.42465751e-02, 0., 0.,
          6.84931502e-03, 6.84931502e-03, 0., 0., 0., 6.84931502e-03, 0.,
          0., 0., 0., 6.84931502e-03, 0., 1.36986300e-02, 0.,
          2.05479451e-02, 6.84931502e-03, 0., 1.36986300e-02,
          1.36986300e-02, 6.84931502e-03, 6.84931502e-03, 0.,
          6.84931502e-03, 6.84931502e-03, 0., 0., 0., 1.36986300e-02, 0.,
          0., 0., 0., 6.84931502e-03, 1.36986300e-02, 0., 0.,
          2.05479451e-02, 6.84931502e-03, 0., 0., 0., 0., 6.84931502e-03,
          0., 6.84931502e-03, 0., 6.84931502e-03, 0., 0., 0., 0.,
          6.84931502e-03, 0., 0., 2.05479451e-02, 6.84931502e-03, 0., 0.,
          6.84931502e-03, 6.84931502e-03, 0., 0., 4.79452051e-02, 0., 0.,
          0., 6.84931502e-03, 6.84931502e-03, 6.84931502e-03, 0., 0.,
          6.84931502e-03, 0., 2.05479451e-02, 0., 1.36986300e-02,
          6.84931502e-03, 0., 1.36986300e-02, 6.84931502e-03, 0.,
          2.05479451e-02, 1.36986300e-02, 0. ]
      - [ 0., 0., 0., 0., 1.12359552e-02, 1.12359552e-02, 0.,
          2.24719103e-02, 0., 7.86516890e-02, 1.12359552e-02, 0., 0., 0.,
          0., 0., 0., 0., 1.12359552e-02, 0., 1.12359552e-02, 0., 0.,
          1.12359552e-02, 0., 0., 1.12359552e-02, 0., 0., 2.24719103e-02,
          0., 0., 0., 0., 0., 1.12359552e-02, 0., 0., 0., 0., 0., 0., 0.,
          1.12359552e-02, 0., 0., 0., 0., 0., 1.12359552e-02,
          5.61797768e-02, 0., 0., 1.12359552e-02, 0., 1.12359552e-02, 0.,
          0., 0., 0., 0., 0., 0., 1.12359552e-02, 0., 0., 0., 0., 0., 0.,
          3.37078646e-02, 1.12359552e-02, 0., 0., 0., 0., 2.24719103e-02,
          3.37078646e-02, 0., 1.12359552e-02, 0., 0., 2.24719103e-02, 0.,
          1.12359552e-02, 0., 6.74157292e-02, 0., 0., 2.24719103e-02, 0.,
          0., 1.12359552e-02, 1.12359552e-02, 0., 0., 1.12359552e-02,
          1.12359552e-02, 0., 0., 1.12359552e-02, 1.12359552e-02, 0., 0.,
          2.24719103e-02, 0., 0., 0., 0., 2.24719103e-02, 0., 0.,
          2.24719103e-02, 5.61797768e-02, 0., 0., 0., 0., 1.12359552e-02,
          2.24719103e-02, 0., 0., 0., 0., 0., 0., 2.24719103e-02, 0., 0.,
          0., 0., 0., 0., 0., 1.12359552e-02, 0., 1.12359552e-02, 0., 0.,
          1.12359552e-02, 0., 0., 1.12359552e-02, 0., 0., 0., 0., 0., 0.,
          0., 0., 0., 0., 0., 2.24719103e-02, 0., 0., 3.37078646e-02, 0.,
          0., 0., 0., 0., 0., 0., 0., 0., 1.12359552e-02, 0., 0., 0., 0.,
          0., 0., 2.24719103e-02, 0., 0., 0., 2.24719103e-02, 0.,
          1.12359552e-02, 0., 0., 0., 1.12359552e-02, 0., 0.,
          1.12359552e-02, 0., 0., 0., 0., 0., 0., 0., 0., 0., 0., 0., 0. ]
      - [ 5.40540554e-02, 0., 0., 0., 0., 0., 2.70270277e-02, 0., 0., 0.,
          0., 0., 0., 0., 0., 0., 0., 0., 0., 0., 0., 0., 0., 0., 0., 0.,
          0., 0., 0., 0., 0., 0., 0., 0., 0., 0., 0., 0., 0.,
          2.70270277e-02, 0., 0., 0., 0., 0., 0., 0., 0., 0.,
          2.70270277e-02, 2.70270277e-02, 0., 0., 0., 0., 0.,
          2.70270277e-02, 0., 0., 0., 0., 2.70270277e-02, 0., 0., 0., 0.,
          0., 0., 0., 0., 0., 2.70270277e-02, 0., 0., 0., 0.,
          2.70270277e-02, 2.70270277e-02, 0., 0., 0., 0., 0., 0.,
          2.70270277e-02, 0., 0., 0., 0., 0., 0., 0., 0., 2.70270277e-02,
          2.70270277e-02, 5.40540554e-02, 0., 0., 0., 0., 0., 0.,
          2.70270277e-02, 2.70270277e-02, 0., 0., 0., 0., 0., 0., 0., 0.,
          0., 0., 0., 2.70270277e-02, 0., 0., 0., 0., 0., 0., 0., 0.,
          2.70270277e-02, 5.40540554e-02, 0., 0., 0., 0., 5.40540554e-02,
          0., 0., 0., 2.70270277e-02, 0., 0., 0., 0., 5.40540554e-02, 0.,
          0., 0., 0., 0., 0., 0., 0., 0., 2.70270277e-02, 0., 0., 0., 0.,
          0., 0., 0., 0., 0., 0., 2.70270277e-02, 0., 2.70270277e-02, 0.,
          0., 0., 0., 0., 0., 0., 5.40540554e-02, 0., 0., 0., 0., 0., 0.,
          0., 0., 0., 0., 0., 2.70270277e-02, 0., 0., 0., 0.,
          2.70270277e-02, 0., 2.70270277e-02, 0., 0., 2.70270277e-02,
          2.70270277e-02, 0., 0., 0., 0., 0., 0. ]
      - [ 5.78034669e-03, 1.15606934e-02, 0., 0., 1.73410401e-02, 0., 0.,
          0., 0., 5.20231202e-02, 5.78034669e-03, 1.15606934e-02, 0., 0.,
          0., 0., 0., 1.73410401e-02, 0., 1.15606934e-02, 0., 0.,
          5.78034669e-03, 0., 0., 0., 0., 0., 0., 0., 5.78034669e-03, 0.,
          0., 0., 0., 5.78034669e-03, 1.73410401e-02, 1.15606934e-02, 0.,
          5.78034669e-03, 5.78034669e-03, 1.73410401e-02, 0., 0.,
          5.78034669e-03, 0., 0., 1.15606934e-02, 5.78034669e-03,
          3.46820801e-02, 1.15606934e-02, 0., 0., 0., 5.78034669e-03, 0.,
          0., 0., 1.15606934e-02, 0., 0., 0., 5.78034669e-03,
          2.31213868e-02, 0., 0., 0., 5.78034669e-03, 5.78034669e-03,
          5.78034669e-03, 0., 5.78034669e-03, 0., 5.78034669e-03,
          5.20231202e-02, 0., 5.78034669e-03, 2.31213868e-02, 0., 0.,
          1.15606934e-02, 0., 3.46820801e-02, 0., 0., 1.73410401e-02, 0.,
          0., 1.73410401e-02, 0., 0., 0., 0., 0., 0., 0., 0., 0., 0., 0.,
          0., 1.15606934e-02, 0., 0., 1.73410401e-02, 0., 0., 0., 0., 0.,
          0., 0., 1.73410401e-02, 5.78034669e-03, 5.78034669e-03, 0.,
          1.15606934e-02, 0., 0., 1.15606934e-02, 0., 5.78034669e-03, 0.,
          0., 4.04624268e-02, 1.15606934e-02, 5.78034669e-03, 0., 0., 0.,
          0., 0., 0., 0., 0., 0., 5.78034669e-03, 1.73410401e-02,
          5.78034669e-03, 6.35838136e-02, 1.15606934e-02, 0., 0., 0., 0.,
          0., 0., 0., 5.78034669e-03, 5.78034669e-03, 0., 0.,
          5.78034669e-03, 0., 0., 1.15606934e-02, 0., 1.15606934e-02,
          2.31213868e-02, 5.78034669e-03, 0., 0., 1.15606934e-02, 0.,
          5.78034669e-03, 0., 0., 0., 5.78034669e-03, 0., 2.31213868e-02,
          0., 0., 0., 0., 1.73410401e-02, 0., 1.73410401e-02,
          5.78034669e-03, 0., 5.78034669e-03, 5.78034669e-03,
          5.78034669e-03, 0., 0., 0., 0., 1.73410401e-02, 5.78034669e-03,
          0., 0., 0., 5.78034669e-03, 5.78034669e-03, 0., 1.15606934e-02,
          5.78034669e-03, 0., 5.78034669e-03, 5.78034669e-03 ]
      - [ 2.19780225e-02, 1.09890113e-02, 0., 0., 0., 0., 1.09890113e-02,
          0., 0., 2.19780225e-02, 0., 1.09890113e-02, 2.19780225e-02, 0.,
          0., 0., 3.29670347e-02, 2.19780225e-02, 0., 1.09890113e-02, 0.,
          2.19780225e-02, 0., 0., 0., 1.09890113e-02, 0., 1.09890113e-02,
          0., 0., 0., 0., 0., 0., 0., 0., 0., 0., 0., 0., 0.,
          2.19780225e-02, 1.09890113e-02, 0., 0., 0., 0., 1.09890113e-02,
          1.09890113e-02, 0., 0., 0., 0., 0., 0., 0., 0., 0.,
          1.09890113e-02, 0., 0., 0., 2.19780225e-02, 3.29670347e-02, 0.,
          0., 0., 0., 0., 0., 0., 0., 0., 0., 2.19780225e-02,
          2.19780225e-02, 0., 1.09890113e-02, 0., 0., 2.19780225e-02, 0.,
          1.09890113e-02, 0., 0., 0., 1.09890113e-02, 0., 2.19780225e-02,
          1.09890113e-02, 0., 0., 1.09890113e-02, 2.19780225e-02, 0.,
          1.09890113e-02, 1.09890113e-02, 0., 0., 1.09890113e-02, 0.,
          1.09890113e-02, 2.19780225e-02, 0., 4.39560451e-02,
          1.09890113e-02, 0., 1.09890113e-02, 0., 0., 0., 0., 0.,
          1.09890113e-02, 0., 0., 0., 0., 0., 0., 0., 0., 0., 0.,
          1.09890113e-02, 2.19780225e-02, 0., 1.09890113e-02, 0., 0.,
          1.09890113e-02, 2.19780225e-02, 0., 0., 0., 1.09890113e-02,
          2.19780225e-02, 1.09890113e-02, 2.19780225e-02, 2.19780225e-02,
          0., 0., 0., 0., 0., 1.09890113e-02, 1.09890113e-02,
          1.09890113e-02, 0., 0., 0., 0., 0., 0., 0., 2.19780225e-02,
          1.09890113e-02, 0., 0., 0., 0., 0., 0., 1.09890113e-02, 0., 0.,
          0., 0., 0., 0., 2.19780225e-02, 1.09890113e-02, 0., 0., 0., 0.,
          0., 0., 1.09890113e-02, 0., 0., 1.09890113e-02, 0., 0., 0., 0.,
          0., 0., 2.19780225e-02, 0., 0., 0., 0., 1.09890113e-02, 0.,
          2.19780225e-02, 0., 0., 1.09890113e-02, 0. ]
      - [ 2.97029689e-02, 0., 0., 0., 9.90098994e-03, 0., 0., 0.,
          9.90098994e-03, 3.96039598e-02, 0., 9.90098994e-03,
          9.90098994e-03, 9.90098994e-03, 9.90098994e-03, 0., 0.,
          2.97029689e-02, 9.90098994e-03, 0., 0., 0., 0., 0., 0., 0.,
          1.98019799e-02, 0., 9.90098994e-03, 0., 0., 0., 0., 0., 0., 0.,
          0., 0., 0., 9.90098994e-03, 0., 0., 0., 0., 0., 0.,
          9.90098994e-03, 0., 0., 0., 2.97029689e-02, 1.98019799e-02, 0.,
          9.90098994e-03, 0., 0., 0., 0., 2.97029689e-02, 1.98019799e-02,
          0., 0., 9.90098994e-03, 0., 0., 0., 0., 0., 0., 0., 0.,
          9.90098994e-03, 0., 0., 0., 0., 1.98019799e-02, 0., 0., 0., 0.,
          9.90098994e-03, 2.97029689e-02, 9.90098994e-03, 9.90098994e-03,
          0., 0., 9.90098994e-03, 0., 0., 0., 0., 0., 9.90098994e-03, 0.,
          0., 1.98019799e-02, 0., 0., 0., 0., 6.93069324e-02, 0., 0.,
          9.90098994e-03, 0., 9.90098994e-03, 9.90098994e-03, 0., 0., 0.,
          0., 9.90098994e-03, 1.98019799e-02, 0., 0., 0., 0., 0.,
          3.96039598e-02, 4.95049506e-02, 0., 0., 0., 0., 0., 0., 0.,
          9.90098994e-03, 0., 0., 0., 0., 0., 0., 0., 0., 0., 0.,
          1.98019799e-02, 0., 0., 0., 0., 0., 0., 9.90098994e-03, 0.,
          1.98019799e-02, 0., 0., 0., 1.98019799e-02, 0., 0., 0.,
          9.90098994e-03, 7.92079195e-02, 0., 0., 1.98019799e-02, 0.,
          9.90098994e-03, 9.90098994e-03, 0., 0., 1.98019799e-02, 0., 0.,
          0., 0., 0., 0., 0., 9.90098994e-03, 9.90098994e-03,
          1.98019799e-02, 9.90098994e-03, 9.90098994e-03, 0., 0.,
          9.90098994e-03, 0., 0., 0., 0., 9.90098994e-03, 0., 0., 0., 0.,
          0., 0., 9.90098994e-03, 0., 0., 0., 0., 0., 0. ]
      - [ 7.81250000e-03, 0., 0., 0., 0., 0., 0., 0., 0., 0.,
          7.81250000e-03, 7.81250000e-03, 0., 0., 0., 7.81250000e-03,
          7.81250000e-03, 7.81250000e-03, 0., 0., 0., 0., 1.56250000e-02,
          0., 2.34375000e-02, 7.81250000e-03, 1.56250000e-02,
          1.56250000e-02, 0., 0., 7.81250000e-03, 0., 0., 7.81250000e-03,
          0., 7.81250000e-03, 7.81250000e-03, 0., 0., 0., 0.,
          2.34375000e-02, 7.81250000e-03, 0., 0., 1.56250000e-02,
          7.81250000e-03, 1.56250000e-02, 7.81250000e-03, 0.,
          1.56250000e-02, 0., 0., 0., 0., 0., 0., 3.90625000e-02,
          7.81250000e-03, 0., 7.81250000e-03, 0., 7.81250000e-03, 0.,
          7.81250000e-03, 0., 0., 0., 0., 0., 1.56250000e-02,
          7.81250000e-03, 0., 4.68750000e-02, 3.90625000e-02, 0.,
          7.81250000e-03, 7.81250000e-03, 0., 0., 0., 0., 7.03125000e-02,
          0., 0., 0., 7.81250000e-03, 7.81250000e-03, 0., 7.81250000e-03,
          0., 0., 0., 1.56250000e-02, 0., 1.56250000e-02, 0., 0., 0., 0.,
          0., 0., 0., 0., 1.56250000e-02, 1.56250000e-02, 0., 0., 0., 0.,
          0., 0., 3.90625000e-02, 7.81250000e-03, 0., 0., 0., 0., 0.,
          7.81250000e-03, 1.56250000e-02, 0., 0., 0., 7.81250000e-03, 0.,
          0., 0., 0., 0., 7.81250000e-03, 7.81250000e-03, 0., 0.,
          7.81250000e-03, 0., 0., 7.81250000e-03, 7.81250000e-03, 0.,
          7.81250000e-03, 0., 7.81250000e-03, 0., 0., 0., 7.81250000e-03,
          7.81250000e-03, 0., 0., 0., 7.81250000e-03, 0., 0., 0., 0.,
          7.81250000e-03, 2.34375000e-02, 0., 0., 0., 0., 0., 0., 0., 0.,
          0., 0., 0., 0., 3.12500000e-02, 0., 0., 7.81250000e-03,
          1.56250000e-02, 7.81250000e-03, 0., 7.81250000e-03,
          7.81250000e-03, 7.81250000e-03, 0., 7.81250000e-03,
          7.81250000e-03, 0., 1.56250000e-02, 0., 0., 7.81250000e-03, 0.,
          0., 6.25000000e-02, 0., 7.81250000e-03, 0., 7.81250000e-03, 0.,
          0., 0., 0., 7.81250000e-03 ]
      - [ 8.13008100e-03, 0., 8.13008100e-03, 0., 0., 0., 8.13008100e-03,
          0., 0., 1.62601620e-02, 0., 1.62601620e-02, 0., 0., 0., 0., 0.,
          0., 8.13008100e-03, 0., 0., 0., 0., 0., 0., 0., 0.,
          8.13008100e-03, 0., 0., 0., 0., 0., 0., 0., 8.13008100e-03, 0.,
          0., 0., 2.43902430e-02, 8.13008100e-03, 0., 0., 0., 0., 0., 0.,
          0., 4.87804860e-02, 0., 0., 0., 0., 0., 0., 0., 0.,
          8.13008100e-03, 0., 0., 8.13008100e-03, 0., 0., 6.50406480e-02,
          0., 0., 0., 0., 0., 0., 0., 8.13008100e-03, 0., 1.62601620e-02,
          1.70731694e-01, 0., 0., 0., 0., 0., 8.13008100e-03, 0.,
          1.13821134e-01, 0., 0., 4.06504050e-02, 8.13008100e-03, 0., 0.,
          0., 0., 0., 0., 0., 8.13008100e-03, 8.13008100e-03, 0., 0., 0.,
          0., 0., 0., 5.69105670e-02, 0., 8.13008100e-02, 0., 0., 0., 0.,
          8.13008100e-03, 8.13008100e-03, 0., 8.13008100e-03, 0., 0., 0.,
          8.13008100e-03, 0., 0., 0., 0., 0., 0., 8.13008100e-03, 0.,
          8.13008100e-03, 0., 0., 8.13008100e-03, 0., 8.13008100e-03, 0.,
          0., 0., 0., 0., 0., 0., 0., 0., 8.13008100e-03, 0., 0., 0., 0.,
          0., 0., 0., 0., 0., 0., 0., 0., 0., 0., 0., 0., 0.,
          1.62601620e-02, 0., 0., 0., 0., 0., 0., 0., 0., 0., 0., 0.,
          2.43902430e-02, 0., 0., 0., 0., 0., 0., 0., 0., 0., 0., 0., 0.,
          0., 0., 0., 8.13008100e-03, 2.43902430e-02, 3.25203240e-02, 0.,
          1.62601620e-02, 0., 0., 0., 0., 0., 0., 0., 0., 4.06504050e-02 ]
      - [ 0., 1.12359552e-02, 0., 0., 2.24719103e-02, 0., 1.12359552e-02,
          0., 0., 0., 0., 0., 0., 0., 0., 1.12359552e-02, 0.,
          2.24719103e-02, 0., 0., 0., 0., 0., 0., 0., 0., 0.,
          2.24719103e-02, 1.12359552e-02, 0., 0., 0., 0., 0., 0., 0., 0.,
          0., 0., 0., 0., 0., 0., 0., 0., 0., 0., 1.12359552e-02,
          7.86516890e-02, 3.37078646e-02, 0., 0., 0., 0., 2.24719103e-02,
          0., 0., 2.24719103e-02, 0., 0., 5.61797768e-02, 0., 0.,
          1.12359552e-02, 0., 0., 0., 0., 0., 0., 1.12359552e-02, 0., 0.,
          0., 1.12359554e-01, 1.12359552e-02, 0., 1.12359552e-02, 0., 0.,
          0., 0., 1.12359552e-02, 1.12359552e-02, 0., 1.01123594e-01, 0.,
          0., 0., 0., 0., 0., 0., 0., 0., 4.49438207e-02, 0., 0., 0., 0.,
          0., 0., 0., 0., 0., 0., 3.37078646e-02, 0., 0., 0., 0., 0.,
          1.12359552e-02, 0., 0., 1.12359552e-02, 0., 0., 0., 0., 0., 0.,
          0., 0., 2.24719103e-02, 0., 0., 0., 0., 1.12359552e-02, 0., 0.,
          0., 0., 0., 1.12359552e-02, 0., 0., 2.24719103e-02,
          2.24719103e-02, 0., 0., 0., 0., 0., 0., 0., 1.12359552e-02, 0.,
          1.12359552e-02, 0., 0., 0., 0., 0., 1.12359552e-02, 0., 0.,
          1.12359552e-02, 0., 0., 0., 0., 0., 0., 0., 0., 1.12359552e-02,
          0., 0., 2.24719103e-02, 0., 0., 1.12359552e-02, 0., 0., 0., 0.,
          0., 0., 0., 0., 0., 0., 0., 0., 0., 2.24719103e-02, 0., 0.,
          1.12359552e-02, 0., 0., 0., 0., 0., 0., 0., 1.12359552e-02,
          5.61797768e-02 ]
      - [ 7.63358781e-03, 7.63358781e-03, 0., 0., 0., 7.63358781e-03,
          7.63358781e-03, 0., 7.63358781e-03, 0., 7.63358781e-03, 0.,
          7.63358781e-03, 7.63358781e-03, 0., 0., 1.52671756e-02, 0., 0.,
          0., 0., 0., 1.52671756e-02, 0., 0., 7.63358781e-03,
          7.63358781e-03, 7.63358781e-03, 7.63358781e-03, 7.63358781e-03,
          0., 7.63358781e-03, 0., 0., 0., 0., 0., 0., 0., 7.63358781e-03,
          0., 1.52671756e-02, 0., 0., 7.63358781e-03, 0., 0.,
          3.81679386e-02, 7.63358781e-03, 1.52671756e-02, 0., 0., 0., 0.,
          1.52671756e-02, 0., 1.52671756e-02, 0., 0., 0., 0., 0.,
          7.63358781e-03, 0., 0., 0., 0., 0., 0., 0., 7.63358781e-03, 0.,
          7.63358781e-03, 0., 3.81679386e-02, 0., 0., 3.05343512e-02, 0.,
          0., 0., 0., 1.52671756e-02, 2.29007639e-02, 0., 7.63358781e-03,
          0., 0., 0., 0., 7.63358781e-03, 0., 0., 0., 0., 0., 0., 0., 0.,
          0., 0., 0., 1.52671756e-02, 7.63358781e-03, 1.52671756e-02, 0.,
          0., 0., 7.63358781e-03, 7.63358781e-03, 0., 0., 3.81679386e-02,
          0., 0., 7.63358781e-03, 0., 0., 0., 0., 0., 0., 0.,
          2.29007639e-02, 7.63358781e-03, 0., 0., 7.63358781e-03,
          7.63358781e-03, 0., 0., 7.63358781e-03, 7.63358781e-03,
          7.63358781e-03, 0., 0., 0., 7.63358781e-03, 2.29007639e-02,
          4.58015278e-02, 7.63358781e-03, 0., 0., 0., 7.63358781e-03, 0.,
          0., 2.29007639e-02, 0., 7.63358781e-03, 7.63358781e-03, 0., 0.,
          0., 0., 1.52671756e-02, 0., 0., 1.52671756e-02, 0., 0.,
          7.63358781e-03, 1.52671756e-02, 0., 0., 0., 0., 3.05343512e-02,
          7.63358781e-03, 0., 2.29007639e-02, 3.81679386e-02,
          7.63358781e-03, 0., 0., 7.63358781e-03, 7.63358781e-03,
          7.63358781e-03, 0., 0., 0., 0., 3.05343512e-02, 7.63358781e-03,
          3.05343512e-02, 0., 7.63358781e-03, 0., 7.63358781e-03,
          7.63358781e-03, 0., 0., 0., 7.63358781e-03, 7.63358781e-03, 0.,
          0., 0., 7.63358781e-03, 0. ]
      - [ 0., 0., 1.40845068e-02, 0., 1.40845068e-02, 0., 0.,
          2.81690136e-02, 2.81690136e-02, 0., 0., 0., 0., 0., 0., 0., 0.,
          0., 0., 0., 0., 0., 1.40845068e-02, 1.40845068e-02, 0., 0., 0.,
          2.81690136e-02, 0., 2.81690136e-02, 0., 0., 0., 0., 0., 0., 0.,
          0., 0., 0., 0., 0., 0., 1.40845068e-02, 0., 0., 0., 0.,
          2.81690136e-02, 0., 0., 0., 1.40845068e-02, 0., 0., 0., 0.,
          1.40845068e-02, 0., 0., 0., 0., 0., 0., 1.40845068e-02, 0.,
          1.40845068e-02, 0., 0., 0., 0., 0., 0., 0., 0., 0., 0.,
          1.40845068e-02, 0., 1.40845068e-02, 1.40845068e-02,
          1.40845068e-02, 0., 1.40845068e-02, 0., 0., 0., 0., 0., 0., 0.,
          0., 0., 0., 2.81690136e-02, 0., 0., 0., 0., 0., 0., 0.,
          1.40845068e-02, 0., 0., 0., 0., 0., 0., 0., 0., 0., 0., 0., 0.,
          0., 0., 0., 0., 1.40845068e-02, 0., 0., 0., 0., 5.63380271e-02,
          0., 0., 1.40845068e-02, 1.40845068e-02, 0., 0., 0., 0., 0., 0.,
          1.40845068e-02, 0., 0., 7.04225302e-02, 5.63380271e-02, 0.,
          2.81690136e-02, 0., 0., 0., 0., 0., 0., 0., 7.04225302e-02, 0.,
          0., 0., 0., 0., 8.45070407e-02, 0., 0., 4.22535203e-02, 0., 0.,
          0., 0., 0., 0., 0., 0., 1.40845068e-02, 0., 1.40845068e-02,
          4.22535203e-02, 1.40845068e-02, 0., 0., 1.40845068e-02, 0., 0.,
          0., 0., 0., 0., 0., 0., 1.40845068e-02, 0., 0., 0.,
          4.22535203e-02, 0., 0., 0., 0., 0., 0., 0., 0., 0., 0., 0., 0. ]
      - [ 9.09090880e-03, 9.09090880e-03, 0., 0., 9.09090880e-03, 0.,
          9.09090880e-03, 0., 0., 0., 0., 1.81818176e-02, 0., 0.,
          9.09090880e-03, 1.81818176e-02, 2.72727273e-02, 1.81818176e-02,
          0., 0., 0., 0., 0., 0., 9.09090880e-03, 0., 0., 0., 0.,
          1.81818176e-02, 0., 0., 0., 0., 0., 0., 0., 0., 0., 0., 0.,
          9.09090880e-03, 0., 0., 0., 0., 0., 9.09090880e-03,
          2.72727273e-02, 0., 0., 0., 0., 9.09090880e-03, 9.09090880e-03,
          0., 9.09090880e-03, 0., 0., 0., 9.09090880e-03, 0., 0.,
          5.45454547e-02, 1.81818176e-02, 0., 0., 0., 0., 0.,
          9.09090880e-03, 0., 0., 9.09090880e-03, 1.81818172e-01, 0., 0.,
          9.09090880e-03, 0., 0., 0., 0., 3.63636352e-02, 0., 0.,
          9.09090880e-03, 0., 0., 0., 0., 0., 0., 0., 0., 0.,
          9.09090880e-03, 1.81818176e-02, 0., 9.09090880e-03, 0., 0., 0.,
          0., 0., 4.54545431e-02, 0., 1.81818176e-02, 0., 0., 0.,
          9.09090880e-03, 0., 9.09090880e-03, 0., 0., 0., 0., 0., 0., 0.,
          0., 0., 0., 1.81818176e-02, 9.09090880e-03, 0., 1.81818176e-02,
          0., 0., 0., 0., 0., 9.09090880e-03, 0., 0., 0., 0., 0.,
          9.09090880e-03, 0., 0., 0., 0., 0., 0., 0., 9.09090880e-03,
          9.09090880e-03, 1.81818176e-02, 0., 0., 9.09090880e-03, 0., 0.,
          0., 0., 0., 4.54545431e-02, 0., 0., 0., 0., 0., 0.,
          9.09090880e-03, 0., 0., 1.81818176e-02, 9.09090880e-03, 0.,
          9.09090880e-03, 0., 0., 0., 0., 0., 0., 0., 0., 0., 0., 0., 0.,
          0., 0., 0., 0., 3.63636352e-02, 1.81818176e-02, 0.,
          9.09090880e-03, 0., 0., 0., 0., 0., 0., 0., 0., 5.45454547e-02 ]
      - [ 0., 4.16666679e-02, 0., 0., 0., 0., 0., 1.38888890e-02, 0., 0.,
          0., 1.38888890e-02, 0., 0., 1.38888890e-02, 0., 2.77777780e-02,
          2.77777780e-02, 0., 0., 0., 0., 0., 0., 0., 1.38888890e-02, 0.,
          4.16666679e-02, 2.77777780e-02, 0., 0., 0., 0., 1.38888890e-02,
          0., 0., 0., 0., 0., 0., 0., 1.38888890e-02, 1.38888890e-02, 0.,
          0., 0., 0., 0., 0., 2.77777780e-02, 0., 0., 0., 0., 0., 0., 0.,
          1.38888890e-02, 0., 0., 0., 0., 1.38888890e-02, 1.38888890e-02,
          0., 0., 0., 0., 0., 0., 0., 0., 2.77777780e-02, 2.77777780e-02,
          6.94444478e-02, 0., 0., 1.38888890e-02, 0., 0., 0.,
          2.77777780e-02, 0., 0., 1.38888890e-02, 1.38888890e-02, 0.,
          2.77777780e-02, 1.38888890e-02, 0., 1.38888890e-02, 0., 0.,
          1.38888890e-02, 0., 0., 1.38888890e-02, 0., 0., 0., 0., 0.,
          1.38888890e-02, 0., 0., 0., 2.77777780e-02, 0., 1.38888890e-02,
          1.38888890e-02, 1.38888890e-02, 0., 0., 0., 1.38888890e-02, 0.,
          1.38888890e-02, 0., 0., 2.77777780e-02, 1.38888890e-02, 0., 0.,
          0., 4.16666679e-02, 1.38888890e-02, 1.38888890e-02, 0., 0., 0.,
          0., 0., 0., 0., 0., 0., 0., 0., 4.16666679e-02, 2.77777780e-02,
          0., 0., 0., 0., 0., 0., 0., 0., 0., 0., 0., 0., 0., 0., 0.,
          1.38888890e-02, 0., 1.38888890e-02, 2.77777780e-02, 0., 0., 0.,
          0., 0., 0., 0., 0., 0., 0., 0., 0., 0., 0., 0., 0., 0., 0., 0.,
          0., 0., 0., 1.38888890e-02, 0., 0., 0., 0., 0., 1.38888890e-02,
          0., 0., 0., 0., 0., 0., 0., 0., 0., 0., 0., 1.38888890e-02 ]
      - [ 0., 4.54545468e-02, 0., 0., 0., 0., 4.54545468e-02, 0., 0., 0.,
          0., 0., 0., 0., 0., 4.54545468e-02, 4.54545468e-02, 0., 0., 0.,
          0., 0., 0., 0., 0., 0., 0., 0., 0., 0., 0., 0., 0., 0., 0., 0.,
          0., 0., 0., 0., 0., 4.54545468e-02, 0., 0., 0., 0., 0., 0.,
          4.54545468e-02, 0., 0., 0., 0., 0., 0., 0., 0., 0., 0., 0., 0.,
          0., 0., 0., 0., 0., 0., 0., 0., 0., 0., 0., 0., 0.,
          4.54545468e-02, 0., 0., 4.54545468e-02, 0., 0., 0., 0., 0., 0.,
          0., 0., 0., 0., 4.54545468e-02, 0., 0., 0., 0., 0.,
          4.54545468e-02, 0., 0., 0., 0., 0., 0., 0., 0., 0., 0., 0., 0.,
          0., 4.54545468e-02, 0., 0., 0., 0., 0., 4.54545468e-02, 0., 0.,
          0., 0., 0., 0., 0., 0., 0., 0., 0., 0., 0., 0., 0., 0., 0., 0.,
          4.54545468e-02, 0., 0., 0., 0., 9.09090936e-02, 4.54545468e-02,
          0., 0., 0., 0., 0., 0., 0., 0., 0., 4.54545468e-02, 0., 0., 0.,
          0., 0., 0., 0., 0., 0., 0., 0., 0., 0., 0., 0., 0., 0., 0., 0.,
          0., 0., 0., 0., 0., 0., 0., 0., 9.09090936e-02, 0., 0., 0., 0.,
          0., 0., 0., 0., 0., 1.36363640e-01, 0., 0., 0., 0., 0., 0., 0.,
          0., 0., 0., 0., 0. ]
      - [ 0., 0., 0., 0., 0., 0., 0., 0., 0., 4.16666679e-02, 0., 0.,
          2.77777780e-02, 0., 0., 0., 2.77777780e-02, 1.38888890e-02, 0.,
          0., 0., 0., 0., 0., 0., 0., 0., 0., 1.38888890e-02, 0., 0., 0.,
          0., 0., 0., 0., 1.38888890e-02, 0., 0., 0., 0., 2.77777780e-02,
          0., 0., 0., 0., 0., 0., 5.55555560e-02, 0., 1.38888890e-02, 0.,
          1.38888890e-02, 0., 0., 0., 0., 1.38888890e-02, 0., 0., 0.,
          1.38888890e-02, 0., 5.55555560e-02, 0., 0., 0., 1.38888890e-02,
          0., 0., 0., 0., 0., 0., 1.66666672e-01, 0., 0., 0., 0., 0.,
          2.77777780e-02, 0., 6.94444478e-02, 0., 0., 1.38888890e-02, 0.,
          0., 1.38888890e-02, 0., 0., 0., 0., 0., 0., 2.77777780e-02, 0.,
          0., 0., 0., 0., 0., 1.38888890e-02, 0., 0., 0., 0., 0., 0., 0.,
          0., 0., 2.77777780e-02, 0., 0., 0., 1.38888890e-02, 0., 0., 0.,
          0., 0., 0., 0., 4.16666679e-02, 0., 0., 0., 0., 1.38888890e-02,
          0., 0., 0., 0., 0., 0., 0., 0., 0., 1.38888890e-02, 0., 0., 0.,
          0., 1.38888890e-02, 1.38888890e-02, 0., 0., 1.38888890e-02, 0.,
          1.38888890e-02, 0., 0., 0., 0., 1.38888890e-02, 0.,
          1.38888890e-02, 0., 0., 0., 0., 0., 0., 0., 0., 0., 0., 0., 0.,
          2.77777780e-02, 0., 0., 2.77777780e-02, 0., 0., 0., 0., 0., 0.,
          0., 1.38888890e-02, 0., 0., 0., 0., 0., 1.38888890e-02,
          1.38888890e-02, 0., 0., 0., 0., 0., 0., 1.38888890e-02, 0., 0.,
          0., 1.38888890e-02 ]
      - [ 0., 0., 0., 0., 8.69565178e-03, 0., 0., 8.69565178e-03, 0.,
          8.69565178e-03, 8.69565178e-03, 0., 0., 0., 1.73913036e-02, 0.,
          0., 0., 8.69565178e-03, 0., 8.69565178e-03, 0., 1.73913036e-02,
          8.69565178e-03, 0., 0., 0., 0., 0., 0., 0., 0., 0., 0.,
          8.69565178e-03, 0., 2.60869563e-02, 0., 8.69565178e-03, 0., 0.,
          8.69565178e-03, 0., 1.73913036e-02, 0., 0., 0., 0., 0.,
          6.08695634e-02, 8.69565178e-03, 8.69565178e-03, 0., 0., 0., 0.,
          8.69565178e-03, 0., 1.73913036e-02, 0., 0., 8.69565178e-03,
          8.69565178e-03, 3.47826071e-02, 0., 0., 0., 0., 0., 0., 0., 0.,
          0., 0., 0., 0., 8.69565178e-03, 3.47826071e-02, 0., 0.,
          8.69565178e-03, 0., 2.60869563e-02, 8.69565178e-03, 0., 0., 0.,
          0., 1.73913036e-02, 0., 8.69565178e-03, 0., 0., 0., 0.,
          8.69565178e-03, 0., 8.69565178e-03, 8.69565178e-03, 0.,
          4.34782580e-02, 2.60869563e-02, 8.69565178e-03, 0.,
          8.69565178e-03, 0., 0., 0., 0., 2.60869563e-02, 0., 0., 0., 0.,
          8.69565178e-03, 1.73913036e-02, 0., 0., 0., 4.34782580e-02,
          8.69565178e-03, 0., 0., 0., 0., 0., 2.60869563e-02,
          8.69565178e-03, 0., 8.69565178e-03, 8.69565178e-03, 0., 0., 0.,
          0., 8.69565178e-03, 8.69565178e-03, 0., 2.60869563e-02,
          4.34782580e-02, 0., 0., 0., 0., 0., 0., 0., 0., 1.73913036e-02,
          0., 0., 1.73913036e-02, 1.73913036e-02, 0., 0., 8.69565178e-03,
          0., 0., 0., 0., 0., 0., 8.69565178e-03, 0., 0., 0., 0.,
          8.69565178e-03, 0., 0., 0., 0., 0., 8.69565178e-03,
          4.34782580e-02, 8.69565178e-03, 0., 0., 8.69565178e-03, 0., 0.,
          8.69565178e-03, 0., 0., 8.69565178e-03, 0., 0., 0., 0., 0., 0.,
          0., 0., 2.60869563e-02, 0., 8.69565178e-03, 0., 8.69565178e-03,
          0., 0. ]
      - [ 0., 0., 0., 0., 0., 0., 0., 0., 0., 0., 0., 0., 0., 0., 0., 0.,
          0., 0., 0., 0., 0., 0., 0., 0., 3.44827585e-02, 0., 0.,
          1.03448272e-01, 0., 0., 0., 0., 0., 0., 0., 0., 0., 0., 0., 0.,
          0., 0., 0., 0., 0., 0., 0., 0., 0., 0., 0., 0., 0., 0., 0., 0.,
          0., 0., 3.44827585e-02, 0., 0., 0., 0., 3.44827585e-02, 0., 0.,
          0., 0., 0., 0., 0., 0., 0., 0., 0., 0., 3.44827585e-02,
          1.03448272e-01, 0., 0., 0., 0., 0., 0., 0., 0., 0., 0.,
          3.44827585e-02, 0., 0., 0., 0., 0., 0., 6.89655170e-02, 0., 0.,
          0., 0., 0., 0., 0., 0., 0., 0., 0., 0., 0., 0., 0., 0., 0., 0.,
          0., 0., 0., 0., 0., 0., 0., 0., 0., 0., 1.03448272e-01, 0.,
          3.44827585e-02, 0., 0., 0., 0., 0., 0., 0., 0., 0., 0., 0.,
          3.44827585e-02, 1.37931034e-01, 0., 0., 0., 0., 3.44827585e-02,
          0., 0., 3.44827585e-02, 0., 0., 0., 6.89655170e-02, 0., 0., 0.,
          0., 0., 0., 3.44827585e-02, 0., 0., 0., 0., 0., 0., 0., 0., 0.,
          0., 0., 3.44827585e-02, 0., 0., 0., 0., 0., 0., 0., 0., 0., 0.,
          0., 3.44827585e-02, 0., 0., 0., 0., 0., 0., 0., 0., 0., 0., 0.,
          0., 0., 0., 0., 0., 0. ]
      - [ 3.88349518e-02, 2.91262139e-02, 0., 0., 0., 9.70873795e-03, 0.,
          0., 0., 9.70873795e-03, 0., 0., 0., 0., 0., 0., 9.70873795e-03,
          0., 9.70873795e-03, 0., 0., 0., 0., 0., 0., 0., 0.,
          9.70873795e-03, 1.94174759e-02, 0., 0., 0., 0., 9.70873795e-03,
          0., 0., 0., 0., 0., 0., 0., 9.70873795e-03, 0., 0., 0., 0., 0.,
          0., 9.70873795e-03, 3.88349518e-02, 9.70873795e-03, 0., 0.,
          9.70873795e-03, 0., 0., 0., 9.70873795e-03, 0., 0., 0.,
          9.70873795e-03, 0., 0., 9.70873795e-03, 0., 2.91262139e-02, 0.,
          0., 1.94174759e-02, 0., 0., 0., 0., 1.06796116e-01, 0.,
          1.94174759e-02, 1.94174759e-02, 0., 1.94174759e-02, 0.,
          9.70873795e-03, 1.94174759e-02, 0., 0., 5.82524277e-02, 0., 0.,
          2.91262139e-02, 0., 0., 0., 0., 0., 0., 0., 0., 0., 0., 0., 0.,
          9.70873795e-03, 9.70873795e-03, 0., 0., 0., 0., 0.,
          9.70873795e-03, 2.91262139e-02, 0., 0., 0., 0., 0., 0., 0., 0.,
          0., 0., 0., 0., 0., 0., 9.70873795e-03, 0., 2.91262139e-02, 0.,
          0., 0., 0., 0., 0., 1.94174759e-02, 0., 0., 0., 0.,
          3.88349518e-02, 2.91262139e-02, 0., 9.70873795e-03, 0., 0.,
          1.94174759e-02, 0., 0., 0., 0., 9.70873795e-03, 0., 0.,
          9.70873795e-03, 0., 0., 1.94174759e-02, 0., 0., 2.91262139e-02,
          0., 0., 0., 0., 0., 0., 0., 0., 1.94174759e-02, 0., 0.,
          1.94174759e-02, 0., 0., 9.70873795e-03, 0., 0., 9.70873795e-03,
          0., 0., 0., 0., 0., 0., 0., 0., 0., 0., 9.70873795e-03,
          9.70873795e-03, 2.91262139e-02, 0., 0., 0., 0., 0.,
          1.94174759e-02, 0., 0., 0., 9.70873795e-03 ]
      - [ 0., 0., 0., 0., 1.26582282e-02, 0., 0., 0., 0., 3.79746854e-02,
          0., 0., 1.26582282e-02, 0., 1.26582282e-02, 0., 0., 0.,
          1.26582282e-02, 0., 0., 0., 0., 0., 0., 0., 1.26582282e-02, 0.,
          0., 0., 0., 0., 0., 0., 0., 1.26582282e-02, 0., 0.,
          1.26582282e-02, 0., 0., 1.26582282e-02, 0., 1.26582282e-02, 0.,
          0., 0., 0., 2.53164563e-02, 1.26582280e-01, 0., 0., 0.,
          2.53164563e-02, 0., 0., 1.26582282e-02, 0., 3.79746854e-02, 0.,
          0., 1.26582282e-02, 0., 2.53164563e-02, 1.26582282e-02, 0., 0.,
          0., 0., 0., 0., 0., 0., 0., 1.26582282e-02, 0., 1.26582282e-02,
          3.79746854e-02, 0., 0., 0., 0., 1.26582282e-02, 0., 0., 0., 0.,
          0., 1.26582282e-02, 0., 1.26582282e-02, 0., 0., 1.26582282e-02,
          0., 0., 0., 0., 0., 0., 1.26582282e-02, 0., 1.26582282e-02, 0.,
          0., 0., 0., 0., 0., 5.06329127e-02, 0., 0., 0., 0.,
          2.53164563e-02, 0., 0., 0., 0., 2.53164563e-02, 1.26582282e-02,
          0., 0., 1.26582282e-02, 0., 1.26582282e-02, 0., 0., 0., 0., 0.,
          0., 0., 2.53164563e-02, 0., 0., 1.26582282e-02, 0., 0.,
          2.53164563e-02, 0., 0., 0., 0., 1.26582282e-02, 0., 0., 0., 0.,
          1.26582282e-02, 0., 0., 5.06329127e-02, 0., 0., 0., 0.,
          1.26582282e-02, 2.53164563e-02, 0., 0., 0., 0., 0., 0., 0., 0.,
          1.26582282e-02, 0., 0., 0., 0., 0., 1.26582282e-02,
          3.79746854e-02, 1.26582282e-02, 1.26582282e-02, 0.,
          1.26582282e-02, 0., 0., 0., 0., 0., 0., 0., 0., 0.,
          1.26582282e-02, 0., 0., 0., 0., 0., 0., 0., 0., 0., 0., 0. ]
      - [ 9.34579410e-03, 2.33644843e-02, 0., 4.67289705e-03,
          4.67289705e-03, 0., 0., 9.34579410e-03, 4.67289705e-03,
          4.67289686e-02, 4.67289705e-03, 0., 0., 0., 0., 4.67289705e-03,
          0., 4.67289705e-03, 0., 0., 0., 0., 1.40186911e-02, 0., 0.,
          4.67289705e-03, 0., 9.34579410e-03, 1.40186911e-02, 0., 0., 0.,
          0., 0., 0., 1.86915882e-02, 4.67289705e-03, 0., 0., 0., 0.,
          4.67289705e-03, 0., 0., 1.40186911e-02, 0., 0., 4.67289705e-03,
          0., 4.20560725e-02, 0., 0., 4.67289705e-03, 4.67289705e-03,
          4.67289705e-03, 0., 0., 0., 0., 0., 4.67289705e-03,
          4.67289705e-03, 4.67289705e-03, 0., 0., 0., 0., 0., 0., 0., 0.,
          4.67289705e-03, 0., 1.40186911e-02, 2.33644843e-02,
          4.67289705e-03, 4.67289705e-03, 2.33644843e-02, 0.,
          4.67289705e-03, 4.67289705e-03, 0., 1.86915882e-02,
          9.34579410e-03, 0., 1.86915882e-02, 0., 4.67289705e-03,
          2.80373823e-02, 4.67289705e-03, 0., 9.34579410e-03,
          4.67289705e-03, 0., 4.67289705e-03, 0., 0., 0., 9.34579410e-03,
          0., 0., 9.34579410e-03, 2.33644843e-02, 0., 0., 4.67289705e-03,
          9.34579410e-03, 0., 4.67289705e-03, 0., 0., 4.67289705e-03,
          4.67289705e-03, 1.86915882e-02, 4.67289705e-03, 9.34579410e-03,
          4.67289705e-03, 0., 0., 0., 0., 4.67289705e-03, 0., 0.,
          4.67289705e-03, 0., 4.67289705e-03, 0., 0., 0., 0.,
          4.67289705e-03, 4.67289705e-03, 0., 1.40186911e-02,
          9.34579410e-03, 0., 9.34579410e-03, 5.14018685e-02,
          4.67289705e-03, 0., 0., 1.40186911e-02, 0., 1.40186911e-02, 0.,
          0., 0., 0., 1.86915882e-02, 4.67289705e-03, 0., 0., 0., 0.,
          1.86915882e-02, 0., 9.34579410e-03, 4.20560725e-02, 0., 0., 0.,
          0., 0., 0., 0., 0., 2.80373823e-02, 0., 9.34579410e-03,
          4.20560725e-02, 0., 0., 0., 4.67289705e-03, 0., 0.,
          9.34579410e-03, 1.40186911e-02, 0., 0., 0., 0., 0.,
          4.67289705e-03, 4.67289705e-03, 4.67289705e-03, 1.40186911e-02,
          0., 0., 0., 0., 4.67289705e-03, 0., 0., 9.34579410e-03,
          4.67289705e-03, 0., 0., 4.20560725e-02 ]
      - [ 0., 0., 0., 0., 0., 0., 1.92307699e-02, 0., 0., 0., 0., 0., 0.,
          0., 1.92307699e-02, 0., 1.92307699e-02, 0., 0., 0., 0., 0., 0.,
          0., 0., 0., 0., 1.92307699e-02, 0., 0., 0., 0., 1.92307699e-02,
          0., 0., 0., 0., 0., 3.84615399e-02, 0., 0., 1.92307699e-02, 0.,
          1.92307699e-02, 0., 0., 0., 0., 0., 7.69230798e-02, 0.,
          3.84615399e-02, 0., 5.76923117e-02, 0., 0., 0., 0., 0., 0., 0.,
          0., 0., 0., 0., 0., 0., 0., 0., 0., 0., 0., 0., 0., 0., 0.,
          1.92307699e-02, 0., 0., 0., 1.92307699e-02, 1.92307699e-02, 0.,
          0., 0., 0., 0., 1.92307699e-02, 3.84615399e-02, 0.,
          1.92307699e-02, 0., 1.92307699e-02, 0., 0., 0., 1.92307699e-02,
          1.92307699e-02, 1.92307699e-02, 0., 3.84615399e-02, 0., 0., 0.,
          0., 0., 0., 0., 0., 0., 1.92307699e-02, 0., 0., 0., 0., 0., 0.,
          0., 0., 1.92307699e-02, 1.92307699e-02, 0., 0., 0., 0., 0., 0.,
          1.92307699e-02, 0., 0., 1.92307699e-02, 0., 0., 1.92307699e-02,
          0., 0., 1.92307699e-02, 1.92307699e-02, 0., 1.92307699e-02, 0.,
          1.92307699e-02, 0., 0., 0., 0., 1.92307699e-02, 1.92307699e-02,
          0., 0., 0., 0., 0., 0., 0., 0., 0., 0., 5.76923117e-02, 0., 0.,
          0., 0., 0., 0., 0., 0., 0., 0., 0., 1.92307699e-02, 0., 0., 0.,
          7.69230798e-02, 0., 0., 0., 0., 0., 0., 0., 0., 0., 0., 0., 0.,
          1.92307699e-02, 0., 0., 0., 0., 0., 0., 0., 0., 0., 0., 0., 0. ]
      - [ 0., 0., 0., 0., 0., 0., 0., 0., 0., 0., 0., 0., 0., 0., 0.,
          4.59770113e-02, 1.14942528e-02, 0., 0., 0., 0., 0., 0., 0.,
          2.29885057e-02, 0., 0., 0., 0., 0., 0., 0., 0., 1.14942528e-02,
          0., 0., 0., 0., 0., 0., 0., 2.29885057e-02, 0., 0.,
          1.14942528e-02, 0., 0., 0., 2.29885057e-02, 0., 0.,
          1.14942528e-02, 0., 0., 1.14942528e-02, 0., 0., 4.59770113e-02,
          0., 0., 2.29885057e-02, 0., 0., 2.29885057e-02, 0., 0., 0., 0.,
          0., 0., 0., 0., 1.14942528e-02, 0., 9.19540226e-02, 0., 0., 0.,
          0., 0., 0., 0., 4.59770113e-02, 0., 0., 2.29885057e-02, 0.,
          1.14942528e-02, 1.14942528e-02, 0., 0., 0., 0., 0., 0.,
          3.44827585e-02, 0., 1.14942528e-02, 0., 0., 0., 0.,
          6.89655170e-02, 0., 0., 0., 1.14942528e-02, 0., 0., 0., 0., 0.,
          0., 0., 0., 1.14942528e-02, 0., 1.14942528e-02, 0., 0., 0., 0.,
          0., 0., 1.14942528e-02, 0., 0., 0., 0., 0., 0., 0., 0., 0., 0.,
          0., 0., 0., 0., 0., 0., 0., 0., 0., 0., 0., 1.14942528e-02, 0.,
          0., 4.59770113e-02, 0., 0., 0., 0., 0., 0., 0., 0.,
          3.44827585e-02, 0., 0., 0., 0., 0., 0., 0., 0., 0., 0., 0.,
          1.03448272e-01, 0., 0., 0., 0., 0., 0., 0., 0., 0., 0.,
          1.14942528e-02, 0., 0., 0., 0., 0., 0., 1.14942528e-02, 0.,
          2.29885057e-02, 0., 0., 0., 0., 0., 0., 0., 0., 1.37931034e-01 ]
      - [ 0., 1.99999996e-02, 3.99999991e-02, 0., 3.99999991e-02, 0., 0.,
          0., 0., 0., 0., 0., 0., 0., 0., 0., 0., 1.99999996e-02, 0., 0.,
          0., 0., 0., 0., 0., 0., 0., 3.99999991e-02, 0., 0., 0., 0., 0.,
          0., 0., 0., 0., 0., 0., 0., 0., 1.99999996e-02, 0., 0., 0., 0.,
          0., 0., 0., 0., 1.99999996e-02, 0., 1.99999996e-02, 0., 0., 0.,
          0., 0., 1.99999996e-02, 0., 1.99999996e-02, 1.99999996e-02, 0.,
          0., 0., 0., 0., 0., 0., 0., 0., 0., 0., 0., 1.99999996e-02, 0.,
          0., 1.99999996e-02, 0., 0., 0., 0., 1.99999996e-02,
          1.99999996e-02, 0., 3.99999991e-02, 0., 0., 0., 0., 0., 0., 0.,
          0., 0., 1.99999996e-02, 0., 0., 0., 0., 0., 0., 0., 0., 0., 0.,
          0., 0., 5.99999987e-02, 0., 0., 0., 0., 0., 1.99999996e-02, 0.,
          0., 0., 0., 0., 0., 0., 0., 0., 0., 1.99999996e-02,
          3.99999991e-02, 0., 0., 1.99999996e-02, 3.99999991e-02, 0., 0.,
          1.99999996e-02, 0., 0., 3.99999991e-02, 0., 0., 5.99999987e-02,
          0., 0., 0., 0., 0., 0., 0., 0., 0., 0., 0., 1.99999996e-02,
          3.99999991e-02, 0., 0., 0., 0., 0., 0., 1.99999996e-02, 0., 0.,
          0., 0., 0., 0., 0., 3.99999991e-02, 0., 0., 1.99999996e-02, 0.,
          0., 0., 0., 0., 0., 0., 1.99999996e-02, 1.99999996e-02, 0., 0.,
          1.99999996e-02, 0., 1.99999996e-02, 0., 0., 0., 0., 0., 0., 0.,
          0., 0., 0., 3.99999991e-02, 0., 0., 0., 0. ]
      - [ 0., 0., 0., 0., 0., 0., 0., 5.74712642e-02, 0., 2.29885057e-02,
          0., 0., 0., 0., 2.29885057e-02, 0., 0., 0., 1.14942528e-02,
          1.14942528e-02, 0., 0., 1.14942528e-02, 0., 0., 1.14942528e-02,
          0., 0., 0., 0., 0., 0., 0., 0., 0., 3.44827585e-02, 0., 0.,
          1.14942528e-02, 0., 0., 0., 0., 1.14942528e-02, 0., 0., 0.,
          1.14942528e-02, 0., 1.72413796e-01, 0., 0., 0., 2.29885057e-02,
          0., 0., 0., 0., 0., 0., 0., 1.14942528e-02, 1.14942528e-02,
          1.14942528e-02, 0., 0., 0., 0., 0., 0., 0., 0., 0., 0., 0., 0.,
          1.14942528e-02, 2.29885057e-02, 0., 0., 0., 0., 0., 0., 0., 0.,
          0., 1.14942528e-02, 0., 0., 0., 0., 1.14942528e-02, 0., 0., 0.,
          0., 0., 0., 0., 0., 2.29885057e-02, 5.74712642e-02, 0.,
          2.29885057e-02, 0., 0., 0., 1.14942528e-02, 0., 0., 0., 0., 0.,
          0., 0., 0., 0., 0., 0., 0., 1.14942528e-02, 0., 0., 0.,
          1.14942528e-02, 0., 0., 0., 1.14942528e-02, 0., 0., 0., 0., 0.,
          0., 0., 0., 0., 0., 0., 0., 0., 2.29885057e-02, 0., 0., 0., 0.,
          0., 1.14942528e-02, 0., 2.29885057e-02, 0., 0., 0., 0., 0., 0.,
          3.44827585e-02, 0., 0., 0., 0., 0., 0., 0., 0., 5.74712642e-02,
          0., 0., 1.14942528e-02, 1.14942528e-02, 0., 1.14942528e-02,
          3.44827585e-02, 0., 0., 1.14942528e-02, 8.04597735e-02, 0., 0.,
          0., 0., 0., 1.14942528e-02, 0., 0., 0., 0., 0., 0., 0., 0., 0.,
          0., 2.29885057e-02, 0., 0., 0., 0. ]
      - [ 1.25000002e-02, 1.25000002e-02, 0., 0., 0., 0., 0.,
          1.25000002e-02, 0., 2.50000004e-02, 0., 0., 0., 0.,
          1.25000002e-02, 1.25000002e-02, 0., 0., 0., 0., 0.,
          3.75000015e-02, 2.50000004e-02, 0., 0., 0., 0., 0., 0., 0., 0.,
          0., 0., 0., 0., 0., 0., 0., 1.25000002e-02, 0., 0.,
          2.50000004e-02, 1.25000002e-02, 0., 0., 0., 0., 1.25000002e-02,
          7.50000030e-02, 0., 1.25000002e-02, 0., 0., 0., 0., 0., 0.,
          2.50000004e-02, 0., 0., 0., 0., 1.25000002e-02, 5.00000007e-02,
          0., 0., 0., 0., 0., 0., 0., 0., 0., 0., 5.00000007e-02, 0., 0.,
          0., 0., 0., 0., 0., 2.50000004e-02, 0., 0., 1.25000002e-02, 0.,
          0., 1.25000002e-02, 0., 0., 0., 0., 0., 0., 6.25000000e-02, 0.,
          0., 0., 0., 0., 0., 1.25000002e-02, 0., 2.50000004e-02, 0.,
          2.50000004e-02, 0., 0., 0., 0., 0., 0., 1.25000002e-02, 0., 0.,
          0., 0., 0., 1.25000002e-02, 0., 0., 0., 0., 1.25000002e-02, 0.,
          2.50000004e-02, 0., 0., 0., 0., 0., 0., 0., 0., 0., 0., 0., 0.,
          1.25000002e-02, 0., 0., 0., 0., 0., 0., 0., 1.25000002e-02, 0.,
          0., 0., 2.50000004e-02, 1.25000002e-02, 0., 0., 0., 0., 0.,
          1.25000002e-02, 0., 0., 0., 0., 0., 1.25000002e-02, 0., 0., 0.,
          0., 0., 1.25000002e-02, 0., 0., 2.50000004e-02, 0.,
          3.75000015e-02, 0., 0., 1.25000002e-02, 0., 0., 0.,
          1.25000002e-02, 0., 1.25000002e-02, 0., 2.50000004e-02,
          2.50000004e-02, 2.50000004e-02, 0., 0., 0., 0., 0., 0., 0., 0.,
          1.25000002e-02, 0., 3.75000015e-02 ]
      - [ 0., 0., 0., 0., 0., 0., 0., 0., 0., 1.44927539e-02, 0., 0., 0.,
          0., 1.44927539e-02, 0., 1.44927539e-02, 1.44927539e-02, 0., 0.,
          0., 0., 1.44927539e-02, 0., 0., 1.44927539e-02, 1.44927539e-02,
          4.34782617e-02, 0., 0., 0., 0., 0., 0., 0., 0., 0., 0., 0., 0.,
          0., 5.79710156e-02, 0., 2.89855078e-02, 0., 0., 0.,
          1.44927539e-02, 2.89855078e-02, 2.89855078e-02, 0.,
          1.44927539e-02, 0., 0., 0., 0., 0., 0., 0., 0., 1.44927539e-02,
          0., 0., 1.44927539e-02, 0., 0., 0., 0., 0., 0., 0., 0., 0., 0.,
          2.89855078e-02, 0., 0., 5.79710156e-02, 0., 0., 0., 0., 0., 0.,
          0., 0., 0., 0., 2.89855078e-02, 0., 0., 0., 0., 0., 0., 0., 0.,
          0., 0., 0., 1.44927539e-02, 0., 1.44927539e-02, 0., 0., 0., 0.,
          0., 0., 0., 0., 0., 2.89855078e-02, 0., 0., 2.89855078e-02,
          1.44927539e-02, 0., 2.89855078e-02, 0., 0., 0., 1.44927539e-02,
          0., 1.44927539e-02, 0., 0., 0., 0., 0., 0., 0., 0., 0., 0., 0.,
          0., 0., 2.89855078e-02, 1.44927539e-02, 0., 0., 0., 0., 0., 0.,
          0., 4.34782617e-02, 0., 4.34782617e-02, 0., 0., 0., 0., 0., 0.,
          0., 0., 1.44927539e-02, 0., 0., 0., 0., 0., 0., 0., 0.,
          2.89855078e-02, 0., 0., 1.15942031e-01, 0., 0., 0.,
          1.44927539e-02, 0., 0., 0., 0., 0., 0., 1.44927539e-02,
          1.44927539e-02, 0., 0., 0., 0., 0., 1.44927539e-02, 0., 0., 0.,
          0., 0., 0., 0., 0., 0., 0., 2.89855078e-02 ]
      - [ 0., 2.02020202e-02, 0., 0., 0., 0., 0., 0., 0., 0.,
          2.02020202e-02, 2.02020202e-02, 1.01010101e-02, 0.,
          1.01010101e-02, 1.01010101e-02, 0., 0., 0., 0., 0., 0., 0., 0.,
          2.02020202e-02, 1.01010101e-02, 0., 2.02020202e-02, 0., 0., 0.,
          0., 0., 0., 0., 0., 0., 0., 0., 0., 0., 2.02020202e-02, 0., 0.,
          0., 0., 0., 0., 5.05050495e-02, 8.08080807e-02, 1.01010101e-02,
          0., 0., 1.01010101e-02, 0., 0., 0., 0., 1.01010101e-02, 0., 0.,
          0., 1.01010101e-02, 8.08080807e-02, 0., 0., 0., 0., 0., 0., 0.,
          0., 0., 2.02020202e-02, 3.03030312e-02, 0., 2.02020202e-02,
          2.02020202e-02, 0., 2.02020202e-02, 0., 1.01010101e-02, 0., 0.,
          0., 0., 0., 0., 1.01010101e-02, 0., 0., 0., 0., 0., 0., 0., 0.,
          1.01010101e-02, 0., 0., 2.02020202e-02, 1.01010101e-02,
          3.03030312e-02, 0., 0., 0., 0., 0., 0., 2.02020202e-02, 0., 0.,
          1.01010101e-02, 0., 0., 0., 1.01010101e-02, 0., 0.,
          1.01010101e-02, 3.03030312e-02, 0., 0., 0., 3.03030312e-02,
          1.01010101e-02, 2.02020202e-02, 0., 0., 0., 0., 0., 0., 0., 0.,
          0., 1.01010101e-02, 0., 1.01010101e-02, 1.01010101e-02, 0.,
          1.01010101e-02, 1.01010101e-02, 0., 0., 0., 0., 1.01010101e-02,
          2.02020202e-02, 0., 0., 0., 0., 0., 0., 0., 0., 0.,
          4.04040404e-02, 0., 0., 0., 0., 0., 0., 0., 0., 0., 0., 0.,
          4.04040404e-02, 0., 0., 1.01010101e-02, 1.01010101e-02,
          1.01010101e-02, 0., 0., 0., 1.01010101e-02, 0., 0., 0., 0., 0.,
          0., 0., 0., 1.01010101e-02, 0., 0., 0., 2.02020202e-02, 0., 0.,
          0., 0., 0., 0., 1.01010101e-02 ]
      - [ 1.51515156e-02, 0., 0., 0., 7.57575780e-03, 7.57575780e-03,
          7.57575780e-03, 0., 0., 4.54545468e-02, 7.57575780e-03, 0., 0.,
          0., 0., 0., 7.57575780e-03, 0., 0., 0., 0., 0., 7.57575780e-03,
          0., 0., 0., 7.57575780e-03, 3.03030312e-02, 2.27272734e-02, 0.,
          0., 0., 0., 0., 0., 0., 0., 0., 0., 0., 0., 1.51515156e-02,
          1.51515156e-02, 0., 1.51515156e-02, 0., 0., 6.06060624e-02,
          2.27272734e-02, 5.30303046e-02, 0., 0., 0., 0., 0., 0., 0., 0.,
          0., 0., 0., 0., 7.57575780e-03, 3.78787890e-02, 0., 0.,
          7.57575780e-03, 0., 7.57575780e-03, 0., 2.27272734e-02, 0., 0.,
          0., 4.54545468e-02, 0., 7.57575780e-03, 0., 0., 0., 0., 0.,
          1.51515156e-02, 0., 7.57575780e-03, 0., 7.57575780e-03,
          7.57575780e-03, 7.57575780e-03, 0., 0., 0., 0., 7.57575780e-03,
          0., 0., 1.51515156e-02, 0., 7.57575780e-03, 0., 0., 0.,
          1.51515156e-02, 0., 1.51515156e-02, 0., 0., 0., 0.,
          7.57575780e-03, 0., 0., 0., 0., 0., 7.57575780e-03, 0., 0., 0.,
          0., 0., 0., 0., 0., 4.54545468e-02, 7.57575780e-03,
          7.57575780e-03, 0., 0., 0., 7.57575780e-03, 1.51515156e-02, 0.,
          0., 0., 0., 0., 7.57575780e-03, 7.57575780e-03, 3.78787890e-02,
          0., 0., 0., 0., 7.57575780e-03, 0., 0., 0., 0., 3.03030312e-02,
          0., 0., 0., 0., 0., 7.57575780e-03, 7.57575780e-03, 0.,
          1.51515156e-02, 0., 0., 0., 0., 0., 0., 0., 0., 7.57575780e-03,
          0., 0., 2.27272734e-02, 7.57575780e-03, 0., 7.57575780e-03, 0.,
          7.57575780e-03, 0., 7.57575780e-03, 4.54545468e-02, 0., 0., 0.,
          1.51515156e-02, 0., 7.57575780e-03, 0., 0., 2.27272734e-02,
          3.03030312e-02, 0., 0., 0., 0., 7.57575780e-03, 0., 0., 0., 0.,
          0., 0. ]
      - [ 0., 0., 0., 0., 0., 0., 0., 0., 0., 0., 0., 0., 0., 0., 0., 0.,
          5.55555560e-02, 1.38888890e-02, 0., 0., 0., 0., 0., 0., 0., 0.,
          0., 0., 0., 0., 1.38888890e-02, 0., 0., 1.38888890e-02, 0., 0.,
          0., 0., 0., 0., 0., 1.38888890e-02, 0., 0., 1.38888890e-02,
          2.77777780e-02, 0., 0., 0., 0., 0., 0., 0., 0., 0., 0., 0., 0.,
          0., 0., 0., 0., 2.77777780e-02, 1.38888890e-02, 1.38888890e-02,
          0., 0., 1.38888890e-02, 0., 0., 0., 0., 0., 0., 0., 0., 0.,
          1.38888890e-02, 0., 0., 0., 0., 0., 0., 0., 1.38888890e-02, 0.,
          0., 0., 0., 0., 0., 0., 0., 0., 2.77777780e-02, 1.38888890e-02,
          1.38888890e-02, 1.38888890e-02, 0., 0., 0., 1.38888890e-02,
          1.38888890e-02, 0., 0., 5.55555560e-02, 0., 0., 1.38888890e-02,
          1.38888890e-02, 0., 0., 0., 0., 0., 2.77777780e-02, 0., 0., 0.,
          1.38888890e-02, 0., 0., 0., 4.16666679e-02, 1.38888890e-02, 0.,
          0., 0., 0., 0., 0., 0., 4.16666679e-02, 0., 0., 0., 0.,
          2.77777780e-02, 1.38888890e-02, 0., 0., 0., 1.38888890e-02,
          1.38888890e-02, 0., 0., 1.38888890e-02, 2.77777780e-02,
          2.77777780e-02, 0., 0., 0., 0., 1.38888890e-02, 2.77777780e-02,
          1.38888890e-02, 0., 2.77777780e-02, 0., 0., 0., 0., 0., 0., 0.,
          0., 0., 0., 0., 6.94444478e-02, 0., 0., 4.16666679e-02, 0., 0.,
          0., 1.38888890e-02, 0., 0., 1.38888890e-02, 0., 0., 0., 0., 0.,
          0., 0., 0., 0., 0., 0., 0., 2.77777780e-02, 0., 1.38888890e-02,
          2.77777780e-02, 0., 0., 0. ]
      - [ 0., 0., 0., 0., 0., 0., 0., 0., 0., 0., 1.11111114e-02, 0., 0.,
          0., 0., 0., 0., 1.11111114e-02, 0., 0., 0., 0., 0., 0., 0., 0.,
          0., 1.11111114e-02, 0., 0., 0., 1.11111114e-02, 0., 0., 0., 0.,
          0., 0., 0., 0., 1.11111114e-02, 1.11111114e-02, 0., 0.,
          1.11111114e-02, 0., 0., 1.11111114e-02, 0., 1.33333340e-01, 0.,
          1.11111114e-02, 0., 0., 0., 0., 0., 0., 0., 0., 0., 0., 0.,
          6.66666701e-02, 0., 0., 0., 0., 1.11111114e-02, 0.,
          1.11111114e-02, 1.11111114e-02, 1.11111114e-02, 0.,
          2.22222228e-02, 0., 0., 0., 0., 0., 1.11111114e-02, 0., 0.,
          1.11111114e-02, 0., 0., 0., 0., 2.22222228e-02, 0., 0., 0., 0.,
          1.11111114e-02, 0., 0., 0., 0., 0., 0., 0., 1.11111114e-02,
          1.11111114e-02, 0., 2.22222228e-02, 0., 0., 0., 1.11111114e-02,
          0., 1.11111114e-02, 0., 1.11111114e-02, 0., 0., 0., 0., 0., 0.,
          1.11111114e-02, 0., 2.22222228e-02, 0., 0., 1.11111114e-02,
          2.22222228e-02, 0., 0., 0., 1.11111114e-02, 0., 1.11111114e-02,
          0., 1.11111114e-02, 1.11111114e-02, 1.11111114e-02, 0., 0., 0.,
          2.22222228e-02, 0., 0., 1.11111114e-02, 0., 0., 0., 0.,
          3.33333351e-02, 0., 0., 0., 0., 0., 0., 0., 0., 0., 0.,
          6.66666701e-02, 0., 0., 0., 0., 0., 0., 0., 0., 1.11111114e-02,
          0., 0., 1.11111114e-02, 0., 0., 0., 0., 1.11111114e-02, 0., 0.,
          1.55555561e-01, 0., 1.11111114e-02, 1.11111114e-02,
          2.22222228e-02, 0., 0., 0., 0., 0., 0., 0., 1.11111114e-02, 0.,
          0., 0., 0., 0., 0., 0., 0., 0. ]
      - [ 0., 0., 1.11111114e-02, 0., 0., 0., 0., 1.11111114e-02, 0.,
          3.33333351e-02, 0., 0., 0., 0., 0., 0., 4.44444455e-02, 0., 0.,
          0., 0., 0., 1.11111114e-02, 0., 0., 0., 0., 1.11111114e-02, 0.,
          0., 0., 0., 0., 3.33333351e-02, 0., 1.11111114e-02, 0., 0.,
          1.11111114e-02, 0., 0., 2.22222228e-02, 0., 0., 0., 0., 0.,
          1.11111114e-02, 0., 8.88888910e-02, 1.11111114e-02, 0., 0., 0.,
          0., 0., 0., 0., 1.11111114e-02, 0., 0., 0., 0., 3.33333351e-02,
          0., 0., 0., 0., 0., 0., 0., 2.22222228e-02, 0., 0., 0., 0., 0.,
          4.44444455e-02, 0., 0., 0., 0., 0., 0., 0., 0., 0., 0., 0., 0.,
          0., 0., 0., 0., 0., 0., 0., 0., 0., 0., 0., 0., 0., 0.,
          4.44444455e-02, 0., 0., 0., 1.11111114e-02, 2.22222228e-02, 0.,
          0., 0., 0., 0., 1.11111114e-02, 0., 0., 0., 1.11111114e-02,
          1.11111114e-02, 0., 0., 0., 0., 6.66666701e-02, 2.22222228e-02,
          0., 0., 1.11111114e-02, 1.11111114e-02, 0., 0., 0., 0.,
          1.11111114e-02, 0., 0., 0., 4.44444455e-02, 0., 0., 0., 0.,
          4.44444455e-02, 0., 0., 0., 0., 0., 0., 0., 0., 0., 0., 0., 0.,
          0., 1.00000001e-01, 0., 0., 0., 0., 0., 0., 0., 0.,
          2.22222228e-02, 0., 0., 0., 0., 0., 1.11111114e-02,
          2.22222228e-02, 1.11111114e-02, 0., 1.11111114e-02,
          4.44444455e-02, 0., 0., 0., 0., 0., 0., 0., 0., 1.11111114e-02,
          0., 0., 0., 0., 0., 0., 0., 2.22222228e-02, 0., 0., 0., 0. ]
      - [ 0., 0., 0., 0., 0., 0., 0., 0., 0., 1.63934417e-02, 0., 0., 0.,
          0., 0., 0., 4.91803251e-02, 0., 0., 0., 0., 0., 1.63934417e-02,
          0., 0., 1.63934417e-02, 0., 1.63934417e-02, 0., 0., 0., 0., 0.,
          1.63934417e-02, 0., 1.63934417e-02, 0., 0., 0., 0., 0.,
          1.63934417e-02, 1.63934417e-02, 0., 4.91803251e-02, 0., 0.,
          1.63934417e-02, 4.91803251e-02, 3.27868834e-02, 0.,
          3.27868834e-02, 0., 0., 0., 0., 0., 3.27868834e-02, 0., 0., 0.,
          0., 3.27868834e-02, 1.63934417e-02, 0., 0., 0., 0., 0., 0., 0.,
          0., 0., 1.63934417e-02, 3.27868834e-02, 0., 0., 1.63934417e-02,
          0., 0., 0., 0., 0., 0., 1.63934417e-02, 0., 0., 0., 0., 0., 0.,
          0., 0., 0., 0., 0., 0., 0., 0., 0., 0., 0., 4.91803251e-02,
          1.63934417e-02, 1.63934417e-02, 0., 0., 0., 0., 1.63934417e-02,
          0., 0., 0., 0., 0., 0., 0., 0., 0., 0., 0., 0., 0., 0., 0., 0.,
          0., 0., 1.63934417e-02, 0., 1.63934417e-02, 0., 0.,
          1.63934417e-02, 0., 0., 0., 0., 1.63934417e-02, 4.91803251e-02,
          0., 1.63934417e-02, 0., 0., 0., 0., 0., 4.91803251e-02, 0.,
          3.27868834e-02, 0., 0., 0., 0., 0., 0., 0., 0., 1.14754096e-01,
          0., 0., 0., 1.63934417e-02, 0., 0., 0., 0., 0., 0., 0., 0., 0.,
          0., 0., 0., 0., 0., 0., 0., 0., 0., 0., 1.63934417e-02, 0., 0.,
          0., 0., 0., 0., 0., 0., 1.63934417e-02, 0., 0., 0., 0., 0., 0.,
          0., 0. ]
      - [ 3.26086953e-02, 1.08695654e-02, 0., 0., 0., 0., 0., 0., 0.,
          7.60869607e-02, 0., 0., 3.26086953e-02, 0., 2.17391308e-02, 0.,
          3.26086953e-02, 1.08695654e-02, 0., 0., 0., 0., 0., 0., 0.,
          1.08695654e-02, 2.17391308e-02, 0., 0., 3.26086953e-02, 0., 0.,
          0., 0., 0., 0., 0., 0., 0., 0., 0., 0., 0., 0., 0., 0., 0., 0.,
          0., 0., 1.08695654e-02, 1.08695654e-02, 0., 0., 0., 0., 0.,
          2.17391308e-02, 3.26086953e-02, 0., 0., 0., 0., 1.08695656e-01,
          1.08695654e-02, 0., 0., 0., 0., 0., 0., 0., 0., 0., 0., 0., 0.,
          0., 0., 0., 0., 0., 2.17391308e-02, 0., 0., 1.08695654e-02, 0.,
          1.08695654e-02, 0., 1.08695654e-02, 2.17391308e-02, 0., 0., 0.,
          0., 1.08695654e-02, 0., 0., 0., 0., 0., 0., 3.26086953e-02, 0.,
          1.30434781e-01, 0., 0., 0., 0., 0., 1.08695654e-02, 0., 0., 0.,
          1.08695654e-02, 1.08695654e-02, 1.08695654e-02, 0., 0.,
          1.08695654e-02, 0., 0., 0., 0., 1.08695654e-02, 0.,
          2.17391308e-02, 0., 0., 0., 0., 0., 0., 0., 0., 0., 0., 0.,
          1.08695654e-02, 0., 1.08695654e-02, 0., 0., 0., 0., 0., 0.,
          1.08695654e-02, 0., 0., 0., 0., 1.08695654e-02, 0., 0.,
          1.08695654e-02, 0., 1.08695654e-02, 4.34782617e-02, 0., 0., 0.,
          0., 0., 0., 0., 0., 0., 0., 0., 3.26086953e-02, 0., 0.,
          1.08695654e-02, 0., 0., 0., 0., 0., 0., 0., 0., 0., 0., 0., 0.,
          0., 2.17391308e-02, 0., 0., 0., 0., 0., 0., 0., 0., 0., 0., 0.,
          1.08695654e-02 ]
      - [ 0., 0., 0., 2.04081628e-02, 0., 0., 0., 0., 0., 2.04081628e-02,
          0., 0., 0., 0., 2.04081628e-02, 0., 2.04081628e-02, 0.,
          2.04081628e-02, 0., 0., 0., 0., 0., 0., 0., 0., 0., 0., 0., 0.,
          0., 0., 0., 0., 0., 0., 0., 0., 0., 0., 0., 0., 2.04081628e-02,
          0., 0., 0., 0., 0., 8.16326514e-02, 0., 2.04081628e-02, 0.,
          2.04081628e-02, 0., 0., 0., 0., 0., 0., 2.04081628e-02, 0., 0.,
          0., 0., 0., 0., 0., 0., 0., 0., 6.12244904e-02, 0., 0., 0., 0.,
          6.12244904e-02, 0., 0., 0., 0., 0., 2.04081628e-02, 0., 0., 0.,
          0., 4.08163257e-02, 0., 0., 2.04081628e-02, 0., 0., 0., 0., 0.,
          0., 2.04081628e-02, 0., 0., 0., 0., 4.08163257e-02, 0., 0., 0.,
          0., 0., 2.04081628e-02, 0., 0., 0., 0., 0., 0., 0., 0., 0., 0.,
          2.04081628e-02, 0., 0., 0., 0., 0., 0., 0., 0., 0., 0., 0., 0.,
          0., 2.04081628e-02, 0., 2.04081628e-02, 2.04081628e-02, 0.,
          4.08163257e-02, 6.12244904e-02, 0., 0., 0., 0., 0., 0., 0., 0.,
          0., 0., 0., 0., 2.04081628e-02, 0., 0., 0., 0., 4.08163257e-02,
          4.08163257e-02, 0., 0., 0., 0., 0., 0., 0., 0., 0.,
          2.04081628e-02, 0., 2.04081628e-02, 0., 0., 0., 4.08163257e-02,
          2.04081628e-02, 4.08163257e-02, 0., 0., 0., 0., 0.,
          2.04081628e-02, 0., 0., 0., 0., 0., 0., 0., 0., 0., 0., 0., 0.,
          0., 0., 0., 0., 0. ]
      - [ 0., 0., 0., 0., 1.85185187e-02, 0., 1.85185187e-02, 0., 0., 0.,
          0., 0., 0., 0., 0., 0., 0., 1.85185187e-02, 0., 0.,
          3.70370373e-02, 0., 0., 0., 0., 0., 3.70370373e-02, 0., 0., 0.,
          0., 0., 0., 0., 0., 3.70370373e-02, 0., 0., 0., 0., 0.,
          7.40740746e-02, 0., 0., 0., 0., 0., 0., 0., 0., 0., 0., 0., 0.,
          0., 0., 0., 0., 1.85185187e-02, 0., 0., 0., 0., 0., 0., 0., 0.,
          0., 0., 0., 0., 0., 0., 0., 1.66666672e-01, 0., 0.,
          3.70370373e-02, 0., 0., 0., 0., 0., 0., 0., 0., 0., 0., 0., 0.,
          0., 0., 0., 0., 0., 1.85185187e-02, 0., 0., 0., 0., 0., 0., 0.,
          0., 0., 0., 0., 0., 0., 0., 0., 0., 3.70370373e-02, 0.,
          3.70370373e-02, 0., 1.85185187e-02, 0., 0., 0., 0., 0., 0., 0.,
          0., 0., 3.70370373e-02, 1.85185187e-02, 0., 0., 0., 0., 0., 0.,
          0., 0., 0., 0., 1.85185187e-02, 5.55555560e-02, 0., 0., 0., 0.,
          0., 0., 0., 1.85185187e-02, 0., 1.85185187e-02, 0., 0.,
          1.85185187e-02, 0., 0., 1.85185187e-02, 0., 0., 0., 0., 0., 0.,
          0., 0., 0., 0., 0., 1.85185187e-02, 0., 0., 1.85185187e-02, 0.,
          0., 0., 0., 1.85185187e-02, 0., 1.85185187e-02, 3.70370373e-02,
          0., 0., 0., 1.85185187e-02, 0., 1.85185187e-02, 0., 0., 0.,
          1.85185187e-02, 0., 1.85185187e-02, 0., 0., 0., 0.,
          1.85185187e-02, 0., 0., 0., 1.85185187e-02 ]
      - [ 1.72413792e-02, 0., 0., 0., 0., 0., 0., 0., 0., 5.17241359e-02,
          0., 0., 1.72413792e-02, 0., 0., 3.44827585e-02, 0.,
          3.44827585e-02, 0., 0., 0., 0., 0., 0., 0., 0., 0.,
          1.72413792e-02, 0., 0., 0., 0., 0., 0., 0., 0., 0., 0., 0., 0.,
          0., 0., 0., 0., 0., 1.72413792e-02, 0., 0., 1.72413792e-02, 0.,
          0., 0., 0., 0., 1.72413792e-02, 0., 0., 0., 0., 0.,
          5.17241359e-02, 0., 0., 3.44827585e-02, 0., 0., 1.72413792e-02,
          0., 0., 0., 0., 1.72413792e-02, 1.72413792e-02, 3.44827585e-02,
          6.89655170e-02, 0., 0., 0., 0., 0., 0., 1.72413792e-02, 0., 0.,
          0., 5.17241359e-02, 0., 1.72413792e-02, 1.72413792e-02, 0., 0.,
          0., 0., 3.44827585e-02, 3.44827585e-02, 1.72413792e-02, 0., 0.,
          0., 0., 0., 0., 1.72413792e-02, 0., 0., 0., 1.72413792e-02,
          1.72413792e-02, 0., 0., 0., 0., 0., 0., 0., 0., 1.72413792e-02,
          0., 0., 0., 0., 0., 0., 0., 0., 0., 0., 0., 0., 0., 0., 0., 0.,
          0., 1.72413792e-02, 0., 0., 0., 3.44827585e-02, 0., 0., 0., 0.,
          0., 0., 0., 0., 0., 0., 1.72413792e-02, 0., 0., 0., 0., 0., 0.,
          0., 0., 0., 0., 0., 0., 0., 0., 0., 0., 0., 0., 0., 0.,
          8.62068981e-02, 0., 0., 1.72413792e-02, 0., 1.72413792e-02, 0.,
          0., 0., 0., 0., 0., 0., 0., 0., 1.72413792e-02, 0.,
          3.44827585e-02, 1.72413792e-02, 0., 0., 0., 0., 0., 0., 0., 0.,
          0., 0., 1.72413792e-02 ]
      - [ 1.38888890e-02, 1.38888890e-02, 0., 0., 6.94444450e-03, 0., 0.,
          6.94444450e-03, 0., 6.25000000e-02, 2.08333340e-02,
          2.08333340e-02, 1.38888890e-02, 0., 6.94444450e-03, 0., 0.,
          2.08333340e-02, 0., 0., 0., 0., 6.94444450e-03, 6.94444450e-03,
          0., 0., 0., 6.94444450e-03, 0., 1.38888890e-02, 0., 0., 0., 0.,
          0., 0., 0., 0., 6.94444450e-03, 0., 0., 6.94444450e-03,
          6.94444450e-03, 6.94444450e-03, 0., 0., 0., 0., 0.,
          3.47222239e-02, 6.94444450e-03, 1.38888890e-02, 0.,
          1.38888890e-02, 6.94444450e-03, 0., 0., 0., 1.38888890e-02, 0.,
          0., 0., 0., 1.38888890e-02, 0., 0., 0., 0., 0., 0., 0.,
          6.94444450e-03, 0., 0., 6.94444450e-03, 0., 2.08333340e-02,
          6.94444450e-03, 6.94444450e-03, 0., 0., 0., 3.47222239e-02,
          1.38888890e-02, 6.94444450e-03, 0., 0., 6.94444450e-03, 0., 0.,
          6.94444450e-03, 0., 6.94444450e-03, 0., 6.94444450e-03,
          6.94444450e-03, 1.38888890e-02, 6.94444450e-03, 0., 0., 0., 0.,
          6.94444450e-03, 0., 1.38888890e-02, 6.94444450e-03,
          6.94444450e-03, 0., 1.38888890e-02, 1.38888890e-02,
          6.94444450e-03, 0., 0., 6.94444450e-03, 6.94444450e-03, 0., 0.,
          0., 0., 1.38888890e-02, 0., 0., 6.94444450e-03, 0.,
          1.38888890e-02, 6.94444450e-03, 0., 0., 0., 1.38888890e-02,
          1.38888890e-02, 0., 0., 1.38888890e-02, 0., 2.77777780e-02,
          2.08333340e-02, 0., 6.94444450e-03, 4.16666679e-02,
          2.08333340e-02, 0., 6.94444450e-03, 6.94444450e-03, 0., 0., 0.,
          0., 2.08333340e-02, 6.94444450e-03, 0., 0., 6.94444450e-03, 0.,
          2.77777780e-02, 0., 6.94444450e-03, 6.94444450e-03, 0., 0.,
          6.94444450e-03, 0., 0., 0., 6.94444450e-03, 0., 0.,
          2.08333340e-02, 0., 0., 0., 0., 0., 6.94444450e-03,
          6.94444450e-03, 0., 0., 0., 1.38888890e-02, 0., 6.94444450e-03,
          6.94444450e-03, 0., 0., 0., 0., 0., 6.94444450e-03, 0., 0., 0.,
          0., 0., 6.94444450e-03, 0., 1.38888890e-02, 0., 0., 0.,
          6.94444450e-03 ]
      - [ 2.34741792e-02, 9.38967150e-03, 4.69483575e-03, 4.69483575e-03,
          4.69483575e-03, 9.38967150e-03, 0., 0., 4.69483575e-03,
          1.87793430e-02, 2.81690136e-02, 0., 0., 0., 0., 0.,
          4.69483575e-03, 0., 4.69483575e-03, 0., 0., 0., 4.69483575e-03,
          0., 4.69483575e-03, 1.40845068e-02, 0., 9.38967150e-03, 0.,
          4.69483575e-03, 0., 4.69483575e-03, 4.69483575e-03, 0.,
          9.38967150e-03, 4.69483575e-03, 4.69483575e-03, 0.,
          9.38967150e-03, 0., 0., 0., 4.69483575e-03, 9.38967150e-03, 0.,
          0., 0., 9.38967150e-03, 4.69483575e-03, 4.69483575e-03, 0.,
          9.38967150e-03, 4.69483575e-03, 0., 4.69483575e-03, 0.,
          1.87793430e-02, 9.38967150e-03, 9.38967150e-03, 4.69483575e-03,
          0., 0., 9.38967150e-03, 1.40845068e-02, 1.40845068e-02,
          9.38967150e-03, 9.38967150e-03, 0., 4.69483575e-03, 0., 0.,
          4.69483575e-03, 4.69483575e-03, 0., 0., 4.69483575e-03,
          9.38967150e-03, 4.69483575e-03, 0., 0., 4.69483575e-03,
          4.69483575e-03, 4.69483575e-03, 4.69483575e-03, 0.,
          9.38967150e-03, 4.69483575e-03, 4.69483575e-03, 0.,
          4.69483575e-03, 4.69483575e-03, 4.69483575e-03, 4.69483575e-03,
          0., 9.38967150e-03, 0., 0., 1.40845068e-02, 4.69483575e-03, 0.,
          4.69483575e-03, 1.40845068e-02, 9.38967150e-03, 0.,
          9.38967150e-03, 0., 0., 0., 2.34741792e-02, 0., 0., 0.,
          4.69483575e-03, 0., 4.69483575e-03, 4.69483575e-03, 0., 0., 0.,
          0., 0., 0., 0., 9.38967150e-03, 2.81690136e-02, 0.,
          9.38967150e-03, 0., 4.69483575e-03, 4.69483575e-03,
          9.38967150e-03, 0., 0., 4.69483575e-03, 2.34741792e-02,
          9.38967150e-03, 0., 0., 1.40845068e-02, 9.38967150e-03, 0.,
          1.40845068e-02, 0., 1.87793430e-02, 0., 9.38967150e-03, 0., 0.,
          4.69483575e-03, 3.28638516e-02, 0., 4.69483575e-03, 0., 0.,
          9.38967150e-03, 4.69483575e-03, 0., 4.69483575e-03, 0., 0.,
          4.69483575e-03, 0., 0., 0., 0., 1.40845068e-02, 4.69483575e-03,
          7.51173720e-02, 9.38967150e-03, 1.87793430e-02, 0., 0., 0., 0.,
          0., 0., 4.69483575e-03, 1.40845068e-02, 0., 0., 9.38967150e-03,
          0., 0., 4.69483575e-03, 4.69483575e-03, 0., 0., 0., 0.,
          9.38967150e-03, 0., 4.69483575e-03, 4.69483575e-03,
          1.40845068e-02, 1.40845068e-02, 4.69483575e-03, 0.,
          1.40845068e-02, 4.69483575e-03, 0. ]
      - [ 1.29870130e-02, 0., 0., 0., 0., 0., 0., 0., 6.49350649e-03,
          2.59740259e-02, 0., 0., 1.29870130e-02, 0., 0., 0.,
          2.59740259e-02, 0., 0., 6.49350649e-03, 6.49350649e-03, 0.,
          1.29870130e-02, 6.49350649e-03, 0., 6.49350649e-03,
          6.49350649e-03, 0., 0., 0., 0., 0., 0., 0., 0., 0.,
          6.49350649e-03, 0., 0., 0., 6.49350649e-03, 6.49350649e-03, 0.,
          0., 0., 0., 6.49350649e-03, 6.49350649e-03, 1.29870130e-02,
          6.49350649e-03, 0., 0., 0., 0., 6.49350649e-03, 6.49350649e-03,
          0., 0., 0., 6.49350649e-03, 0., 6.49350649e-03, 0.,
          6.49350649e-03, 6.49350649e-03, 0., 0., 0., 0., 0.,
          6.49350649e-03, 6.49350649e-03, 6.49350649e-03, 1.29870130e-02,
          5.84415570e-02, 6.49350649e-03, 6.49350649e-03, 6.49350649e-03,
          0., 0., 6.49350649e-03, 1.29870130e-02, 3.89610380e-02, 0., 0.,
          6.49350658e-02, 1.29870130e-02, 0., 6.49350649e-03, 0., 0., 0.,
          0., 0., 6.49350649e-03, 2.59740259e-02, 6.49350649e-03, 0.,
          6.49350649e-03, 0., 0., 6.49350649e-03, 5.19480519e-02,
          6.49350649e-03, 6.49350649e-03, 1.29870130e-02, 6.49350649e-03,
          6.49350649e-03, 0., 0., 0., 0., 1.29870130e-02, 0.,
          6.49350649e-03, 0., 0., 0., 0., 0., 0., 0., 0., 6.49350649e-03,
          3.24675329e-02, 0., 0., 0., 0., 0., 0., 6.49350649e-03, 0., 0.,
          0., 6.49350649e-03, 0., 0., 1.94805190e-02, 0., 0., 0.,
          6.49350649e-03, 6.49350649e-03, 0., 0., 0., 1.94805190e-02, 0.,
          2.59740259e-02, 0., 0., 0., 0., 6.49350649e-03, 1.29870130e-02,
          6.49350649e-03, 0., 1.94805190e-02, 6.49350649e-03, 0., 0., 0.,
          6.49350649e-03, 0., 0., 0., 0., 0., 0., 5.19480519e-02, 0., 0.,
          6.49350649e-03, 0., 0., 0., 1.29870130e-02, 0., 0.,
          6.49350649e-03, 6.49350649e-03, 0., 0., 0., 0., 0.,
          6.49350649e-03, 1.29870130e-02, 6.49350649e-03, 6.49350649e-03,
          0., 1.29870130e-02, 6.49350649e-03, 0., 0., 1.29870130e-02, 0.,
          0., 2.59740259e-02 ]
      - [ 0., 6.49350649e-03, 6.49350649e-03, 0., 0., 0., 6.49350649e-03,
          0., 0., 6.49350649e-03, 0., 0., 0., 6.49350649e-03, 0., 0., 0.,
          6.49350649e-03, 0., 0., 0., 0., 0., 6.49350649e-03, 0.,
          6.49350649e-03, 0., 2.59740259e-02, 0., 0., 0., 0., 0., 0.,
          6.49350649e-03, 6.49350649e-03, 0., 0., 0., 0., 0., 0., 0., 0.,
          6.49350649e-03, 0., 0., 0., 1.94805190e-02, 5.19480519e-02,
          1.29870130e-02, 0., 0., 0., 0., 1.29870130e-02, 6.49350649e-03,
          0., 0., 0., 6.49350649e-03, 0., 6.49350649e-03, 6.49350658e-02,
          0., 0., 6.49350649e-03, 0., 0., 0., 0., 0., 0., 0.,
          4.54545468e-02, 6.49350649e-03, 0., 1.29870130e-02, 0.,
          1.29870130e-02, 0., 0., 1.29870130e-02, 0., 0., 1.29870130e-02,
          0., 0., 1.29870130e-02, 0., 0., 6.49350649e-03, 0., 0., 0.,
          1.29870130e-02, 6.49350649e-03, 0., 6.49350649e-03,
          6.49350649e-03, 0., 1.29870130e-02, 9.09090936e-02,
          6.49350649e-03, 7.14285746e-02, 0., 0., 0., 6.49350649e-03, 0.,
          0., 0., 1.29870130e-02, 6.49350649e-03, 6.49350649e-03, 0.,
          6.49350649e-03, 0., 0., 0., 0., 0., 0., 6.49350649e-03,
          1.94805190e-02, 0., 0., 6.49350649e-03, 0., 0., 1.29870130e-02,
          0., 0., 0., 0., 0., 0., 6.49350649e-03, 6.49350649e-03,
          5.19480519e-02, 0., 0., 0., 0., 0., 6.49350649e-03, 0.,
          6.49350649e-03, 0., 1.94805190e-02, 0., 0., 0., 0., 0., 0., 0.,
          0., 5.19480519e-02, 0., 0., 0., 0., 6.49350649e-03, 0., 0., 0.,
          0., 1.94805190e-02, 6.49350649e-03, 2.59740259e-02,
          1.29870130e-02, 0., 0., 0., 6.49350649e-03, 0., 6.49350649e-03,
          1.29870130e-02, 0., 0., 0., 0., 0., 6.49350649e-03, 0., 0.,
          1.94805190e-02, 1.29870130e-02, 0., 6.49350649e-03, 0., 0., 0.,
          0., 0., 0., 0., 0., 0. ]
      - [ 3.63636352e-02, 1.81818176e-02, 0., 0., 0., 0., 1.81818176e-02,
          0., 0., 0., 0., 1.81818176e-02, 1.81818176e-02, 0., 0., 0., 0.,
          0., 1.81818176e-02, 0., 0., 0., 0., 0., 1.81818176e-02, 0., 0.,
          0., 0., 0., 0., 0., 0., 0., 1.81818176e-02, 0., 0., 0., 0., 0.,
          0., 5.45454547e-02, 0., 0., 0., 3.63636352e-02, 0., 0.,
          1.81818176e-02, 0., 0., 0., 0., 0., 1.81818176e-02, 0.,
          1.81818176e-02, 0., 0., 0., 0., 0., 0., 3.63636352e-02, 0., 0.,
          0., 0., 1.81818176e-02, 0., 0., 1.81818176e-02, 1.81818176e-02,
          0., 5.45454547e-02, 0., 0., 0., 0., 0., 0., 0., 1.81818176e-02,
          0., 0., 0., 3.63636352e-02, 1.81818176e-02, 0., 1.81818176e-02,
          0., 0., 0., 1.81818176e-02, 0., 3.63636352e-02, 0., 0., 0., 0.,
          0., 0., 1.81818176e-02, 1.81818176e-02, 0., 1.81818176e-02, 0.,
          0., 0., 0., 0., 0., 3.63636352e-02, 0., 0., 0., 1.81818176e-02,
          0., 0., 0., 0., 0., 0., 0., 1.81818176e-02, 0., 0., 0., 0., 0.,
          0., 0., 0., 0., 0., 0., 0., 0., 0., 0., 1.81818176e-02, 0., 0.,
          0., 0., 0., 0., 3.63636352e-02, 0., 0., 0., 0., 0., 0., 0., 0.,
          1.81818176e-02, 0., 0., 0., 0., 0., 0., 0., 0., 1.81818176e-02,
          0., 0., 0., 0., 3.63636352e-02, 0., 0., 0., 0., 0., 0., 0., 0.,
          0., 0., 0., 0., 0., 0., 0., 0., 3.63636352e-02, 5.45454547e-02,
          0., 5.45454547e-02, 0., 0., 0., 0., 0., 0., 0., 0., 0. ]
      - [ 0., 0., 0., 1.58730168e-02, 0., 0., 3.17460336e-02,
          1.58730168e-02, 0., 1.58730168e-02, 0., 0., 0., 0.,
          1.58730168e-02, 0., 6.34920672e-02, 1.58730168e-02, 0., 0., 0.,
          0., 0., 0., 0., 0., 0., 0., 0., 0., 0., 0., 1.58730168e-02, 0.,
          0., 0., 0., 0., 3.17460336e-02, 0., 0., 1.58730168e-02, 0.,
          3.17460336e-02, 0., 0., 0., 0., 3.17460336e-02, 3.17460336e-02,
          3.17460336e-02, 0., 0., 0., 0., 0., 1.58730168e-02,
          1.58730168e-02, 1.58730168e-02, 0., 0., 0., 0., 1.58730168e-02,
          0., 0., 1.58730168e-02, 0., 0., 3.17460336e-02, 0., 0., 0., 0.,
          0., 0., 1.58730168e-02, 0., 0., 0., 0., 0., 1.58730168e-02, 0.,
          0., 0., 0., 0., 0., 0., 0., 0., 0., 0., 0., 0., 0.,
          1.58730168e-02, 0., 0., 0., 0., 0., 1.58730168e-02,
          7.93650821e-02, 0., 0., 0., 0., 4.76190522e-02, 1.58730168e-02,
          0., 0., 1.58730168e-02, 0., 0., 0., 0., 0., 0., 0., 0.,
          1.58730168e-02, 0., 1.58730168e-02, 0., 0., 0., 0., 0., 0., 0.,
          0., 0., 0., 0., 0., 0., 1.58730168e-02, 7.93650821e-02, 0., 0.,
          0., 0., 0., 0., 1.58730168e-02, 1.58730168e-02, 0., 0., 0., 0.,
          3.17460336e-02, 0., 0., 0., 0., 1.58730168e-02, 3.17460336e-02,
          0., 0., 0., 0., 0., 0., 0., 0., 0., 0., 0., 1.58730168e-02, 0.,
          0., 0., 0., 0., 0., 0., 0., 0., 0., 0., 0., 0., 0., 0., 0.,
          1.58730168e-02, 0., 0., 0., 0., 0., 0., 0., 0., 0., 0., 0.,
          3.17460336e-02 ]
      - [ 0., 0., 0., 0., 9.99999978e-03, 0., 0., 0., 0., 5.99999987e-02,
          0., 9.99999978e-03, 1.99999996e-02, 0., 0., 1.99999996e-02, 0.,
          0., 0., 0., 0., 0., 9.99999978e-03, 0., 2.99999993e-02, 0.,
          9.99999978e-03, 9.99999978e-03, 2.99999993e-02, 0., 0., 0., 0.,
          0., 0., 0., 0., 0., 0., 0., 0., 0., 0., 0., 0., 9.99999978e-03,
          1.99999996e-02, 9.99999978e-03, 9.99999978e-03, 0.,
          9.99999978e-03, 0., 0., 0., 1.99999996e-02, 9.99999978e-03, 0.,
          0., 0., 0., 9.99999978e-03, 9.99999978e-03, 0., 0., 0., 0., 0.,
          0., 0., 0., 9.99999978e-03, 0., 9.99999978e-03, 1.99999996e-02,
          7.99999982e-02, 0., 0., 9.99999978e-03, 0., 0., 0., 0.,
          2.99999993e-02, 0., 0., 1.99999996e-02, 0., 9.99999978e-03, 0.,
          9.99999978e-03, 9.99999978e-03, 0., 0., 0., 0., 0., 0., 0.,
          9.99999978e-03, 0., 1.99999996e-02, 0., 9.99999978e-03, 0.,
          1.99999996e-02, 0., 0., 0., 1.99999996e-02, 0., 0., 0.,
          9.99999978e-03, 0., 0., 9.99999978e-03, 0., 0., 0., 0., 0., 0.,
          0., 0., 3.99999991e-02, 0., 0., 0., 0., 9.99999978e-03,
          1.99999996e-02, 0., 0., 9.99999978e-03, 0., 0., 0.,
          9.99999978e-03, 4.99999970e-02, 0., 0., 0., 0., 0., 0.,
          9.99999978e-03, 0., 2.99999993e-02, 0., 3.99999991e-02, 0., 0.,
          0., 0., 0., 0., 0., 0., 0., 0., 0., 0., 0., 0., 0., 0., 0.,
          9.99999978e-03, 0., 0., 1.99999996e-02, 0., 0., 0., 0., 0., 0.,
          9.99999978e-03, 0., 0., 0., 1.99999996e-02, 9.99999978e-03, 0.,
          0., 0., 0., 2.99999993e-02, 9.99999978e-03, 0., 0., 0., 0., 0.,
          0., 9.99999978e-03, 1.99999996e-02, 0., 0., 9.99999978e-03 ]
      - [ 1.88679248e-02, 1.25786159e-02, 0., 6.28930796e-03, 0.,
          6.28930796e-03, 1.25786159e-02, 0., 0., 0., 6.28930796e-03,
          1.25786159e-02, 1.88679248e-02, 6.28930796e-03, 0., 0.,
          1.88679248e-02, 1.88679248e-02, 0., 0., 0., 6.28930796e-03,
          6.28930796e-03, 0., 0., 0., 6.28930796e-03, 6.28930796e-03, 0.,
          0., 0., 0., 0., 0., 6.28930796e-03, 0., 6.28930796e-03, 0.,
          6.28930796e-03, 0., 0., 6.28930796e-03, 0., 0., 0.,
          6.28930796e-03, 0., 3.77358496e-02, 6.28930796e-03, 0., 0., 0.,
          0., 0., 6.28930796e-03, 0., 1.25786159e-02, 6.28930796e-03, 0.,
          0., 6.28930796e-03, 1.25786159e-02, 6.28930796e-03,
          1.25786159e-02, 0., 0., 6.28930796e-03, 0., 0., 0., 0., 0., 0.,
          6.28930796e-03, 7.54716992e-02, 6.28930796e-03, 6.28930796e-03,
          6.28930796e-03, 6.28930796e-03, 6.28930796e-03, 0.,
          6.28930796e-03, 0., 1.25786159e-02, 6.28930796e-03, 0., 0., 0.,
          6.28930796e-03, 6.28930796e-03, 0., 6.28930796e-03, 0., 0.,
          6.28930796e-03, 3.77358496e-02, 6.28930796e-03, 6.28930796e-03,
          2.51572318e-02, 0., 0., 0., 2.51572318e-02, 0., 0., 0.,
          6.28930796e-03, 0., 0., 1.25786159e-02, 0., 0., 1.25786159e-02,
          6.28930796e-03, 0., 0., 0., 0., 6.28930796e-03, 0., 0., 0., 0.,
          0., 1.25786159e-02, 6.28930796e-03, 0., 0., 0., 0.,
          6.28930796e-03, 0., 0., 6.28930796e-03, 1.25786159e-02, 0.,
          6.28930796e-03, 0., 0., 6.28930796e-03, 0., 0., 0., 0.,
          6.28930796e-03, 0., 6.28930796e-03, 1.88679248e-02, 0.,
          1.25786159e-02, 0., 0., 0., 0., 0., 0., 1.25786159e-02, 0.,
          2.51572318e-02, 0., 0., 0., 0., 6.28930796e-03, 0., 0.,
          6.28930796e-03, 1.25786159e-02, 1.25786159e-02, 0.,
          3.77358496e-02, 0., 0., 1.25786159e-02, 0., 6.28930796e-03,
          6.28930796e-03, 1.25786159e-02, 0., 0., 0., 6.28930796e-03,
          1.25786159e-02, 0., 1.88679248e-02, 1.25786159e-02, 0.,
          2.51572318e-02, 6.28930796e-03, 0., 1.25786159e-02, 0.,
          6.28930796e-03, 0., 1.25786159e-02, 6.28930796e-03,
          6.28930796e-03, 0., 0., 6.28930796e-03 ]
      - [ 1.99430194e-02, 2.84900283e-03, 5.69800567e-03, 0.,
          1.13960113e-02, 2.84900283e-03, 1.42450146e-02, 0.,
          8.54700804e-03, 3.70370373e-02, 8.54700804e-03, 2.27920227e-02,
          5.69800567e-03, 2.84900283e-03, 2.84900283e-03, 2.84900283e-03,
          5.69800567e-03, 2.27920227e-02, 8.54700804e-03, 2.84900283e-03,
          2.84900283e-03, 8.54700804e-03, 0., 5.69800567e-03,
          2.84900283e-03, 1.13960113e-02, 3.70370373e-02, 0.,
          2.84900283e-03, 0., 2.84900283e-03, 0., 0., 0., 0., 0., 0.,
          8.54700804e-03, 0., 2.84900283e-03, 1.42450146e-02,
          8.54700804e-03, 1.99430194e-02, 0., 0., 8.54700804e-03,
          8.54700804e-03, 0., 0., 0., 1.42450146e-02, 2.84900283e-03,
          8.54700804e-03, 0., 1.42450146e-02, 2.84900283e-03,
          2.84900283e-03, 0., 1.13960113e-02, 2.84900283e-03, 0.,
          2.84900283e-03, 0., 5.69800567e-03, 0., 0., 5.69800567e-03, 0.,
          8.54700804e-03, 0., 1.99430194e-02, 5.69800567e-03, 0.,
          2.84900283e-03, 5.69800567e-03, 2.84900283e-03, 1.42450146e-02,
          0., 0., 0., 0., 0., 5.69800567e-03, 1.13960113e-02, 0., 0.,
          8.54700804e-03, 0., 0., 5.69800567e-03, 0., 0., 2.84900283e-03,
          1.13960113e-02, 2.84900283e-03, 1.42450146e-02, 1.70940161e-02,
          0., 0., 5.69800567e-03, 0., 2.84900283e-03, 0., 5.69800567e-03,
          0., 3.13390307e-02, 3.13390307e-02, 5.69800567e-03,
          2.84900283e-03, 2.84900283e-03, 0., 2.84900283e-03,
          8.54700804e-03, 0., 1.99430194e-02, 0., 0., 5.69800567e-03,
          2.84900283e-03, 2.27920227e-02, 1.42450146e-02, 0.,
          5.69800567e-03, 0., 0., 2.84900283e-03, 5.69800567e-03, 0.,
          2.84900283e-03, 0., 2.84900283e-03, 1.42450146e-02,
          2.84900283e-03, 0., 0., 0., 0., 0., 0., 5.69800567e-03, 0.,
          1.13960113e-02, 2.84900293e-02, 2.84900283e-03, 0.,
          1.42450146e-02, 2.84900283e-03, 5.69800567e-03, 5.69800567e-03,
          0., 0., 0., 0., 0., 0., 0., 8.54700804e-03, 4.27350439e-02, 0.,
          0., 5.69800567e-03, 2.84900283e-03, 0., 0., 1.13960113e-02,
          2.84900283e-03, 8.54700804e-03, 0., 2.84900283e-03, 0., 0.,
          2.84900283e-03, 0., 1.13960113e-02, 0., 0., 2.84900283e-03, 0.,
          5.69800567e-03, 0., 0., 0., 0., 0., 5.69800567e-03,
          5.69800567e-03, 2.84900283e-03, 0., 5.69800567e-03, 0.,
          2.84900283e-03, 1.70940161e-02, 8.54700804e-03, 2.84900283e-03,
          5.69800567e-03, 0., 2.84900283e-03, 2.84900283e-03, 0.,
          2.84900283e-03 ]
      - [ 0., 0., 0., 0., 6.11620815e-03, 6.11620815e-03, 3.05810408e-03,
          0., 9.17431246e-03, 3.05810408e-03, 0., 6.11620815e-03,
          9.17431246e-03, 9.17431246e-03, 0., 0., 3.05810408e-03, 0.,
          6.11620815e-03, 6.11620815e-03, 6.11620815e-03, 0.,
          6.11620815e-03, 6.11620815e-03, 6.11620815e-03, 3.05810408e-03,
          9.17431246e-03, 3.05810408e-03, 0., 0., 9.17431246e-03, 0., 0.,
          6.11620815e-03, 0., 0., 1.22324163e-02, 3.05810408e-03,
          3.05810408e-03, 3.05810408e-03, 3.05810408e-03, 9.17431246e-03,
          3.05810408e-03, 0., 9.17431246e-03, 9.17431246e-03,
          1.22324163e-02, 0., 3.05810408e-03, 3.05810408e-03,
          3.05810408e-03, 3.05810408e-03, 6.11620815e-03, 0.,
          1.22324163e-02, 6.11620815e-03, 6.11620815e-03, 6.11620815e-03,
          0., 0., 1.52905202e-02, 0., 3.05810408e-03, 0., 9.17431246e-03,
          3.05810408e-03, 0., 9.17431246e-03, 3.05810408e-03, 0.,
          9.17431246e-03, 1.52905202e-02, 6.11620815e-03, 1.52905202e-02,
          0., 1.22324163e-02, 3.05810408e-03, 0., 0., 0., 3.05810408e-03,
          0., 0., 1.52905202e-02, 0., 0., 3.05810408e-03, 9.17431246e-03,
          6.11620815e-03, 0., 0., 1.22324163e-02, 1.83486249e-02,
          6.11620815e-03, 3.05810403e-02, 1.83486249e-02, 6.11620815e-03,
          0., 9.17431246e-03, 9.17431246e-03, 0., 0., 1.22324163e-02,
          1.22324163e-02, 3.36391442e-02, 0., 4.28134575e-02, 0., 0., 0.,
          3.05810408e-03, 6.11620815e-03, 9.17431246e-03, 0.,
          6.11620815e-03, 6.11620815e-03, 6.11620815e-03, 0.,
          6.11620815e-03, 3.05810408e-03, 1.22324163e-02, 0.,
          3.05810408e-03, 3.05810408e-03, 3.05810408e-03, 0., 0., 0.,
          3.05810408e-03, 0., 0., 1.22324163e-02, 6.11620815e-03,
          3.05810408e-03, 3.05810408e-03, 0., 0., 0., 0., 0.,
          1.22324163e-02, 3.05810408e-03, 0., 1.52905202e-02,
          3.05810408e-03, 1.52905202e-02, 6.11620815e-03, 2.14067288e-02,
          0., 0., 0., 0., 0., 6.11620815e-03, 0., 1.52905202e-02,
          1.52905202e-02, 0., 3.05810408e-03, 6.11620815e-03,
          3.05810408e-03, 6.11620815e-03, 0., 9.17431246e-03,
          3.05810408e-03, 0., 9.17431246e-03, 0., 0., 3.05810408e-03,
          1.52905202e-02, 0., 6.11620815e-03, 1.22324163e-02, 0., 0.,
          3.05810408e-03, 1.22324163e-02, 0., 3.05810408e-03,
          6.11620815e-03, 1.22324163e-02, 0., 9.17431246e-03,
          3.05810408e-03, 3.05810408e-03, 6.11620815e-03, 0., 0., 0.,
          3.66972499e-02, 9.17431246e-03, 3.05810408e-03, 0., 0., 0.,
          1.52905202e-02, 3.05810408e-03, 0., 0. ]
      - [ 0., 1.77619897e-03, 1.77619897e-03, 7.10479589e-03,
          1.06571941e-02, 1.77619897e-03, 5.32859704e-03, 0.,
          2.48667859e-02, 8.88099521e-03, 5.32859704e-03, 7.10479589e-03,
          5.32859704e-03, 0., 1.77619904e-02, 0., 1.77619897e-03,
          3.55239795e-03, 3.55239795e-03, 3.55239795e-03, 0.,
          5.32859704e-03, 0., 1.59857906e-02, 1.77619897e-03,
          8.88099521e-03, 0., 0., 1.77619897e-03, 0., 5.32859704e-03,
          1.77619897e-03, 0., 0., 0., 0., 1.77619897e-03, 2.48667859e-02,
          5.32859704e-03, 5.32859704e-03, 1.42095918e-02, 0.,
          1.42095918e-02, 5.32859704e-03, 1.77619897e-03, 5.32859704e-03,
          1.24333929e-02, 0., 0., 1.77619897e-03, 0., 7.10479589e-03,
          1.77619897e-03, 7.10479589e-03, 8.88099521e-03, 5.32859704e-03,
          0., 0., 2.84191836e-02, 3.55239795e-03, 1.77619897e-03, 0.,
          1.06571941e-02, 1.24333929e-02, 0., 1.06571941e-02,
          1.77619897e-03, 0., 3.55239795e-03, 1.77619897e-03,
          1.24333929e-02, 1.77619897e-03, 5.32859704e-03, 0.,
          3.55239795e-03, 3.55239795e-03, 1.06571941e-02, 3.55239795e-03,
          5.32859704e-03, 0., 0., 3.55239795e-03, 1.24333929e-02,
          1.77619897e-03, 7.10479589e-03, 0., 8.88099521e-03,
          5.32859704e-03, 1.77619897e-03, 1.42095918e-02, 1.24333929e-02,
          1.77619897e-03, 2.84191836e-02, 1.24333929e-02, 0.,
          5.32859704e-03, 3.55239795e-03, 0., 3.55239795e-03,
          1.24333929e-02, 0., 7.10479589e-03, 0., 1.06571941e-02,
          1.77619897e-03, 3.55239809e-02, 8.88099521e-03, 8.88099521e-03,
          0., 1.77619897e-03, 0., 8.88099521e-03, 3.55239795e-03,
          1.77619897e-03, 1.77619904e-02, 1.77619897e-03, 0.,
          5.32859704e-03, 7.10479589e-03, 1.77619897e-03, 5.32859704e-03,
          1.77619897e-03, 3.55239795e-03, 3.55239795e-03, 0., 0., 0.,
          1.24333929e-02, 8.88099521e-03, 0., 7.10479589e-03,
          2.48667859e-02, 5.32859704e-03, 1.77619897e-03, 1.77619897e-03,
          1.06571941e-02, 8.88099521e-03, 3.55239795e-03, 0., 0.,
          1.77619897e-03, 8.88099521e-03, 1.77619897e-03, 3.55239795e-03,
          0., 3.55239795e-03, 2.48667859e-02, 3.55239795e-03,
          1.77619897e-03, 0., 5.32859704e-03, 0., 1.77619897e-03, 0.,
          3.55239795e-03, 0., 0., 7.10479589e-03, 1.77619897e-03,
          7.10479589e-03, 1.77619897e-03, 2.13143881e-02, 8.88099521e-03,
          1.77619897e-03, 3.55239795e-03, 0., 1.95381884e-02, 0.,
          8.88099521e-03, 5.32859704e-03, 1.77619897e-03, 0., 0., 0.,
          1.24333929e-02, 0., 7.10479589e-03, 1.77619897e-03,
          1.77619897e-03, 1.59857906e-02, 0., 0., 0., 0., 7.10479589e-03,
          7.10479589e-03, 1.24333929e-02, 0., 0., 0., 3.55239795e-03,
          7.10479589e-03, 1.24333929e-02, 1.77619897e-03, 1.77619897e-03,
          5.32859704e-03, 0., 0., 1.77619897e-03, 0. ]
      - [ 2.73224036e-03, 0., 0., 1.22950813e-02, 2.73224036e-03,
          1.36612018e-03, 2.73224036e-03, 2.32240427e-02, 1.09289614e-02,
          4.50819656e-02, 5.46448072e-03, 4.09836043e-03, 1.36612018e-03,
          5.46448072e-03, 3.14207636e-02, 0., 1.36612018e-03,
          2.73224036e-03, 2.73224036e-03, 1.36612018e-03, 0.,
          2.73224036e-03, 1.36612018e-03, 9.56284162e-03, 0., 0.,
          5.46448072e-03, 1.36612018e-03, 0., 2.73224036e-03, 0.,
          6.83060102e-03, 5.46448072e-03, 0., 0., 9.56284162e-03,
          1.36612018e-03, 1.36612020e-02, 8.19672085e-03, 9.56284162e-03,
          2.73224036e-03, 0., 1.09289614e-02, 1.36612020e-02,
          5.46448072e-03, 0., 9.56284162e-03, 1.36612018e-03, 0., 0.,
          9.56284162e-03, 1.36612020e-02, 5.46448072e-03, 5.46448072e-03,
          1.36612018e-03, 4.09836043e-03, 5.46448072e-03, 0.,
          1.63934417e-02, 5.46448072e-03, 0., 0., 1.50273219e-02,
          9.56284162e-03, 1.36612018e-03, 8.19672085e-03, 5.46448072e-03,
          0., 1.36612020e-02, 1.36612018e-03, 1.36612018e-03,
          1.36612018e-03, 5.46448072e-03, 0., 0., 6.83060102e-03, 0.,
          2.73224036e-03, 6.83060102e-03, 6.83060102e-03, 6.83060102e-03,
          1.36612018e-03, 4.23497260e-02, 2.73224036e-03, 2.73224036e-03,
          0., 0., 2.73224036e-03, 1.36612018e-03, 5.46448072e-03,
          1.91256832e-02, 5.46448072e-03, 8.19672085e-03, 1.36612018e-03,
          1.36612018e-03, 0., 0., 1.36612018e-03, 9.56284162e-03,
          2.04918031e-02, 1.09289614e-02, 9.56284162e-03, 1.36612018e-03,
          1.77595615e-02, 9.56284162e-03, 8.19672085e-03, 1.36612018e-03,
          2.73224036e-03, 1.36612018e-03, 6.83060102e-03, 1.36612018e-03,
          4.09836043e-03, 2.73224036e-03, 6.83060102e-03, 1.09289614e-02,
          1.36612018e-03, 0., 6.83060102e-03, 0., 1.36612018e-03,
          8.19672085e-03, 4.09836043e-03, 2.73224036e-03, 6.83060102e-03,
          1.36612018e-03, 1.36612018e-03, 0., 0., 6.83060102e-03, 0.,
          2.73224036e-03, 6.83060102e-03, 1.36612018e-03, 0.,
          4.09836043e-03, 8.19672085e-03, 8.19672085e-03, 0.,
          2.73224036e-03, 4.09836043e-03, 0., 9.56284162e-03,
          4.09836043e-03, 2.73224036e-03, 0., 2.73224036e-03,
          1.36612018e-03, 4.09836043e-03, 9.56284162e-03, 0.,
          4.09836043e-03, 1.36612018e-03, 3.00546438e-02, 1.09289614e-02,
          1.36612018e-03, 2.73224036e-03, 0., 5.46448072e-03, 0.,
          4.09836043e-03, 2.73224036e-03, 2.73224036e-03, 4.09836043e-03,
          5.46448072e-03, 4.09836043e-03, 0., 1.36612018e-03,
          2.73224036e-03, 2.73224036e-03, 2.73224036e-03, 1.36612018e-03,
          5.46448072e-03, 0., 0., 1.22950813e-02, 0., 1.36612018e-03,
          5.46448072e-03, 5.46448072e-03, 1.09289614e-02, 0., 0.,
          4.09836043e-03, 0., 1.50273219e-02, 9.56284162e-03,
          2.86885239e-02, 1.36612018e-03, 0., 0., 1.36612018e-03,
          5.46448072e-03, 8.19672085e-03, 9.56284162e-03, 1.36612018e-03,
          8.19672085e-03, 2.73224036e-03, 0., 0., 0. ]
      - [ 1.56657957e-02, 0., 0., 1.56657957e-02, 1.56657957e-02,
          1.04438644e-02, 1.82767622e-02, 0., 2.61096610e-03,
          7.83289783e-03, 5.22193220e-03, 7.83289783e-03, 2.61096610e-03,
          7.83289783e-03, 3.39425579e-02, 0., 0., 5.22193220e-03,
          5.22193220e-03, 0., 0., 2.61096610e-03, 2.61096610e-03,
          7.83289783e-03, 5.22193220e-03, 0., 1.30548310e-02,
          5.22193220e-03, 0., 0., 0., 1.04438644e-02, 0., 0.,
          1.04438644e-02, 0., 1.30548310e-02, 7.83289783e-03,
          5.22193220e-03, 2.61096610e-03, 2.61096610e-03, 0.,
          7.83289783e-03, 5.22193220e-03, 0., 0., 7.83289783e-03, 0., 0.,
          2.61096610e-03, 1.30548310e-02, 5.22193220e-03, 7.83289783e-03,
          5.22193220e-03, 0., 2.61096610e-03, 2.61096610e-03,
          2.61096610e-03, 1.56657957e-02, 7.83289783e-03, 0., 0.,
          2.61096610e-03, 1.56657957e-02, 7.83289783e-03, 0., 0.,
          2.61096610e-03, 2.61096610e-03, 2.61096610e-03, 7.83289783e-03,
          0., 1.04438644e-02, 0., 0., 1.04438644e-02, 1.04438644e-02, 0.,
          2.61096610e-03, 2.61096610e-03, 5.22193220e-03, 0.,
          1.04438644e-02, 5.22193220e-03, 0., 0., 5.22193220e-03,
          1.82767622e-02, 2.61096610e-03, 5.22193220e-03, 1.30548310e-02,
          2.61096610e-03, 0., 2.61096610e-03, 0., 2.61096610e-03,
          7.83289783e-03, 1.30548310e-02, 5.22193220e-03, 2.61096610e-03,
          5.22193220e-03, 1.82767622e-02, 0., 1.82767622e-02,
          2.61096610e-03, 5.22193220e-03, 7.83289783e-03, 7.83289783e-03,
          0., 1.04438644e-02, 5.22193220e-03, 0., 0., 5.22193220e-03,
          1.04438644e-02, 1.04438644e-02, 0., 2.61096610e-03, 0.,
          7.83289783e-03, 2.61096610e-03, 7.83289783e-03, 2.61096610e-03,
          0., 0., 7.83289783e-03, 7.83289783e-03, 0., 5.22193220e-03, 0.,
          5.22193220e-03, 1.30548310e-02, 1.30548310e-02, 5.22193220e-03,
          0., 7.83289783e-03, 5.22193220e-03, 0., 2.61096610e-03,
          5.22193220e-03, 0., 1.04438644e-02, 2.61096610e-03,
          1.04438644e-02, 2.61096610e-03, 0., 2.61096610e-03, 0.,
          1.04438644e-02, 0., 5.22193220e-03, 0., 7.83289783e-03, 0.,
          2.61096610e-03, 0., 2.61096610e-03, 2.08877288e-02, 0., 0., 0.,
          2.61096610e-03, 2.61096610e-03, 1.56657957e-02, 0., 0.,
          2.61096610e-03, 0., 5.22193220e-03, 2.61096610e-03, 0., 0., 0.,
          7.83289783e-03, 2.61096619e-02, 2.61096610e-03, 2.61096610e-03,
          2.61096610e-03, 2.61096610e-03, 5.22193220e-03, 0.,
          2.61096610e-03, 1.04438644e-02, 0., 1.04438644e-02,
          1.30548310e-02, 7.83289783e-03, 2.61096610e-03, 0., 0.,
          2.61096610e-03, 1.82767622e-02, 1.04438644e-02, 7.83289783e-03,
          0., 2.87206266e-02, 5.22193220e-03, 0., 2.61096610e-03, 0. ]
      - [ 3.20512825e-03, 3.20512825e-03, 0., 0., 9.61538497e-03,
          9.61538497e-03, 0., 6.41025649e-03, 6.41025649e-03,
          3.84615399e-02, 0., 2.88461540e-02, 0., 0., 3.20512825e-03,
          1.28205130e-02, 0., 5.12820520e-02, 9.61538497e-03,
          3.20512825e-03, 3.20512825e-03, 3.20512825e-03, 0., 0., 0.,
          1.60256419e-02, 2.24358980e-02, 3.20512825e-03, 0.,
          6.41025649e-03, 0., 0., 0., 0., 0., 0., 0., 3.20512825e-03, 0.,
          6.41025649e-03, 3.20512825e-03, 1.28205130e-02, 2.88461540e-02,
          3.20512825e-03, 0., 2.56410260e-02, 0., 6.41025649e-03,
          9.61538497e-03, 6.41025649e-03, 3.20512825e-03, 6.41025649e-03,
          0., 2.24358980e-02, 1.28205130e-02, 0., 0., 0., 1.92307699e-02,
          0., 1.60256419e-02, 3.20512825e-03, 0., 1.28205130e-02,
          6.41025649e-03, 0., 3.20512825e-03, 0., 1.28205130e-02, 0., 0.,
          1.60256419e-02, 6.41025649e-03, 1.28205130e-02, 3.20512825e-03,
          9.61538497e-03, 9.61538497e-03, 6.41025649e-03, 0., 0., 0.,
          3.20512825e-03, 2.24358980e-02, 0., 3.20512825e-03, 0.,
          9.61538497e-03, 3.20512825e-03, 0., 9.61538497e-03, 0., 0., 0.,
          1.28205130e-02, 0., 0., 6.41025649e-03, 0., 0., 0., 0.,
          6.41025649e-03, 0., 3.20512825e-03, 6.41025649e-03,
          2.56410260e-02, 1.28205130e-02, 1.92307699e-02, 0.,
          9.61538497e-03, 0., 0., 0., 0., 0., 0., 3.20512825e-03,
          6.41025649e-03, 3.20512825e-03, 9.61538497e-03, 6.41025649e-03,
          0., 0., 0., 0., 6.41025649e-03, 0., 0., 6.41025649e-03, 0., 0.,
          3.20512825e-03, 3.20512825e-03, 0., 3.20512825e-03, 0.,
          3.20512825e-03, 0., 3.20512825e-03, 0., 3.20512825e-03, 0.,
          1.60256419e-02, 0., 0., 6.41025649e-03, 2.24358980e-02,
          9.61538497e-03, 0., 0., 3.20512825e-03, 0., 0., 0., 0.,
          3.20512825e-03, 1.92307699e-02, 3.52564119e-02, 0., 0.,
          3.20512825e-03, 3.20512825e-03, 0., 6.41025649e-03,
          6.41025649e-03, 3.20512825e-03, 0., 0., 3.20512825e-03, 0.,
          6.41025649e-03, 3.20512825e-03, 0., 3.20512825e-03,
          3.20512825e-03, 3.20512825e-03, 1.92307699e-02, 0.,
          9.61538497e-03, 6.41025649e-03, 0., 6.41025649e-03, 0., 0.,
          3.20512825e-03, 0., 6.41025649e-03, 6.41025649e-03,
          3.20512825e-03, 0., 9.61538497e-03, 3.20512825e-03,
          3.20512825e-03, 1.28205130e-02, 0., 3.20512825e-03, 0.,
          3.20512825e-03, 0., 0. ]
      - [ 0., 0., 0., 0., 7.81250000e-03, 1.17187500e-02, 1.56250000e-02,
          0., 1.17187500e-02, 0., 1.17187500e-02, 0., 0., 3.12500000e-02,
          1.95312500e-02, 0., 0., 3.90625000e-03, 3.90625000e-03, 0., 0.,
          0., 0., 0., 0., 0., 3.90625000e-03, 0., 0., 0., 1.17187500e-02,
          3.90625000e-03, 1.56250000e-02, 7.81250000e-03, 3.90625000e-03,
          0., 3.90625000e-03, 1.56250000e-02, 3.90625000e-03,
          3.90625000e-03, 3.90625000e-03, 0., 0., 7.81250000e-03, 0., 0.,
          4.29687500e-02, 0., 0., 0., 7.81250000e-03, 0., 1.17187500e-02,
          3.90625000e-03, 3.90625000e-03, 0., 7.81250000e-03, 0.,
          1.17187500e-02, 0., 0., 0., 0., 1.56250000e-02, 3.90625000e-03,
          3.90625000e-03, 3.90625000e-03, 1.17187500e-02, 1.17187500e-02,
          1.17187500e-02, 3.12500000e-02, 3.90625000e-03, 3.90625000e-03,
          0., 0., 0., 3.90625000e-03, 0., 3.90625000e-03, 7.81250000e-03,
          0., 0., 0., 7.81250000e-03, 0., 0., 7.81250000e-03,
          2.34375000e-02, 0., 0., 1.17187500e-02, 3.90625000e-03,
          3.90625000e-03, 3.90625000e-03, 0., 3.90625000e-03, 0., 0.,
          7.81250000e-03, 7.81250000e-03, 0., 0., 0., 3.90625000e-03,
          7.81250000e-03, 1.17187500e-02, 1.56250000e-02, 7.81250000e-03,
          0., 7.81250000e-03, 0., 0., 0., 7.81250000e-03, 7.81250000e-03,
          0., 0., 7.81250000e-03, 0., 7.81250000e-03, 1.17187500e-02,
          7.81250000e-03, 0., 7.81250000e-03, 0., 0., 3.90625000e-03, 0.,
          1.95312500e-02, 0., 1.17187500e-02, 1.17187500e-02,
          1.56250000e-02, 3.90625000e-03, 3.90625000e-03, 1.95312500e-02,
          3.90625000e-03, 0., 0., 7.81250000e-03, 1.17187500e-02,
          1.56250000e-02, 3.90625000e-03, 0., 0., 3.90625000e-03,
          1.17187500e-02, 7.81250000e-03, 7.81250000e-03, 0.,
          3.90625000e-03, 0., 3.90625000e-03, 3.90625000e-03,
          3.90625000e-03, 0., 0., 1.95312500e-02, 0., 0., 0.,
