%YAML:1.0
---
opencv_ml_svm:
   format: 3
   svmType: C_SVC
   kernel:
      type: CHI2
      gamma: 1.
   C: 1.
   term_criteria: { iterations:100 }
   var_count: 200
   class_count: 5
   class_labels: !!opencv-matrix
      rows: 5
      cols: 1
      dt: i
      data: [ 0, 1, 2, 3, 4 ]
   sv_total: 245
   support_vectors:
      - [ 1.28205130e-02, 0., 0., 0., 0., 0., 0., 1.28205130e-02, 0.,
          1.28205130e-02, 0., 0., 0., 0., 1.28205130e-02, 1.28205130e-02,
          0., 1.28205130e-02, 0., 0., 0., 0., 0., 0., 0., 0., 0., 0., 0.,
          2.56410260e-02, 0., 0., 0., 0., 1.28205130e-02, 0., 0., 0., 0.,
          0., 0., 0., 1.28205130e-02, 0., 0., 0., 5.12820520e-02, 0., 0.,
          5.12820520e-02, 0., 0., 1.28205130e-02, 0., 0., 0., 0., 0.,
          1.28205130e-02, 3.84615399e-02, 0., 5.12820520e-02, 0.,
          1.28205130e-02, 0., 0., 0., 0., 0., 0., 0., 0., 0., 0.,
          1.28205130e-02, 2.56410260e-02, 0., 0., 0., 0., 1.28205130e-02,
          2.56410260e-02, 0., 0., 0., 0., 0., 0., 0., 0., 0., 0., 0.,
          1.28205130e-02, 0., 0., 0., 0., 0., 0., 1.02564104e-01, 0., 0.,
          0., 0., 0., 0., 0., 1.28205130e-02, 0., 0., 0., 1.28205130e-02,
          0., 1.28205130e-02, 0., 0., 1.28205130e-02, 0., 0.,
          5.12820520e-02, 0., 0., 0., 0., 0., 0., 1.28205130e-02, 0.,
          2.56410260e-02, 0., 0., 0., 1.28205130e-02, 0., 1.28205130e-02,
          0., 0., 0., 0., 0., 0., 0., 0., 0., 1.28205130e-02,
          2.56410260e-02, 0., 0., 0., 0., 3.84615399e-02, 0., 0., 0., 0.,
          0., 0., 1.28205130e-02, 0., 0., 0., 0., 0., 5.12820520e-02, 0.,
          0., 1.28205130e-02, 0., 0., 1.28205130e-02, 0., 1.28205130e-02,
          0., 0., 0., 0., 0., 2.56410260e-02, 1.28205130e-02,
          1.28205130e-02, 0., 0., 0., 0., 0., 0., 0., 0., 1.28205130e-02,
          0., 0., 0., 0., 0., 0., 1.28205130e-02, 0., 2.56410260e-02, 0. ]
      - [ 0., 0., 0., 0., 0., 0., 0., 0., 4.25531901e-02, 2.12765951e-02,
          0., 0., 0., 2.12765951e-02, 2.12765951e-02, 0., 0., 0., 0., 0.,
          2.12765951e-02, 0., 0., 0., 0., 2.12765951e-02, 0., 0., 0.,
          2.12765951e-02, 0., 0., 0., 0., 2.12765951e-02, 0., 0., 0.,
          2.12765951e-02, 0., 2.12765951e-02, 0., 0., 0., 0., 0., 0.,
          2.12765951e-02, 0., 0., 0., 0., 2.12765951e-02, 2.12765951e-02,
          0., 0., 0., 0., 2.12765951e-02, 6.38297871e-02, 0., 0., 0., 0.,
          0., 0., 0., 0., 2.12765951e-02, 0., 0., 0., 0., 0., 0., 0., 0.,
          0., 0., 0., 0., 0., 4.25531901e-02, 0., 0., 0., 0., 0., 0.,
          2.12765951e-02, 0., 0., 0., 0., 0., 0., 0., 0., 2.12765951e-02,
          0., 0., 0., 0., 0., 0., 0., 0., 0., 2.12765951e-02, 0.,
          2.12765951e-02, 4.25531901e-02, 2.12765951e-02, 0., 0., 0., 0.,
          0., 0., 0., 4.25531901e-02, 0., 0., 0., 0., 0., 0., 0., 0., 0.,
          0., 0., 0., 0., 0., 2.12765951e-02, 0., 0., 2.12765951e-02, 0.,
          0., 0., 0., 0., 0., 4.25531901e-02, 0., 0., 0., 0., 0., 0., 0.,
          4.25531901e-02, 0., 0., 0., 0., 0., 0., 0., 0., 0., 0., 0., 0.,
          0., 0., 0., 0., 0., 2.12765951e-02, 0., 0., 0., 0.,
          2.12765951e-02, 0., 0., 4.25531901e-02, 0., 0., 0., 0., 0., 0.,
          0., 0., 0., 0., 0., 0., 0., 0., 0., 2.12765951e-02, 0., 0.,
          1.27659574e-01, 0. ]
      - [ 0., 0., 0., 0., 0., 0., 0., 0., 0., 0., 9.09090862e-02, 0., 0.,
          0., 0., 0., 0., 0., 0., 0., 0., 0., 0., 0., 0., 0., 0., 0., 0.,
          1.81818176e-02, 0., 0., 0., 1.81818176e-02, 0., 0., 0., 0.,
          1.81818176e-02, 3.63636352e-02, 0., 0., 3.63636352e-02, 0., 0.,
          0., 2.36363634e-01, 0., 1.81818176e-02, 0., 0., 1.81818176e-02,
          0., 0., 0., 0., 0., 0., 0., 0., 0., 0., 0., 0., 0., 0., 0., 0.,
          0., 0., 0., 0., 0., 1.81818176e-02, 0., 0., 0., 0., 0., 0., 0.,
          0., 0., 0., 0., 0., 0., 0., 0., 0., 0., 0., 0., 1.81818176e-02,
          0., 0., 0., 0., 0., 0., 1.81818176e-02, 0., 0., 0., 0., 0., 0.,
          0., 0., 0., 0., 1.81818176e-02, 0., 5.45454547e-02, 0., 0., 0.,
          0., 0., 5.45454547e-02, 0., 1.81818176e-02, 0., 0., 0., 0., 0.,
          0., 0., 0., 0., 0., 1.81818176e-02, 0., 0., 0., 0., 0., 0., 0.,
          0., 0., 0., 0., 0., 3.63636352e-02, 0., 0., 0., 0., 0.,
          1.81818176e-02, 0., 0., 0., 0., 0., 0., 0., 0., 0.,
          1.81818176e-02, 0., 0., 0., 0., 0., 0., 0., 0., 0., 0., 0., 0.,
          0., 0., 0., 0., 0., 1.81818176e-02, 0., 1.45454541e-01, 0.,
          1.81818176e-02, 0., 0., 0., 0., 0., 0., 0., 0., 0., 0., 0.,
          1.81818176e-02, 0., 0., 1.81818176e-02, 0. ]
      - [ 4.56620986e-03, 4.56620986e-03, 0., 0., 9.13241971e-03,
          1.36986300e-02, 4.56620986e-03, 4.56620986e-03, 4.56620986e-03,
          0., 1.82648394e-02, 9.13241971e-03, 0., 0., 4.56620986e-03,
          9.13241971e-03, 4.56620986e-03, 0., 0., 0., 4.56620986e-03,
          4.56620986e-03, 9.13241971e-03, 4.56620986e-03, 0.,
          4.56620986e-03, 0., 0., 1.36986300e-02, 4.56620986e-03, 0., 0.,
          0., 9.13241971e-03, 4.56620986e-03, 0., 1.36986300e-02,
          4.56620986e-03, 0., 0., 4.56620986e-03, 0., 4.56620986e-03,
          4.56620986e-03, 4.56620986e-03, 4.56620986e-03, 0.,
          9.13241971e-03, 4.56620986e-03, 2.28310488e-02, 4.56620986e-03,
          0., 0., 0., 0., 0., 0., 0., 0., 9.13241971e-03, 4.56620986e-03,
          9.13241971e-03, 4.56620986e-03, 9.13241971e-03, 0., 0.,
          1.82648394e-02, 0., 4.56620986e-03, 2.28310488e-02,
          4.56620986e-03, 0., 4.56620986e-03, 4.56620986e-03,
          4.56620986e-03, 4.56620986e-03, 2.28310488e-02, 9.13241971e-03,
          4.56620986e-03, 1.36986300e-02, 0., 1.82648394e-02,
          1.36986300e-02, 0., 0., 2.28310488e-02, 0., 1.36986300e-02, 0.,
          3.19634676e-02, 0., 1.82648394e-02, 0., 9.13241971e-03, 0., 0.,
          4.56620986e-03, 1.36986300e-02, 0., 4.56620986e-03,
          2.73972601e-02, 0., 0., 0., 4.56620986e-03, 0., 0.,
          4.56620986e-03, 4.56620986e-03, 0., 1.36986300e-02, 0., 0.,
          4.56620986e-03, 0., 0., 0., 0., 0., 3.19634676e-02,
          9.13241971e-03, 0., 0., 0., 0., 0., 0., 9.13241971e-03, 0.,
          9.13241971e-03, 1.82648394e-02, 4.56620986e-03, 0., 0.,
          4.56620986e-03, 9.13241971e-03, 0., 4.56620986e-03,
          4.56620986e-03, 0., 0., 4.56620986e-03, 0., 0., 0., 0.,
          1.36986300e-02, 4.56620986e-03, 0., 9.13241971e-03, 0., 0.,
          4.56620986e-03, 0., 0., 4.56620986e-03, 1.36986300e-02,
          4.56620986e-03, 4.56620986e-03, 4.56620986e-03, 0., 0., 0.,
          9.13241971e-03, 4.56620986e-03, 0., 0., 4.56620986e-03,
          4.56620986e-03, 4.56620986e-03, 1.36986300e-02, 4.10958901e-02,
          9.13241971e-03, 9.13241971e-03, 0., 0., 0., 0., 1.82648394e-02,
          0., 9.13241971e-03, 0., 2.73972601e-02, 0., 0., 9.13241971e-03,
          0., 4.56620986e-03, 0., 0., 0., 4.56620986e-03, 4.56620986e-03,
          9.13241971e-03, 2.73972601e-02, 4.56620986e-03, 0.,
          4.56620986e-03, 4.56620986e-03, 0. ]
      - [ 0., 7.05882385e-02, 0., 0., 0., 0., 0., 0., 0., 0.,
          3.52941193e-02, 0., 0., 0., 0., 0., 0., 1.17647061e-02, 0., 0.,
          0., 0., 0., 0., 0., 0., 0., 0., 0., 0., 0., 0., 1.17647061e-02,
          1.17647061e-02, 1.17647061e-02, 1.17647061e-02, 0.,
          1.17647061e-02, 2.35294122e-02, 0., 0., 0., 2.35294122e-02, 0.,
          0., 1.17647061e-02, 2.35294122e-02, 0., 0., 0., 0., 0.,
          1.17647061e-02, 0., 0., 0., 2.35294122e-02, 0., 2.35294122e-02,
          0., 0., 0., 0., 1.17647061e-02, 1.17647061e-02, 0., 0., 0., 0.,
          0., 1.17647061e-02, 1.17647061e-02, 0., 2.35294122e-02, 0., 0.,
          0., 2.35294122e-02, 1.17647061e-02, 0., 0., 0., 0., 0., 0., 0.,
          0., 1.17647061e-02, 0., 0., 0., 0., 1.17647061e-02,
          4.70588244e-02, 2.35294122e-02, 0., 0., 0., 0., 0., 0., 0.,
          1.17647061e-02, 0., 0., 0., 0., 0., 0., 0., 0., 0.,
          1.17647061e-02, 4.70588244e-02, 1.17647061e-02, 0., 0., 0., 0.,
          8.23529437e-02, 1.17647061e-02, 0., 0., 0., 0., 0.,
          1.17647061e-02, 0., 0., 0., 0., 0., 0., 0., 0., 2.35294122e-02,
          0., 0., 0., 0., 0., 0., 0., 0., 0., 2.35294122e-02,
          2.35294122e-02, 0., 0., 1.17647061e-02, 0., 0., 0., 0., 0., 0.,
          0., 0., 3.52941193e-02, 1.17647061e-02, 1.17647061e-02,
          1.17647061e-02, 2.35294122e-02, 0., 0., 0., 0., 0., 0., 0., 0.,
          0., 1.17647061e-02, 0., 0., 0., 2.35294122e-02, 1.17647061e-02,
          0., 1.17647061e-02, 0., 0., 0., 0., 0., 0., 0., 1.17647061e-02,
          0., 0., 1.17647061e-02, 1.17647061e-02, 0., 0., 0., 0., 0.,
          1.17647061e-02, 0., 1.17647061e-02 ]
      - [ 0., 0., 0., 0., 0., 0., 0., 0., 0., 1.20481923e-02, 0., 0., 0.,
          0., 3.61445770e-02, 3.61445770e-02, 0., 0., 0., 0., 0.,
          1.20481923e-02, 0., 0., 0., 0., 0., 0., 0., 1.20481923e-02, 0.,
          0., 2.40963846e-02, 0., 0., 0., 0., 0., 2.40963846e-02, 0., 0.,
          0., 1.20481923e-02, 0., 0., 1.20481923e-02, 3.61445770e-02, 0.,
          0., 1.20481923e-02, 1.20481923e-02, 1.20481923e-02, 0., 0., 0.,
          0., 0., 0., 0., 0., 0., 0., 0., 1.20481923e-02, 0., 0., 0., 0.,
          0., 0., 0., 0., 1.20481923e-02, 0., 1.20481923e-02, 0., 0., 0.,
          0., 0., 0., 0., 0., 0., 0., 0., 1.20481923e-02, 0., 0.,
          1.20481923e-02, 0., 0., 0., 2.40963846e-02, 1.20481923e-02, 0.,
          0., 1.20481923e-02, 0., 0., 2.40963846e-02, 1.20481923e-02, 0.,
          0., 0., 0., 1.20481923e-02, 0., 0., 0., 1.20481923e-02, 0.,
          1.20481923e-02, 1.20481923e-01, 2.40963846e-02, 0., 0., 0., 0.,
          0., 9.63855386e-02, 0., 0., 0., 0., 0., 0., 1.20481923e-02, 0.,
          0., 0., 0., 0., 0., 1.20481923e-02, 0., 0., 0., 2.40963846e-02,
          1.20481923e-02, 0., 0., 0., 1.20481923e-02, 0., 0.,
          1.20481923e-02, 0., 0., 1.20481923e-02, 0., 1.20481923e-02, 0.,
          1.20481923e-02, 0., 0., 0., 0., 0., 1.20481923e-02, 0.,
          1.20481923e-02, 1.20481923e-02, 0., 0., 0., 0., 0., 0., 0., 0.,
          0., 2.40963846e-02, 0., 0., 0., 0., 1.20481923e-02,
          3.61445770e-02, 1.20481923e-02, 0., 0., 1.20481923e-02, 0., 0.,
          2.40963846e-02, 0., 0., 0., 0., 0., 0., 0., 0., 0.,
          1.20481923e-02, 1.20481923e-02, 1.20481923e-02, 1.20481923e-02,
          0. ]
      - [ 7.40740728e-03, 7.40740728e-03, 7.40740728e-03, 2.22222209e-02,
          0., 0., 0., 7.40740728e-03, 0., 7.40740728e-03, 5.92592582e-02,
          0., 7.40740728e-03, 0., 0., 7.40740728e-03, 0., 6.66666627e-02,
          0., 0., 0., 0., 0., 0., 7.40740728e-03, 7.40740728e-03, 0., 0.,
          2.22222209e-02, 1.48148146e-02, 0., 0., 0., 0., 0., 0., 0.,
          7.40740728e-03, 0., 0., 0., 7.40740728e-03, 7.40740728e-03,
          1.48148146e-02, 0., 0., 5.92592582e-02, 0., 7.40740728e-03, 0.,
          0., 7.40740728e-03, 0., 0., 1.48148146e-02, 0., 0.,
          7.40740728e-03, 0., 7.40740728e-03, 7.40740728e-03, 0., 0., 0.,
          0., 0., 0., 0., 0., 0., 0., 0., 2.96296291e-02, 4.44444418e-02,
          0., 7.40740728e-03, 0., 7.40740728e-03, 0., 0., 0.,
          7.40740728e-03, 7.40740728e-03, 7.40740728e-03, 7.40740728e-03,
          0., 7.40740728e-03, 7.40740728e-03, 0., 0., 0., 0., 0., 0.,
          7.40740728e-03, 7.40740728e-03, 0., 0., 0., 0., 7.40740728e-03,
          0., 0., 0., 0., 0., 0., 0., 7.40740728e-03, 0., 1.48148146e-02,
          7.40740728e-03, 0., 3.70370373e-02, 0., 0., 0., 7.40740728e-03,
          0., 1.03703700e-01, 0., 0., 0., 0., 0., 0., 7.40740728e-03, 0.,
          0., 0., 0., 0., 1.48148146e-02, 0., 0., 0., 2.96296291e-02, 0.,
          0., 7.40740728e-03, 0., 0., 1.48148146e-02, 1.48148146e-02, 0.,
          2.22222209e-02, 3.70370373e-02, 7.40740728e-03, 0., 0., 0.,
          7.40740728e-03, 0., 0., 0., 0., 0., 0., 0., 0., 0.,
          1.48148146e-02, 1.48148146e-02, 0., 0., 0., 0., 0., 0.,
          7.40740728e-03, 0., 7.40740728e-03, 0., 0., 0., 7.40740728e-03,
          0., 7.40740728e-03, 1.48148146e-02, 7.40740728e-03, 0.,
          7.40740728e-03, 0., 0., 0., 0., 0., 0., 0., 0., 7.40740728e-03,
          0., 0., 0., 0., 0., 0., 0., 7.40740728e-03, 0. ]
      - [ 0., 2.35294122e-02, 0., 1.17647061e-02, 2.35294122e-02, 0., 0.,
          0., 0., 2.35294122e-02, 4.70588244e-02, 0., 0., 0.,
          1.17647061e-02, 0., 0., 1.17647061e-02, 0., 0., 0.,
          1.17647061e-02, 0., 0., 0., 0., 0., 0., 0., 0., 0., 0., 0., 0.,
          0., 1.17647061e-02, 0., 0., 0., 0., 1.17647061e-02, 0., 0., 0.,
          0., 0., 0., 1.17647061e-02, 1.17647061e-02, 5.88235296e-02, 0.,
          3.52941193e-02, 0., 0., 0., 0., 0., 1.17647061e-02, 0., 0., 0.,
          0., 1.17647061e-02, 0., 0., 0., 0., 0., 1.17647061e-02,
          1.17647061e-02, 0., 0., 1.17647061e-02, 2.35294122e-02,
          3.52941193e-02, 0., 1.17647061e-02, 2.35294122e-02, 0., 0., 0.,
          0., 1.17647061e-02, 0., 0., 1.17647061e-02, 0., 2.35294122e-02,
          0., 1.17647061e-02, 0., 0., 0., 0., 0., 1.17647061e-02, 0., 0.,
          0., 0., 5.88235296e-02, 0., 0., 2.35294122e-02, 0.,
          1.17647061e-02, 1.17647061e-02, 0., 0., 0., 0., 0.,
          1.17647061e-02, 0., 0., 0., 0., 0., 0., 0., 1.17647061e-02, 0.,
          0., 0., 0., 0., 0., 0., 0., 0., 0., 0., 1.17647061e-02, 0., 0.,
          0., 0., 0., 2.35294122e-02, 0., 0., 0., 0., 0., 0.,
          3.52941193e-02, 0., 0., 0., 1.17647061e-02, 0., 2.35294122e-02,
          0., 0., 0., 0., 0., 0., 1.17647061e-02, 0., 0., 0., 0., 0.,
          2.35294122e-02, 0., 3.52941193e-02, 1.17647061e-02, 0., 0., 0.,
          0., 0., 0., 0., 0., 0., 1.17647061e-02, 0., 0., 0., 0., 0.,
          3.52941193e-02, 0., 0., 0., 2.35294122e-02, 0., 0., 0., 0., 0.,
          1.17647061e-02, 3.52941193e-02, 0., 1.17647061e-02, 0.,
          1.17647061e-02, 1.17647061e-02 ]
      - [ 0., 0., 0., 0., 0., 8.84955749e-03, 0., 1.76991150e-02, 0.,
          1.76991150e-02, 0., 0., 0., 0., 0., 0., 8.84955749e-03, 0.,
          8.84955749e-03, 8.84955749e-03, 0., 1.76991150e-02, 0., 0., 0.,
          0., 0., 8.84955749e-03, 1.76991150e-02, 0., 0., 0., 0.,
          1.76991150e-02, 0., 0., 0., 8.84955749e-03, 0., 0.,
          8.84955749e-03, 0., 8.84955749e-03, 2.65486725e-02,
          8.84955749e-03, 0., 0., 8.84955749e-03, 0., 8.84955749e-03, 0.,
          0., 0., 0., 8.84955749e-03, 0., 8.84955749e-03, 8.84955749e-03,
          0., 8.84955749e-03, 0., 8.84955749e-03, 1.76991150e-02,
          8.84955749e-03, 0., 0., 0., 8.84955749e-03, 1.76991150e-02, 0.,
          0., 0., 2.65486725e-02, 8.84955749e-03, 0., 0., 0., 0., 0., 0.,
          0., 0., 0., 0., 0., 2.65486725e-02, 8.84955749e-03, 0.,
          1.76991150e-02, 0., 0., 0., 0., 8.84955749e-03, 0., 0.,
          8.84955749e-03, 0., 8.84955749e-03, 0., 3.53982300e-02, 0., 0.,
          0., 2.65486725e-02, 8.84955749e-03, 1.76991150e-02, 0., 0., 0.,
          8.84955749e-03, 0., 0., 0., 8.84955749e-03, 0., 8.84955749e-03,
          8.84955749e-03, 8.84955749e-03, 3.53982300e-02, 8.84955749e-03,
          0., 0., 0., 8.84955749e-03, 0., 0., 2.65486725e-02, 0., 0., 0.,
          0., 0., 8.84955749e-03, 2.65486725e-02, 8.84955749e-03,
          8.84955749e-03, 1.76991150e-02, 1.76991150e-02, 0.,
          8.84955749e-03, 0., 0., 1.76991150e-02, 8.84955749e-03, 0., 0.,
          2.65486725e-02, 0., 0., 8.84955749e-03, 0., 8.84955749e-03, 0.,
          8.84955749e-03, 1.76991150e-02, 1.76991150e-02, 1.76991150e-02,
          0., 8.84955749e-03, 0., 0., 0., 0., 0., 0., 8.84955749e-03,
          8.84955749e-03, 0., 0., 0., 8.84955749e-03, 0., 0., 0., 0., 0.,
          0., 0., 0., 1.76991150e-02, 0., 0., 0., 0., 0., 1.76991150e-02,
          8.84955749e-03, 0., 8.84955749e-03, 0., 0., 0., 0.,
          2.65486725e-02, 8.84955749e-03, 0., 0., 0., 8.84955749e-03 ]
      - [ 0., 1.53846154e-02, 0., 0., 0., 0., 3.07692308e-02, 0., 0., 0.,
          0., 1.53846154e-02, 0., 0., 0., 0., 0., 0., 0., 0., 0., 0., 0.,
          0., 0., 0., 0., 0., 0., 4.61538471e-02, 1.53846154e-02, 0.,
          3.07692308e-02, 1.53846154e-02, 1.53846154e-02, 0., 0., 0., 0.,
          1.53846154e-02, 0., 0., 0., 0., 0., 0., 1.53846154e-02, 0.,
          4.61538471e-02, 0., 0., 0., 3.07692308e-02, 0., 3.07692308e-02,
          0., 0., 1.53846154e-02, 0., 0., 0., 0., 0., 0., 0., 0., 0., 0.,
          0., 0., 0., 1.53846154e-02, 1.53846154e-02, 4.61538471e-02, 0.,
          0., 0., 0., 0., 0., 0., 0., 0., 0., 0., 0., 0., 0.,
          3.07692308e-02, 0., 0., 0., 0., 0., 0., 0., 0., 0., 0., 0., 0.,
          0., 0., 0., 0., 0., 0., 0., 0., 0., 1.53846154e-02, 0., 0.,
          4.61538471e-02, 1.53846154e-02, 0., 1.53846154e-02, 0., 0.,
          1.53846154e-02, 6.15384616e-02, 0., 0., 0., 1.53846154e-02,
          1.53846154e-02, 0., 0., 0., 0., 0., 0., 0., 0., 0., 0., 0., 0.,
          0., 0., 0., 0., 0., 4.61538471e-02, 0., 0., 7.69230798e-02,
          1.53846154e-02, 0., 3.07692308e-02, 0., 0., 0., 0., 0., 0., 0.,
          0., 0., 0., 0., 1.53846154e-02, 0., 0., 0., 0., 0., 0., 0., 0.,
          1.53846154e-02, 0., 1.53846154e-02, 1.53846154e-02, 0., 0., 0.,
          0., 1.53846154e-02, 0., 4.61538471e-02, 1.53846154e-02, 0., 0.,
          0., 0., 0., 0., 0., 0., 0., 0., 0., 0., 0., 0., 0.,
          3.07692308e-02, 1.53846154e-02, 0. ]
      - [ 0., 2.29885057e-02, 0., 0., 0., 0., 0., 0., 0., 0.,
          1.14942528e-02, 0., 0., 0., 0., 0., 0., 1.14942528e-02, 0., 0.,
          2.29885057e-02, 1.14942528e-02, 0., 0., 0., 0., 0., 0., 0.,
          1.14942528e-02, 0., 0., 0., 1.14942528e-02, 0., 0., 0., 0.,
          1.14942528e-02, 0., 0., 0., 3.44827585e-02, 0., 0., 0.,
          1.03448272e-01, 0., 0., 3.44827585e-02, 0., 1.14942528e-02,
          3.44827585e-02, 0., 0., 0., 1.14942528e-02, 0., 0., 0., 0., 0.,
          0., 0., 0., 0., 0., 0., 0., 0., 0., 1.14942528e-02, 0.,
          1.14942528e-02, 0., 1.14942528e-02, 0., 4.59770113e-02, 0., 0.,
          0., 0., 0., 0., 0., 0., 0., 0., 1.14942528e-02, 0., 0., 0., 0.,
          3.44827585e-02, 1.14942528e-02, 0., 1.14942528e-02, 0., 0., 0.,
          4.59770113e-02, 0., 0., 0., 0., 0., 0., 0., 0., 0., 0., 0., 0.,
          3.44827585e-02, 1.14942528e-02, 0., 0., 0., 0., 0.,
          2.29885057e-02, 1.14942528e-02, 0., 0., 0., 0., 0., 0., 0., 0.,
          0., 0., 0., 0., 0., 0., 0., 0., 0., 0., 0., 0., 0., 0., 0.,
          1.14942528e-02, 1.03448272e-01, 0., 0., 0., 0., 0., 0., 0., 0.,
          0., 0., 0., 1.14942528e-02, 0., 4.59770113e-02, 1.14942528e-02,
          0., 0., 0., 0., 2.29885057e-02, 1.14942528e-02, 0.,
          1.14942528e-02, 0., 0., 0., 0., 0., 0., 0., 0., 9.19540226e-02,
          0., 2.29885057e-02, 0., 0., 0., 0., 0., 0., 0., 0., 0., 0., 0.,
          0., 0., 0., 0., 0., 0., 3.44827585e-02, 0. ]
      - [ 0., 2.94117648e-02, 0., 0., 0., 0., 0., 0., 1.47058824e-02, 0.,
          0., 0., 0., 0., 0., 1.47058824e-02, 0., 0., 0., 0., 0., 0., 0.,
          0., 0., 0., 0., 0., 0., 0., 0., 0., 1.47058824e-02,
          1.47058824e-02, 0., 0., 0., 0., 2.94117648e-02, 0., 0.,
          2.94117648e-02, 0., 0., 1.47058824e-02, 0., 1.02941178e-01, 0.,
          5.88235296e-02, 0., 0., 0., 2.94117648e-02, 0., 0., 0.,
          1.47058824e-02, 0., 0., 0., 0., 0., 0., 0., 1.47058824e-02, 0.,
          0., 0., 0., 0., 1.47058824e-02, 0., 2.94117648e-02, 0., 0., 0.,
          0., 0., 0., 0., 0., 0., 1.47058824e-02, 0., 0., 0., 0., 0.,
          2.94117648e-02, 0., 0., 0., 0., 2.94117648e-02, 1.47058824e-02,
          1.47058824e-02, 0., 0., 0., 0., 0., 0., 0., 0., 1.47058824e-02,
          0., 0., 0., 0., 1.47058824e-02, 0., 0., 0., 2.94117648e-02,
          1.47058824e-02, 0., 0., 0., 0., 8.82352963e-02, 2.94117648e-02,
          0., 0., 0., 0., 0., 1.47058824e-02, 0., 0., 1.47058824e-02, 0.,
          0., 0., 0., 0., 0., 0., 0., 0., 1.47058824e-02, 0., 0., 0., 0.,
          0., 4.41176482e-02, 2.94117648e-02, 0., 0., 2.94117648e-02, 0.,
          2.94117648e-02, 0., 0., 0., 0., 0., 0., 0., 0., 0.,
          1.47058824e-02, 0., 0., 0., 0., 0., 0., 0., 0., 0., 0., 0., 0.,
          0., 0., 0., 0., 0., 1.47058824e-02, 1.47058824e-02,
          4.41176482e-02, 0., 1.47058824e-02, 0., 0., 0., 0., 0., 0., 0.,
          0., 0., 0., 0., 0., 0., 0., 0., 0. ]
      - [ 0., 0., 0., 0., 4.34782617e-02, 0., 0., 0., 0., 2.17391308e-02,
          4.34782617e-02, 0., 0., 0., 0., 0., 0., 0., 0., 0., 0., 0., 0.,
          0., 0., 0., 0., 0., 0., 2.17391308e-02, 0., 0., 0., 0., 0., 0.,
          0., 0., 0., 0., 0., 0., 8.69565234e-02, 0., 0., 0., 0., 0., 0.,
          1.30434781e-01, 0., 0., 0., 0., 0., 0., 0., 0., 0., 0., 0.,
          4.34782617e-02, 0., 0., 0., 0., 0., 0., 8.69565234e-02, 0., 0.,
          0., 4.34782617e-02, 0., 2.17391308e-02, 0., 0., 0., 0., 0., 0.,
          0., 0., 0., 0., 0., 0., 2.17391308e-02, 0., 6.52173907e-02, 0.,
          0., 0., 0., 0., 0., 0., 0., 0., 0., 2.17391308e-02, 0., 0., 0.,
          0., 0., 4.34782617e-02, 0., 0., 0., 0., 0., 4.34782617e-02, 0.,
          0., 0., 0., 0., 0., 0., 0., 0., 0., 0., 0., 0., 0., 0., 0., 0.,
          0., 0., 0., 0., 0., 0., 2.17391308e-02, 0., 0., 0., 0.,
          2.17391308e-02, 0., 0., 0., 2.17391308e-02, 0., 0., 0., 0., 0.,
          2.17391308e-02, 0., 0., 0., 0., 0., 0., 0., 2.17391308e-02, 0.,
          0., 0., 0., 0., 0., 0., 0., 0., 0., 0., 0., 0., 0., 0., 0., 0.,
          0., 0., 4.34782617e-02, 0., 0., 0., 0., 0., 0., 0., 0., 0.,
          4.34782617e-02, 0., 0., 0., 0., 2.17391308e-02, 0.,
          4.34782617e-02, 0., 0., 0. ]
      - [ 0., 0., 0., 0., 0., 0., 0., 0., 0., 0., 5.45454547e-02, 0., 0.,
          0., 1.81818176e-02, 0., 0., 0., 0., 0., 0., 0., 0., 0., 0., 0.,
          0., 0., 0., 0., 0., 0., 1.81818176e-02, 0., 0., 0.,
          1.81818176e-02, 0., 0., 0., 0., 0., 0., 0., 0., 0.,
          7.27272704e-02, 1.81818176e-02, 0., 0., 0., 0., 1.81818176e-02,
          0., 0., 0., 0., 0., 3.63636352e-02, 0., 0., 0., 0., 0., 0., 0.,
          0., 0., 0., 1.81818176e-02, 0., 0., 0., 0., 0., 0., 0.,
          5.45454547e-02, 0., 0., 0., 0., 0., 0., 0., 0., 0., 0.,
          1.81818176e-02, 0., 0., 0., 0., 0., 0., 0., 1.81818176e-02, 0.,
          0., 0., 0., 0., 0., 0., 0., 0., 1.81818176e-02, 0.,
          1.81818176e-02, 0., 1.81818176e-02, 0., 0., 3.63636352e-02, 0.,
          0., 0., 0., 0., 7.27272704e-02, 0., 1.81818176e-02, 0., 0.,
          1.81818176e-02, 0., 0., 0., 0., 3.63636352e-02, 0., 0., 0., 0.,
          0., 0., 3.63636352e-02, 0., 0., 0., 0., 0., 5.45454547e-02, 0.,
          0., 3.63636352e-02, 3.63636352e-02, 0., 0., 0., 0.,
          1.81818176e-02, 0., 0., 0., 0., 1.81818176e-02, 0., 0., 0., 0.,
          1.81818176e-02, 0., 0., 0., 0., 0., 0., 0., 0., 0., 0., 0., 0.,
          0., 0., 0., 1.81818176e-02, 1.81818176e-02, 0., 0.,
          3.63636352e-02, 0., 0., 0., 0., 0., 5.45454547e-02, 0., 0., 0.,
          0., 0., 0., 1.81818176e-02, 0., 3.63636352e-02, 0., 0., 0. ]
      - [ 0., 0., 0., 2.34375000e-02, 0., 0., 0., 0., 0., 7.81250000e-03,
          4.68750000e-02, 0., 0., 0., 0., 0., 0., 0., 0., 0., 0., 0., 0.,
          0., 0., 0., 0., 0., 0., 7.81250000e-03, 0., 7.81250000e-03,
          1.56250000e-02, 1.56250000e-02, 0., 0., 0., 0., 1.56250000e-02,
          0., 0., 0., 7.81250000e-03, 7.81250000e-03, 0., 0.,
          1.01562500e-01, 7.81250000e-03, 2.34375000e-02, 3.12500000e-02,
          0., 7.81250000e-03, 0., 0., 0., 0., 0., 0., 0., 0., 0., 0., 0.,
          0., 0., 0., 0., 0., 0., 2.34375000e-02, 0., 0., 0.,
          7.81250000e-03, 0., 0., 0., 0., 7.81250000e-03, 0., 0., 0., 0.,
          0., 0., 0., 7.81250000e-03, 0., 0., 0., 0., 0., 7.81250000e-03,
          7.81250000e-03, 0., 0., 0., 0., 0., 0., 7.81250000e-03, 0., 0.,
          0., 7.81250000e-03, 0., 0., 0., 0., 0., 0., 0., 0.,
          3.12500000e-02, 0., 0., 0., 0., 0., 1.56250000e-02,
          2.34375000e-02, 4.68750000e-02, 0., 0., 0., 0., 0., 0., 0., 0.,
          0., 0., 0., 7.81250000e-03, 0., 0., 0., 7.81250000e-03,
          7.81250000e-03, 0., 0., 0., 7.81250000e-03, 7.81250000e-03, 0.,
          3.90625000e-02, 3.90625000e-02, 0., 0., 0., 1.56250000e-02,
          1.01562500e-01, 0., 7.81250000e-03, 1.56250000e-02, 0., 0., 0.,
          0., 7.81250000e-03, 0., 0., 7.81250000e-03, 0., 0., 0., 0.,
          7.81250000e-03, 0., 0., 0., 1.56250000e-02, 0., 0., 0., 0., 0.,
          0., 3.90625000e-02, 7.81250000e-02, 7.81250000e-03,
          3.12500000e-02, 0., 0., 0., 0., 0., 0., 0., 0., 0., 0., 0., 0.,
          7.81250000e-03, 0., 7.81250000e-03, 0., 7.81250000e-03, 0. ]
      - [ 0., 0., 0., 2.96296291e-02, 0., 0., 0., 7.40740728e-03, 0.,
          7.40740728e-03, 3.70370373e-02, 0., 7.40740728e-03, 0., 0., 0.,
          0., 0., 0., 0., 0., 3.70370373e-02, 0., 0., 0., 0.,
          7.40740728e-03, 0., 0., 0., 7.40740728e-03, 0., 0., 0., 0., 0.,
          7.40740728e-03, 0., 0., 1.48148146e-02, 0., 0., 5.92592582e-02,
          0., 0., 0., 0., 7.40740728e-03, 7.40740728e-03, 4.44444418e-02,
          0., 0., 0., 0., 2.96296291e-02, 7.40740728e-03, 7.40740728e-03,
          7.40740728e-03, 0., 0., 0., 7.40740728e-03, 2.22222209e-02, 0.,
          0., 0., 7.40740728e-03, 0., 3.70370373e-02, 0., 0.,
          7.40740728e-03, 1.48148146e-02, 0., 7.40740728e-03, 0.,
          2.22222209e-02, 7.40740728e-03, 0., 0., 0., 0., 7.40740728e-03,
          1.48148146e-02, 0., 4.44444418e-02, 0., 0., 1.48148146e-02, 0.,
          0., 0., 0., 7.40740728e-03, 0., 1.48148146e-02, 0., 0., 0.,
          7.40740728e-03, 0., 0., 0., 0., 0., 0., 0., 0., 0.,
          7.40740728e-03, 0., 0., 0., 0., 0., 0., 0., 0., 0.,
          4.44444418e-02, 0., 0., 0., 0., 0., 0., 0., 0., 0.,
          7.40740728e-03, 0., 0., 0., 0., 2.22222209e-02, 0.,
          7.40740728e-03, 0., 0., 7.40740728e-03, 0., 0., 0., 0., 0., 0.,
          0., 0., 0., 1.48148146e-02, 0., 0., 2.22222209e-02, 0.,
          7.40740728e-03, 0., 7.40740728e-03, 0., 1.48148146e-02,
          1.48148146e-02, 7.40740728e-03, 0., 0., 0., 7.40740728e-03, 0.,
          7.40740746e-02, 0., 0., 0., 0., 2.22222209e-02, 7.40740728e-03,
          0., 0., 1.48148146e-02, 0., 0., 1.48148146e-02, 7.40740728e-03,
          0., 0., 0., 7.40740728e-03, 0., 0., 0., 1.48148146e-02, 0.,
          7.40740728e-03, 0., 0., 0., 0., 2.96296291e-02, 0., 0., 0.,
          1.48148146e-02, 1.48148146e-02 ]
      - [ 0., 0., 0., 0., 0., 9.34579410e-03, 0., 0., 0., 9.34579410e-03,
          1.86915882e-02, 0., 0., 0., 0., 9.34579410e-03, 0.,
          9.34579410e-03, 0., 0., 0., 0., 0., 0., 9.34579410e-03,
          1.86915882e-02, 0., 0., 0., 0., 0., 0., 0., 0., 9.34579410e-03,
          9.34579410e-03, 0., 0., 3.73831764e-02, 0., 0., 0.,
          5.60747646e-02, 0., 0., 0., 0., 9.34579410e-03, 0.,
          6.54205605e-02, 0., 0., 0., 0., 0., 0., 0., 9.34579410e-03, 0.,
          0., 0., 6.54205605e-02, 0., 0., 0., 0., 0., 0., 0., 0., 0.,
          9.34579410e-03, 0., 0., 0., 1.86915882e-02, 0., 9.34579410e-03,
          0., 0., 0., 0., 0., 0., 0., 3.73831764e-02, 0., 9.34579410e-03,
          0., 2.80373823e-02, 0., 0., 0., 0., 0., 0., 0., 9.34579410e-03,
          0., 0., 1.86915882e-02, 9.34579410e-03, 0., 1.86915882e-02,
          9.34579410e-03, 0., 9.34579410e-03, 0., 0., 0., 0., 0., 0., 0.,
          9.34579410e-03, 0., 0., 0., 0., 3.73831764e-02, 9.34579410e-03,
          0., 0., 0., 0., 0., 0., 0., 0., 9.34579410e-03, 0., 0., 0., 0.,
          9.34579410e-03, 0., 0., 0., 0., 0., 0., 0., 0., 0., 0.,
          1.86915882e-02, 1.21495321e-01, 9.34579410e-03, 0., 0., 0.,
          9.34579410e-03, 0., 0., 0., 0., 9.34579410e-03, 1.86915882e-02,
          9.34579410e-03, 0., 9.34579410e-03, 0., 0., 0., 4.67289686e-02,
          0., 0., 0., 1.86915882e-02, 0., 0., 0., 9.34579410e-03, 0., 0.,
          0., 0., 0., 9.34579410e-03, 0., 0., 3.73831764e-02, 0., 0., 0.,
          0., 0., 0., 0., 0., 9.34579410e-03, 0., 2.80373823e-02, 0., 0.,
          0., 0., 0., 2.80373823e-02, 0. ]
      - [ 0., 0., 0., 0., 0., 0., 0., 0., 0., 0., 0., 7.50000030e-02, 0.,
          0., 0., 0., 2.50000004e-02, 0., 0., 0., 0., 2.50000004e-02, 0.,
          0., 0., 0., 0., 0., 0., 0., 0., 0., 0., 0., 0., 0.,
          2.50000004e-02, 0., 0., 0., 0., 0., 5.00000007e-02, 0., 0., 0.,
          5.00000007e-02, 0., 0., 0., 2.50000004e-02, 0., 0., 0., 0., 0.,
          0., 0., 0., 0., 0., 2.50000004e-02, 0., 0., 0., 0., 0., 0., 0.,
          0., 0., 0., 0., 0., 0., 0., 0., 0., 0., 2.50000004e-02,
          2.50000004e-02, 0., 0., 0., 0., 0., 0., 0., 0., 0., 0., 0., 0.,
          0., 0., 0., 0., 0., 0., 0., 2.50000004e-02, 0., 2.50000004e-02,
          0., 2.50000004e-02, 0., 2.50000004e-02, 0., 0., 0., 0., 0., 0.,
          5.00000007e-02, 0., 0., 0., 0., 0., 0., 5.00000007e-02, 0., 0.,
          2.50000004e-02, 0., 0., 0., 0., 0., 0., 2.50000004e-02, 0., 0.,
          2.50000004e-02, 0., 0., 0., 0., 0., 0., 0., 0., 0., 0., 0.,
          7.50000030e-02, 0., 0., 0., 0., 0., 2.50000004e-02, 0., 0., 0.,
          0., 0., 0., 2.50000004e-02, 0., 0., 0., 0., 0., 0., 0., 0., 0.,
          0., 0., 0., 0., 0., 0., 0., 0., 0., 0., 5.00000007e-02, 0., 0.,
          2.50000004e-02, 0., 0., 0., 0., 5.00000007e-02, 0., 0., 0., 0.,
          0., 5.00000007e-02, 2.50000004e-02, 2.50000004e-02, 0., 0., 0.,
          2.50000004e-02, 0. ]
      - [ 0., 8.84955749e-03, 0., 8.84955749e-03, 8.84955749e-03, 0., 0.,
          0., 0., 8.84955749e-03, 8.84955749e-03, 0., 0., 0.,
          3.53982300e-02, 8.84955749e-03, 0., 8.84955749e-03, 0., 0., 0.,
          0., 8.84955749e-03, 0., 0., 1.76991150e-02, 1.76991150e-02, 0.,
          0., 1.76991150e-02, 8.84955749e-03, 0., 0., 0., 0., 0.,
          1.76991150e-02, 0., 8.84955749e-03, 0., 8.84955749e-03, 0.,
          2.65486725e-02, 0., 0., 8.84955749e-03, 1.06194690e-01, 0.,
          2.65486725e-02, 8.84955749e-03, 0., 0., 0., 8.84955749e-03,
          8.84955749e-03, 0., 1.76991150e-02, 0., 0., 0., 8.84955749e-03,
          8.84955749e-03, 0., 0., 8.84955749e-03, 0., 0., 0., 0.,
          8.84955749e-03, 0., 0., 0., 1.76991150e-02, 0., 8.84955749e-03,
          1.76991150e-02, 0., 0., 0., 0., 0., 8.84955749e-03, 0., 0., 0.,
          0., 0., 0., 2.65486725e-02, 8.84955749e-03, 0., 0., 0., 0., 0.,
          0., 0., 0., 0., 1.76991150e-02, 0., 0., 0., 0., 0.,
          8.84955749e-03, 0., 0., 0., 8.84955749e-03, 0., 1.76991150e-02,
          1.76991150e-02, 8.84955749e-03, 0., 0., 0., 0., 4.42477874e-02,
          0., 0., 0., 0., 0., 0., 0., 0., 0., 0., 0., 0., 0., 0., 0., 0.,
          8.84955749e-03, 0., 0., 8.84955749e-03, 0., 0., 8.84955749e-03,
          8.84955749e-03, 0., 0., 0., 0., 0., 1.76991150e-02, 0.,
          4.42477874e-02, 0., 1.76991150e-02, 0., 0., 0., 0., 0., 0., 0.,
          1.76991150e-02, 0., 8.84955749e-03, 0., 0., 0., 0., 0., 0., 0.,
          1.76991150e-02, 8.84955749e-03, 0., 0., 0., 0., 0.,
          1.76991150e-02, 5.30973449e-02, 0., 0., 0., 0., 0.,
          1.76991150e-02, 8.84955749e-03, 0., 8.84955749e-03,
          8.84955749e-03, 0., 8.84955749e-03, 0., 0., 0., 0.,
          4.42477874e-02, 0., 0., 0. ]
      - [ 0., 7.81250000e-03, 0., 1.56250000e-02, 7.81250000e-03,
          1.56250000e-02, 0., 7.81250000e-03, 0., 0., 0., 0., 0., 0., 0.,
          0., 0., 7.81250000e-03, 0., 0., 0., 0., 0., 0., 0., 0.,
          2.34375000e-02, 0., 0., 0., 7.81250000e-03, 7.81250000e-03, 0.,
          0., 0., 7.81250000e-03, 0., 0., 1.56250000e-02, 7.81250000e-03,
          0., 0., 0., 0., 1.56250000e-02, 0., 5.46875000e-02, 0.,
          1.56250000e-02, 0., 0., 0., 0., 0., 0., 0., 0., 0., 0.,
          2.34375000e-02, 0., 1.56250000e-02, 0., 0., 1.56250000e-02, 0.,
          0., 0., 7.81250000e-03, 0., 0., 2.34375000e-02, 7.81250000e-03,
          0., 0., 0., 0., 0., 0., 0., 0., 0., 0., 0., 0., 0., 0., 0., 0.,
          0., 0., 0., 0., 7.81250000e-03, 7.81250000e-03, 7.81250000e-03,
          1.56250000e-02, 0., 0., 0., 0., 7.81250000e-03, 0.,
          1.56250000e-02, 0., 0., 0., 7.81250000e-03, 0., 0., 0.,
          1.56250000e-02, 7.81250000e-03, 3.12500000e-02, 3.90625000e-02,
          0., 0., 0., 0., 1.09375000e-01, 0., 0., 0., 0., 2.34375000e-02,
          0., 0., 1.56250000e-02, 7.81250000e-03, 0., 0., 0., 0., 0.,
          2.34375000e-02, 0., 7.81250000e-03, 7.81250000e-03,
          7.81250000e-03, 0., 0., 0., 0., 0., 0., 3.90625000e-02,
          7.81250000e-03, 7.81250000e-03, 7.81250000e-03, 2.34375000e-02,
          0., 7.81250000e-03, 0., 0., 0., 0., 0., 0., 0., 0.,
          1.56250000e-02, 1.56250000e-02, 7.81250000e-03, 1.56250000e-02,
          0., 0., 7.81250000e-03, 0., 0., 7.81250000e-03, 0.,
          7.81250000e-03, 0., 0., 7.81250000e-03, 0., 7.81250000e-03,
          1.56250000e-02, 1.56250000e-02, 0., 0., 3.90625000e-02, 0.,
          1.56250000e-02, 0., 0., 7.81250000e-03, 0., 0., 0., 0., 0., 0.,
          0., 0., 0., 7.81250000e-03, 0., 1.56250000e-02, 1.56250000e-02 ]
      - [ 0., 1.26582282e-02, 0., 0., 0., 0., 0., 0., 0., 1.26582282e-02,
          3.79746854e-02, 0., 2.53164563e-02, 0., 0., 0., 0.,
          1.26582282e-02, 1.26582282e-02, 0., 0., 0., 0., 0., 0., 0., 0.,
          0., 0., 0., 1.26582282e-02, 0., 0., 0., 0., 0., 0., 0., 0., 0.,
          1.26582282e-02, 1.26582282e-02, 1.13924056e-01, 0., 0., 0., 0.,
          0., 0., 0., 0., 0., 0., 1.26582282e-02, 0., 0., 0., 0., 0., 0.,
          0., 0., 0., 0., 0., 0., 0., 0., 0., 1.26582282e-02, 0.,
          1.26582282e-02, 0., 0., 0., 0., 0., 2.53164563e-02, 0., 0., 0.,
          0., 0., 0., 0., 0., 0., 0., 3.79746854e-02, 0., 0., 0., 0., 0.,
          3.79746854e-02, 0., 1.26582282e-02, 0., 0., 2.53164563e-02, 0.,
          0., 0., 0., 0., 0., 0., 0., 0., 0., 0., 0., 0., 6.32911399e-02,
          3.79746854e-02, 0., 0., 0., 0., 7.59493709e-02, 0., 0., 0., 0.,
          0., 0., 1.26582282e-02, 1.26582282e-02, 0., 0., 0., 0., 0., 0.,
          0., 1.26582282e-02, 1.26582282e-02, 0., 0., 0., 0., 0., 0., 0.,
          0., 0., 1.51898742e-01, 0., 0., 0., 0., 0., 1.26582282e-02, 0.,
          1.26582282e-02, 0., 1.26582282e-02, 0., 1.26582282e-02, 0., 0.,
          2.53164563e-02, 0., 0., 0., 1.26582282e-02, 0., 0., 0., 0.,
          1.26582282e-02, 0., 0., 1.26582282e-02, 0., 1.26582282e-02, 0.,
          1.26582282e-02, 0., 0., 0., 0., 0., 1.26582282e-02, 0., 0., 0.,
          0., 0., 0., 1.26582282e-02, 0., 1.26582282e-02, 0., 0., 0., 0.,
          0., 0., 0. ]
      - [ 0., 0., 0., 7.50000030e-02, 0., 0., 0., 2.50000004e-02, 0., 0.,
          0., 0., 0., 0., 0., 5.00000007e-02, 0., 5.00000007e-02, 0., 0.,
          0., 0., 0., 0., 0., 0., 0., 0., 0., 5.00000007e-02, 0., 0., 0.,
          0., 0., 0., 0., 2.50000004e-02, 2.50000004e-02, 0., 0., 0., 0.,
          0., 0., 0., 0., 2.50000004e-02, 0., 0., 0., 0., 0., 0., 0., 0.,
          0., 0., 0., 0., 0., 0., 0., 0., 0., 0., 0., 0., 0., 0., 0., 0.,
          0., 0., 0., 0., 0., 0., 0., 0., 0., 2.50000004e-02, 0., 0., 0.,
          0., 0., 0., 0., 0., 0., 0., 0., 0., 0., 2.50000004e-02, 0., 0.,
          0., 0., 0., 0., 0., 2.50000004e-02, 0., 0., 0., 0., 0., 0., 0.,
          0., 0., 0., 5.00000007e-02, 2.50000004e-02, 0., 2.50000004e-02,
          0., 0., 0., 0., 0., 0., 0., 0., 0., 5.00000007e-02, 0., 0., 0.,
          0., 0., 0., 0., 0., 0., 5.00000007e-02, 2.50000004e-02, 0., 0.,
          0., 0., 0., 0., 1.50000006e-01, 2.50000004e-02, 0., 0.,
          5.00000007e-02, 0., 0., 0., 0., 0., 0., 0., 0., 2.50000004e-02,
          0., 2.50000004e-02, 0., 0., 0., 0., 0., 0., 0., 0., 0., 0.,
          2.50000004e-02, 0., 0., 0., 0., 0., 0., 2.50000004e-02, 0., 0.,
          2.50000004e-02, 0., 0., 0., 0., 0., 0., 0., 0., 0., 0., 0., 0.,
          0., 0., 0., 0., 2.50000004e-02, 0. ]
      - [ 0., 1.45985400e-02, 0., 0., 0., 0., 0., 0., 0., 0.,
          3.64963487e-02, 0., 0., 0., 0., 0., 0., 2.18978096e-02,
          7.29927002e-03, 0., 2.18978096e-02, 0., 0., 0., 0., 0.,
          7.29927002e-03, 0., 0., 7.29927002e-03, 0., 0., 0.,
          7.29927002e-03, 0., 0., 0., 0., 7.29927002e-03, 2.18978096e-02,
          0., 0., 1.02189779e-01, 0., 0., 0., 6.56934306e-02, 0.,
          1.45985400e-02, 2.18978096e-02, 0., 0., 7.29927002e-03, 0.,
          7.29927002e-03, 0., 0., 0., 0., 0., 0., 7.29927002e-03, 0.,
          7.29927002e-03, 0., 0., 0., 0., 0., 0., 0., 7.29927002e-03, 0.,
          0., 0., 7.29927002e-03, 0., 1.45985400e-02, 0., 0., 0.,
          7.29927002e-03, 1.45985400e-02, 0., 0., 0., 7.29927002e-03, 0.,
          0., 0., 0., 0., 0., 1.45985400e-02, 0., 1.45985400e-02, 0., 0.,
          0., 0., 0., 7.29927002e-03, 7.29927002e-03, 0., 0., 0.,
          7.29927002e-03, 0., 0., 0., 0., 0., 0., 0., 0., 1.45985400e-02,
          7.29927002e-03, 0., 0., 3.64963487e-02, 0., 7.29927002e-03, 0.,
          0., 0., 0., 1.45985400e-02, 0., 0., 0., 0., 0., 0.,
          7.29927002e-03, 0., 0., 1.45985400e-02, 0., 0., 0., 0.,
          1.45985400e-02, 0., 0., 0., 5.83941601e-02, 5.10948896e-02, 0.,
          0., 0., 7.29927002e-03, 0., 0., 7.29927002e-03, 0.,
          7.29927002e-03, 0., 7.29927002e-03, 7.29927002e-03,
          1.45985400e-02, 2.18978096e-02, 2.18978096e-02, 2.18978096e-02,
          7.29927002e-03, 0., 0., 1.45985400e-02, 0., 0., 7.29927002e-03,
          0., 0., 7.29927002e-03, 0., 0., 0., 0., 0., 2.18978096e-02, 0.,
          0., 4.37956192e-02, 7.29927002e-03, 7.29927002e-03,
          1.45985400e-02, 0., 7.29927002e-03, 0., 1.45985400e-02, 0., 0.,
          0., 0., 7.29927002e-03, 0., 0., 0., 0., 0., 0. ]
      - [ 5.81395347e-03, 1.16279069e-02, 5.81395347e-03, 0., 0.,
          5.81395347e-03, 0., 0., 0., 1.16279069e-02, 4.65116277e-02, 0.,
          0., 5.81395347e-03, 1.16279069e-02, 0., 5.81395347e-03,
          5.81395347e-03, 0., 0., 0., 2.32558139e-02, 0., 0., 0., 0., 0.,
          0., 5.81395347e-03, 5.81395347e-03, 0., 0., 5.81395347e-03,
          5.81395347e-03, 0., 0., 0., 2.32558139e-02, 0., 0., 0., 0.,
          2.90697664e-02, 0., 0., 0., 1.16279069e-02, 1.16279069e-02,
          5.81395347e-03, 2.32558139e-02, 0., 0., 5.81395347e-03, 0.,
          1.16279069e-02, 0., 0., 5.81395347e-03, 2.32558139e-02,
          5.81395347e-03, 1.16279069e-02, 1.16279069e-02, 5.81395347e-03,
          5.81395347e-03, 0., 0., 0., 0., 0., 0., 0., 0., 0.,
          5.81395347e-03, 1.16279069e-02, 5.81395347e-03, 1.16279069e-02,
          1.16279069e-02, 0., 0., 0., 5.81395347e-03, 1.16279069e-02,
          5.81395347e-03, 0., 5.81395347e-03, 0., 0., 0., 0., 0., 0., 0.,
          5.81395347e-03, 0., 1.16279069e-02, 5.81395347e-03,
          5.81395347e-03, 0., 0., 0., 5.81395347e-03, 1.16279069e-02, 0.,
          1.16279069e-02, 5.81395347e-03, 0., 0., 1.16279069e-02, 0.,
          5.81395347e-03, 0., 0., 5.81395347e-03, 5.81395347e-03, 0., 0.,
          5.81395347e-03, 0., 3.48837227e-02, 0., 1.16279069e-02,
          5.81395347e-03, 5.81395347e-03, 0., 1.16279069e-02, 0.,
          1.16279069e-02, 5.81395347e-03, 5.81395347e-03, 0.,
          5.81395347e-03, 1.74418613e-02, 1.16279069e-02, 0.,
          5.81395347e-03, 5.81395347e-03, 0., 1.74418613e-02, 0., 0.,
          5.81395347e-03, 5.81395347e-03, 5.81395347e-03, 5.81395347e-03,
          0., 2.32558139e-02, 1.16279069e-02, 0., 0., 0., 5.81395347e-03,
          0., 2.32558139e-02, 0., 0., 0., 0., 1.74418613e-02,
          5.81395347e-03, 0., 1.16279069e-02, 5.81395347e-03, 0.,
          1.16279069e-02, 5.81395347e-03, 0., 0., 5.81395347e-03, 0.,
          2.32558139e-02, 0., 1.16279069e-02, 5.81395347e-03, 0., 0., 0.,
          0., 0., 1.74418613e-02, 0., 1.16279069e-02, 0., 0., 0.,
          1.74418613e-02, 0., 0., 0., 1.74418613e-02, 0., 0., 0., 0., 0.,
          0., 0., 3.48837227e-02, 2.32558139e-02, 0. ]
      - [ 0., 0., 0., 0., 0., 0., 0., 0., 0., 0., 0., 0., 0., 0.,
          4.41176482e-02, 0., 0., 0., 1.47058824e-02, 0., 0., 0., 0., 0.,
          0., 0., 0., 0., 0., 2.94117648e-02, 0., 0., 2.94117648e-02, 0.,
          0., 0., 0., 0., 0., 0., 0., 0., 0., 0., 0., 0., 1.47058830e-01,
          0., 0., 0., 0., 0., 0., 0., 0., 0., 0., 0., 4.41176482e-02, 0.,
          4.41176482e-02, 0., 0., 0., 0., 0., 0., 0., 0., 0., 0., 0., 0.,
          0., 1.47058824e-02, 0., 0., 0., 0., 0., 0., 0., 0., 0., 0., 0.,
          0., 0., 1.47058824e-02, 7.35294148e-02, 0., 0., 0., 0., 0., 0.,
          0., 0., 0., 0., 2.94117648e-02, 0., 0., 0., 0., 0., 0., 0.,
          2.94117648e-02, 0., 2.94117648e-02, 0., 0., 5.88235296e-02, 0.,
          0., 0., 0., 0., 2.94117648e-02, 4.41176482e-02, 0., 0., 0., 0.,
          0., 0., 0., 0., 0., 0., 0., 0., 0., 0., 1.47058824e-02, 0., 0.,
          0., 0., 0., 0., 0., 0., 0., 2.94117648e-02, 4.41176482e-02, 0.,
          0., 0., 1.47058824e-02, 0., 0., 0., 0., 0., 0., 0., 0., 0.,
          1.47058824e-02, 0., 0., 0., 0., 0., 0., 0., 2.94117648e-02, 0.,
          0., 0., 1.47058824e-02, 0., 0., 0., 2.94117648e-02, 0., 0.,
          1.47058824e-02, 0., 0., 0., 0., 0., 0., 0., 0., 0., 0., 0., 0.,
          0., 1.47058824e-02, 0., 0., 0., 0., 1.02941178e-01, 0. ]
      - [ 0., 1.09890113e-02, 0., 0., 0., 0., 0., 0., 0., 2.19780225e-02,
          0., 0., 0., 0., 3.29670347e-02, 0., 1.09890113e-02, 0., 0., 0.,
          0., 0., 0., 0., 0., 0., 0., 0., 0., 0., 0., 0., 0., 0., 0., 0.,
          0., 0., 0., 0., 0., 0., 0., 0., 0., 0., 1.09890113e-02, 0.,
          7.69230798e-02, 1.31868139e-01, 0., 2.19780225e-02,
          1.09890113e-02, 0., 0., 0., 0., 0., 3.29670347e-02,
          1.09890113e-02, 0., 2.19780225e-02, 1.09890113e-02,
          1.09890113e-02, 0., 0., 1.09890113e-02, 0., 0., 0., 0., 0.,
          2.19780225e-02, 3.29670347e-02, 0., 0., 1.09890113e-02, 0., 0.,
          0., 1.09890113e-02, 0., 0., 0., 0., 2.19780225e-02, 0.,
          1.09890113e-02, 0., 1.09890113e-02, 0., 0., 0., 0., 0., 0., 0.,
          1.09890113e-02, 0., 1.09890113e-02, 4.39560451e-02,
          1.09890113e-02, 3.29670347e-02, 1.09890113e-02, 1.09890113e-02,
          0., 0., 1.09890113e-02, 0., 0., 3.29670347e-02, 0.,
          1.09890113e-02, 3.29670347e-02, 2.19780225e-02, 0., 0., 0., 0.,
          0., 2.19780225e-02, 1.09890113e-02, 0., 0., 0., 0., 0., 0., 0.,
          0., 0., 0., 0., 0., 0., 0., 0., 0., 0., 0., 0., 0., 0.,
          1.09890113e-02, 0., 0., 1.09890113e-02, 0., 0., 1.09890113e-02,
          0., 1.09890113e-02, 0., 0., 0., 0., 0., 0., 1.09890113e-02, 0.,
          0., 0., 1.09890113e-02, 0., 0., 0., 0., 1.09890113e-02, 0., 0.,
          0., 0., 0., 0., 0., 0., 2.19780225e-02, 0., 5.49450554e-02,
          1.09890113e-02, 0., 0., 0., 0., 1.09890113e-02, 0., 0., 0., 0.,
          0., 0., 0., 0., 0., 0., 0., 0., 0., 0., 0. ]
      - [ 0., 0., 0., 8.40336177e-03, 1.68067235e-02, 0., 0., 0., 0., 0.,
          4.20168079e-02, 0., 0., 0., 8.40336177e-03, 2.52100863e-02, 0.,
          0., 0., 8.40336177e-03, 0., 0., 0., 1.68067235e-02, 0., 0.,
          8.40336177e-03, 0., 8.40336177e-03, 0., 0., 1.68067235e-02, 0.,
          8.40336177e-03, 0., 8.40336177e-03, 8.40336177e-03, 0.,
          8.40336177e-03, 8.40336177e-03, 8.40336177e-03, 1.68067235e-02,
          2.52100863e-02, 0., 0., 0., 8.40336177e-03, 8.40336177e-03, 0.,
          8.40336177e-03, 0., 1.68067235e-02, 1.68067235e-02,
          3.36134471e-02, 8.40336177e-03, 0., 0., 0., 0., 0., 0.,
          8.40336177e-03, 0., 0., 0., 0., 8.40336177e-03, 8.40336177e-03,
          2.52100863e-02, 0., 0., 0., 8.40336177e-03, 0., 0., 0., 0.,
          8.40336177e-03, 0., 0., 0., 0., 8.40336177e-03, 0.,
          8.40336177e-03, 0., 0., 0., 1.68067235e-02, 1.68067235e-02, 0.,
          0., 8.40336177e-03, 8.40336177e-03, 0., 8.40336177e-03, 0., 0.,
          1.68067235e-02, 0., 0., 0., 0., 8.40336177e-03, 8.40336177e-03,
          0., 0., 0., 0., 1.68067235e-02, 0., 0., 0., 1.68067235e-02,
          1.68067235e-02, 0., 8.40336177e-03, 0., 0., 4.20168079e-02, 0.,
          1.68067235e-02, 0., 0., 8.40336177e-03, 2.52100863e-02,
          8.40336177e-03, 0., 1.68067235e-02, 0., 0., 8.40336177e-03, 0.,
          0., 0., 0., 1.68067235e-02, 0., 0., 8.40336177e-03,
          8.40336177e-03, 0., 8.40336177e-03, 1.68067235e-02, 0.,
          8.40336177e-03, 0., 8.40336177e-03, 0., 2.52100863e-02, 0., 0.,
          0., 8.40336177e-03, 0., 0., 8.40336177e-03, 0., 8.40336177e-03,
          1.68067235e-02, 0., 1.68067235e-02, 0., 0., 0., 0., 0., 0.,
          8.40336177e-03, 0., 0., 0., 8.40336177e-03, 0., 0., 0.,
          8.40336177e-03, 8.40336177e-03, 2.52100863e-02, 1.68067235e-02,
          0., 8.40336177e-03, 0., 0., 0., 0., 0., 0., 0., 0.,
          8.40336177e-03, 0., 0., 0., 0., 0., 8.40336177e-03,
          1.68067235e-02, 8.40336177e-03, 0. ]
      - [ 0., 0., 0., 0., 0., 0., 1.04166670e-02, 0., 0., 0., 0.,
          1.04166670e-02, 0., 1.04166670e-02, 1.04166670e-02, 0., 0.,
          2.08333340e-02, 0., 0., 0., 0., 0., 0., 0., 0., 0., 0., 0., 0.,
          0., 1.04166670e-02, 1.04166670e-02, 5.20833358e-02, 0., 0., 0.,
          0., 0., 0., 2.08333340e-02, 0., 2.08333340e-02, 1.04166670e-02,
          0., 0., 1.04166670e-02, 0., 0., 6.25000000e-02, 0., 0., 0., 0.,
          0., 0., 1.04166670e-02, 0., 0., 0., 0., 2.08333340e-02, 0., 0.,
          0., 0., 0., 0., 0., 0., 1.04166670e-02, 0., 1.04166670e-02,
          3.12500000e-02, 0., 0., 0., 3.12500000e-02, 0., 0., 0.,
          1.04166670e-02, 0., 0., 0., 0., 0., 0., 0., 0., 0., 0., 0., 0.,
          2.08333340e-02, 0., 0., 0., 0., 0., 2.08333340e-02, 0., 0.,
          2.08333340e-02, 0., 0., 0., 0., 0., 0., 1.04166670e-02, 0.,
          2.08333340e-02, 1.04166670e-02, 0., 0., 0., 0., 0.,
          2.08333340e-02, 1.04166670e-02, 2.08333340e-02, 0., 0., 0., 0.,
          2.08333340e-02, 0., 0., 0., 1.04166670e-02, 0., 0., 0.,
          1.04166670e-02, 0., 0., 0., 0., 0., 0., 0., 0., 0., 0.,
          8.33333358e-02, 1.14583336e-01, 0., 0., 0., 0., 0., 0., 0., 0.,
          0., 0., 0., 3.12500000e-02, 0., 0., 2.08333340e-02, 0., 0., 0.,
          1.04166670e-02, 0., 2.08333340e-02, 0., 0., 0., 2.08333340e-02,
          0., 0., 0., 0., 0., 1.04166670e-02, 2.08333340e-02, 0., 0., 0.,
          0., 0., 0., 2.08333340e-02, 0., 0., 0., 0., 0., 0., 0., 0.,
          2.08333340e-02, 1.04166670e-02, 1.04166670e-02, 0.,
          2.08333340e-02, 0. ]
      - [ 0., 0., 0., 2.63157897e-02, 0., 0., 0., 0., 0., 0.,
          5.26315793e-02, 0., 0., 0., 0., 0., 2.63157897e-02, 0., 0., 0.,
          0., 0., 0., 0., 0., 0., 0., 0., 0., 0., 0., 0., 0., 0., 0., 0.,
          0., 0., 0., 0., 0., 0., 7.89473653e-02, 0., 0., 0.,
          2.63157897e-02, 0., 0., 2.63157897e-02, 0., 0., 0., 0., 0., 0.,
          0., 0., 0., 0., 0., 0., 0., 0., 0., 0., 0., 0., 0., 0., 0., 0.,
          2.63157897e-02, 0., 0., 0., 0., 2.63157897e-02, 0., 0., 0., 0.,
          5.26315793e-02, 2.63157897e-02, 0., 0., 0., 5.26315793e-02, 0.,
          1.05263159e-01, 0., 0., 0., 0., 0., 0., 0., 0., 0., 0., 0., 0.,
          0., 0., 0., 0., 0., 0., 0., 0., 0., 0., 0., 0., 0., 0., 0., 0.,
          0., 5.26315793e-02, 2.63157897e-02, 0., 0., 0., 0., 0., 0., 0.,
          0., 0., 0., 0., 0., 0., 0., 0., 7.89473653e-02, 0.,
          2.63157897e-02, 0., 0., 0., 2.63157897e-02, 0., 0., 0., 0., 0.,
          0., 0., 0., 2.63157897e-02, 0., 2.63157897e-02, 0., 0., 0., 0.,
          0., 0., 0., 0., 0., 0., 5.26315793e-02, 0., 0., 0., 0., 0., 0.,
          5.26315793e-02, 0., 0., 0., 0., 0., 0., 0., 5.26315793e-02, 0.,
          0., 0., 5.26315793e-02, 0., 0., 0., 0., 0., 0., 0., 0., 0., 0.,
          0., 0., 0., 0., 0., 0. ]
      - [ 0., 0., 0., 0., 0., 0., 0., 0., 0., 1.42857144e-02, 0., 0., 0.,
          0., 0., 0., 1.42857144e-02, 0., 0., 0., 0., 2.85714287e-02,
          1.42857144e-02, 0., 0., 4.28571440e-02, 0., 1.42857144e-02, 0.,
          0., 0., 0., 1.42857144e-02, 0., 0., 0., 0., 0., 0., 0., 0., 0.,
          0., 0., 0., 0., 0., 0., 0., 1.00000001e-01, 0., 0., 0., 0., 0.,
          0., 0., 0., 0., 0., 0., 1.42857144e-02, 2.85714287e-02, 0., 0.,
          1.42857144e-02, 0., 0., 7.14285746e-02, 2.85714287e-02,
          1.42857144e-02, 0., 1.42857144e-02, 0., 2.85714287e-02, 0., 0.,
          0., 1.42857144e-02, 0., 0., 0., 0., 1.42857144e-02, 0.,
          1.42857144e-02, 0., 0., 0., 5.71428575e-02, 0., 0., 0.,
          2.85714287e-02, 0., 0., 4.28571440e-02, 1.42857144e-02, 0., 0.,
          2.85714287e-02, 0., 0., 1.42857144e-02, 0., 0., 0., 0.,
          2.85714287e-02, 0., 1.42857144e-02, 0., 0., 0., 0., 0., 0., 0.,
          0., 0., 0., 0., 0., 0., 0., 1.42857144e-02, 0., 0., 0., 0., 0.,
          0., 0., 0., 2.85714287e-02, 0., 0., 0., 2.85714287e-02, 0., 0.,
          0., 1.42857144e-02, 0., 0., 0., 0., 0., 0., 0., 0., 0., 0., 0.,
          0., 0., 1.42857144e-02, 0., 0., 1.42857144e-02, 0., 0., 0., 0.,
          0., 0., 1.42857144e-02, 0., 0., 0., 0., 1.42857144e-02, 0., 0.,
          0., 0., 0., 0., 0., 0., 0., 0., 1.42857144e-02, 0., 0.,
          1.42857144e-02, 0., 0., 0., 0., 0., 0., 0., 0., 4.28571440e-02,
          0., 4.28571440e-02, 0., 1.42857144e-02, 0. ]
      - [ 0., 0., 0., 0., 0., 0., 0., 0., 0., 0., 0., 0., 0., 0., 0., 0.,
          1.85185187e-02, 0., 0., 0., 0., 0., 0., 0., 0., 0., 0., 0., 0.,
          0., 0., 0., 0., 0., 0., 0., 0., 0., 0., 1.85185187e-02, 0., 0.,
          0., 0., 0., 0., 3.70370373e-02, 0., 0., 5.55555560e-02, 0., 0.,
          0., 0., 0., 0., 0., 0., 3.70370373e-02, 0., 0., 3.70370373e-02,
          0., 0., 0., 0., 0., 0., 3.70370373e-02, 0., 0., 0., 0., 0., 0.,
          1.85185187e-02, 0., 0., 0., 0., 0., 0., 0., 0., 0., 0., 0., 0.,
          0., 0., 0., 0., 0., 0., 0., 0., 0., 0., 0., 0., 1.85185187e-02,
          0., 0., 0., 0., 0., 1.85185187e-02, 0., 0., 0., 0., 0., 0.,
          1.85185187e-02, 1.85185187e-02, 0., 0., 0., 0., 0.,
          1.66666672e-01, 0., 0., 0., 0., 0., 0., 0., 0., 0., 0., 0.,
          1.85185187e-02, 3.70370373e-02, 1.85185187e-02, 0., 0., 0., 0.,
          0., 0., 0., 0., 1.85185187e-02, 0., 7.40740746e-02,
          1.11111112e-01, 0., 0., 0., 0., 3.70370373e-02, 0., 0., 0., 0.,
          0., 0., 1.85185187e-02, 0., 0., 0., 0., 0., 0., 1.85185187e-02,
          0., 3.70370373e-02, 0., 0., 0., 0., 0., 0., 0., 0., 0., 0.,
          9.25925970e-02, 0., 0., 0., 0., 0., 0., 0., 0., 0., 0., 0., 0.,
          0., 0., 0., 0., 0., 0., 0., 1.85185187e-02, 0. ]
      - [ 0., 0., 0., 0., 0., 0., 0., 0., 1.52671756e-02, 0.,
          1.52671756e-02, 0., 0., 7.63358781e-03, 0., 0., 0.,
          7.63358781e-03, 0., 0., 0., 0., 0., 0., 0., 1.52671756e-02, 0.,
          0., 0., 0., 0., 7.63358781e-03, 0., 0., 0., 0., 0., 0.,
          1.52671756e-02, 7.63358781e-03, 7.63358781e-03, 0.,
          9.92366448e-02, 0., 0., 0., 1.60305351e-01, 0., 7.63358781e-03,
          7.63358781e-03, 0., 7.63358781e-03, 0., 0., 7.63358781e-03, 0.,
          7.63358781e-03, 0., 2.29007639e-02, 0., 7.63358781e-03, 0., 0.,
          0., 0., 0., 0., 0., 0., 0., 0., 0., 1.52671756e-02, 0., 0., 0.,
          0., 3.81679386e-02, 0., 0., 0., 0., 0., 0., 0., 0.,
          7.63358781e-03, 0., 0., 7.63358781e-03, 0., 0., 0., 0.,
          7.63358781e-03, 0., 0., 0., 0., 7.63358781e-03, 1.52671756e-02,
          0., 0., 0., 1.52671756e-02, 0., 0., 0., 0., 0., 0., 0.,
          7.63358781e-03, 1.52671756e-02, 3.81679386e-02, 0., 0., 0., 0.,
          2.29007639e-02, 1.52671756e-02, 7.63358781e-03, 0., 0., 0., 0.,
          0., 0., 0., 0., 0., 0., 0., 7.63358781e-03, 0., 0.,
          7.63358781e-03, 7.63358781e-03, 0., 0., 0., 0., 7.63358781e-03,
          7.63358781e-03, 0., 1.52671756e-02, 3.05343512e-02, 0., 0., 0.,
          0., 2.29007639e-02, 0., 7.63358781e-03, 0., 1.52671756e-02,
          7.63358781e-03, 0., 0., 7.63358781e-03, 0., 7.63358781e-03, 0.,
          0., 0., 0., 6.10687025e-02, 0., 7.63358781e-03, 0., 0., 0., 0.,
          0., 0., 0., 0., 0., 5.34351133e-02, 3.81679386e-02, 0., 0., 0.,
          7.63358781e-03, 0., 0., 7.63358781e-03, 1.52671756e-02,
          7.63358781e-03, 0., 0., 0., 0., 0., 0., 0., 0., 0., 0., 0. ]
      - [ 0., 2.77777780e-02, 0., 0., 0., 0., 0., 0., 0., 0., 0., 0., 0.,
          0., 1.38888890e-02, 0., 0., 0., 0., 0., 0., 0., 0., 0., 0.,
          1.38888890e-02, 1.38888890e-02, 0., 0., 0., 0., 2.77777780e-02,
          0., 0., 0., 0., 0., 0., 5.55555560e-02, 0., 0., 0.,
          8.33333358e-02, 0., 0., 0., 6.94444478e-02, 0., 1.38888890e-02,
          0., 1.38888890e-02, 0., 0., 0., 0., 0., 0., 0., 0., 0.,
          1.38888890e-02, 1.38888890e-02, 0., 0., 2.77777780e-02, 0., 0.,
          0., 0., 0., 0., 0., 0., 0., 1.38888890e-02, 0., 0.,
          1.38888890e-02, 0., 0., 0., 0., 0., 0., 0., 0., 0., 0., 0., 0.,
          0., 1.38888890e-02, 0., 1.38888890e-02, 5.55555560e-02, 0.,
          1.38888890e-02, 0., 0., 0., 2.77777780e-02, 0., 0., 0., 0., 0.,
          0., 0., 0., 1.38888890e-02, 0., 0., 0., 1.38888890e-02,
          1.38888890e-02, 0., 0., 0., 0., 0., 0., 0., 0., 0., 0., 0., 0.,
          0., 1.38888890e-02, 0., 0., 0., 0., 0., 0., 0., 0., 0.,
          2.77777780e-02, 0., 0., 1.38888890e-02, 0., 0., 0.,
          8.33333358e-02, 2.77777780e-02, 0., 0., 1.38888890e-02, 0., 0.,
          0., 0., 0., 0., 0., 0., 2.77777780e-02, 0., 0., 1.38888890e-02,
          0., 0., 2.77777780e-02, 0., 0., 2.77777780e-02, 0., 0., 0., 0.,
          0., 0., 0., 0., 1.38888890e-02, 2.77777780e-02, 0., 0.,
          2.77777780e-02, 1.38888890e-02, 0., 1.38888890e-02, 0., 0.,
          1.38888890e-02, 0., 0., 1.38888890e-02, 0., 0., 0., 0., 0., 0.,
          0., 0., 0., 1.38888890e-02 ]
      - [ 0., 0., 0., 0., 2.02020202e-02, 0., 1.01010101e-02, 0., 0.,
          1.01010101e-02, 0., 0., 0., 0., 6.06060624e-02, 0., 0., 0., 0.,
          0., 0., 1.01010101e-02, 0., 1.01010101e-02, 0., 1.01010101e-02,
          0., 0., 0., 0., 0., 0., 0., 0., 0., 2.02020202e-02, 0., 0., 0.,
          1.01010101e-02, 0., 0., 4.04040404e-02, 1.01010101e-02, 0., 0.,
          7.07070678e-02, 0., 0., 3.03030312e-02, 0., 1.01010101e-02, 0.,
          1.01010101e-02, 0., 0., 0., 0., 1.01010101e-02, 0., 0., 0., 0.,
          0., 0., 0., 0., 1.01010101e-02, 0., 5.05050495e-02, 0., 0., 0.,
          0., 1.01010101e-02, 2.02020202e-02, 0., 0., 0., 1.01010101e-02,
          0., 0., 0., 0., 0., 0., 2.02020202e-02, 1.01010101e-02,
          1.01010101e-02, 5.05050495e-02, 0., 0., 0., 1.01010101e-02, 0.,
          0., 0., 0., 0., 0., 3.03030312e-02, 0., 0., 0., 0., 0., 0., 0.,
          0., 0., 1.01010101e-02, 0., 5.05050495e-02, 0., 1.01010101e-02,
          0., 0., 0., 0., 3.03030312e-02, 1.01010101e-02, 0., 0., 0., 0.,
          0., 0., 1.01010101e-02, 0., 0., 0., 0., 0., 1.01010101e-02, 0.,
          0., 0., 1.01010101e-02, 0., 0., 0., 0., 2.02020202e-02, 0., 0.,
          0., 0., 0., 0., 0., 0., 6.06060624e-02, 0., 3.03030312e-02, 0.,
          0., 0., 0., 1.01010101e-02, 0., 0., 1.01010101e-02, 0., 0.,
          1.01010101e-02, 0., 1.01010101e-02, 0., 0., 0., 0.,
          1.01010101e-02, 0., 0., 0., 0., 0., 1.01010101e-02,
          8.08080807e-02, 1.01010101e-02, 0., 0., 0., 0., 0., 0., 0.,
          1.01010101e-02, 0., 0., 0., 0., 0., 0., 1.01010101e-02, 0., 0.,
          0., 0., 0. ]
      - [ 0., 0., 0., 0., 0., 0., 0., 6.66666701e-02, 0., 6.66666701e-02,
          1.55555561e-01, 0., 0., 0., 0., 2.22222228e-02, 4.44444455e-02,
          0., 0., 0., 0., 0., 0., 0., 0., 0., 0., 0., 0., 0., 0., 0.,
          2.22222228e-02, 0., 0., 0., 0., 0., 0., 0., 0., 0.,
          4.44444455e-02, 0., 0., 0., 0., 0., 0., 6.66666701e-02, 0.,
          2.22222228e-02, 0., 0., 0., 0., 0., 0., 0., 0., 0.,
          2.22222228e-02, 2.22222228e-02, 0., 0., 0., 0., 0., 0., 0., 0.,
          0., 0., 0., 0., 0., 0., 0., 0., 0., 0., 0., 0., 0., 0.,
          6.66666701e-02, 0., 0., 0., 0., 0., 0., 0., 0., 0., 0., 0.,
          2.22222228e-02, 0., 0., 4.44444455e-02, 0., 0., 0.,
          2.22222228e-02, 0., 4.44444455e-02, 0., 0., 0., 0., 0., 0., 0.,
          0., 0., 0., 0., 0., 2.22222228e-02, 0., 0., 0., 0.,
          4.44444455e-02, 0., 0., 0., 0., 0., 0., 0., 0., 2.22222228e-02,
          0., 0., 0., 0., 6.66666701e-02, 0., 0., 2.22222228e-02, 0., 0.,
          0., 0., 0., 0., 0., 0., 0., 0., 0., 0., 0., 0., 0., 0., 0., 0.,
          0., 2.22222228e-02, 0., 0., 0., 0., 0., 2.22222228e-02, 0., 0.,
          0., 0., 0., 0., 0., 0., 0., 0., 0., 0., 0., 0., 0.,
          2.22222228e-02, 0., 0., 0., 0., 0., 0., 0., 0., 0., 0., 0., 0.,
          0., 0., 0., 0. ]
      - [ 5.18134702e-03, 5.18134702e-03, 0., 1.03626940e-02,
          1.03626940e-02, 0., 5.18134702e-03, 5.18134702e-03, 0.,
          1.55440411e-02, 4.14507762e-02, 0., 0., 1.03626940e-02, 0.,
          5.18134702e-03, 0., 5.18134702e-03, 0., 0., 0., 3.10880821e-02,
          0., 0., 5.18134702e-03, 5.18134702e-03, 1.03626940e-02, 0.,
          5.18134702e-03, 1.03626940e-02, 0., 0., 5.18134702e-03, 0., 0.,
          0., 0., 0., 1.03626940e-02, 0., 0., 5.18134702e-03,
          1.55440411e-02, 5.18134702e-03, 0., 0., 2.07253881e-02,
          5.18134702e-03, 0., 3.10880821e-02, 5.18134702e-03, 0., 0.,
          5.18134702e-03, 1.03626940e-02, 0., 0., 2.07253881e-02, 0., 0.,
          0., 5.18134702e-03, 5.18134702e-03, 0., 0., 5.18134702e-03,
          1.03626940e-02, 0., 0., 0., 0., 0., 3.62694301e-02,
          5.18134702e-03, 0., 0., 0., 1.55440411e-02, 0., 0., 0., 0.,
          1.55440411e-02, 2.07253881e-02, 0., 1.55440411e-02, 0., 0., 0.,
          2.07253881e-02, 0., 0., 0., 2.07253881e-02, 1.03626940e-02, 0.,
          0., 5.18134702e-03, 0., 0., 1.03626940e-02, 1.03626940e-02, 0.,
          0., 1.03626940e-02, 0., 0., 0., 5.18134702e-03, 0.,
          5.18134702e-03, 5.18134702e-03, 5.18134702e-03, 2.07253881e-02,
          1.55440411e-02, 5.18134702e-03, 5.18134702e-03, 1.03626940e-02,
          0., 4.14507762e-02, 5.18134702e-03, 0., 0., 0., 0., 0.,
          5.18134702e-03, 0., 0., 0., 5.18134702e-03, 0., 0.,
          5.18134702e-03, 5.18134702e-03, 0., 0., 0., 1.55440411e-02, 0.,
          0., 1.55440411e-02, 0., 0., 0., 0., 0., 0., 5.18134702e-03, 0.,
          0., 0., 1.03626940e-02, 0., 5.18134702e-03, 0., 0.,
          5.18134702e-03, 0., 2.07253881e-02, 0., 0., 0., 1.55440411e-02,
          3.10880821e-02, 5.18134702e-03, 2.59067342e-02, 2.07253881e-02,
          0., 0., 0., 3.10880821e-02, 1.03626940e-02, 5.18134702e-03, 0.,
          0., 5.18134702e-03, 5.18134702e-03, 1.03626940e-02,
          5.18134702e-03, 0., 0., 0., 0., 0., 0., 0., 5.18134702e-03, 0.,
          5.18134702e-03, 5.18134702e-03, 0., 0., 5.18134702e-03,
          2.59067342e-02, 0., 5.18134702e-03, 0., 5.18134702e-03, 0. ]
      - [ 0., 0., 0., 0., 0., 7.14285718e-03, 1.42857144e-02, 0., 0.,
          2.14285720e-02, 2.85714287e-02, 0., 7.14285718e-03, 0., 0.,
          7.14285718e-03, 0., 0., 0., 0., 0., 0., 0., 0., 7.14285718e-03,
          0., 0., 1.42857144e-02, 0., 2.14285720e-02, 0., 2.14285720e-02,
          0., 0., 1.42857144e-02, 7.14285718e-03, 0., 1.42857144e-02, 0.,
          0., 0., 7.14285718e-03, 1.42857144e-02, 0., 2.14285720e-02, 0.,
          1.42857144e-02, 2.14285720e-02, 7.14285718e-03, 7.14285718e-03,
          7.14285718e-03, 0., 0., 0., 7.14285718e-03, 0., 0., 0., 0., 0.,
          7.14285718e-03, 0., 0., 0., 0., 0., 7.14285718e-03, 0., 0., 0.,
          0., 7.14285718e-03, 2.14285720e-02, 2.85714287e-02,
          7.14285718e-03, 0., 7.14285718e-03, 7.14285718e-03,
          1.42857144e-02, 0., 7.14285718e-03, 0., 0., 0., 0.,
          7.14285718e-03, 0., 7.14285718e-03, 7.14285718e-03,
          2.14285720e-02, 0., 0., 2.14285720e-02, 2.14285720e-02,
          7.14285718e-03, 1.42857144e-02, 0., 0., 0., 7.14285718e-03,
          7.14285718e-03, 0., 0., 7.14285718e-03, 1.42857144e-02, 0., 0.,
          0., 0., 7.14285718e-03, 2.85714287e-02, 7.14285718e-03, 0.,
          2.85714287e-02, 2.14285720e-02, 0., 0., 0., 0., 7.14285718e-03,
          1.42857144e-02, 0., 0., 0., 7.14285718e-03, 0., 0., 0., 0.,
          1.42857144e-02, 0., 7.14285718e-03, 0., 0., 0., 0., 0.,
          1.42857144e-02, 7.14285718e-03, 2.85714287e-02, 0., 0., 0.,
          7.14285718e-03, 7.14285718e-03, 0., 7.14285718e-03, 0., 0.,
          1.42857144e-02, 1.42857144e-02, 7.14285718e-03, 0., 0., 0., 0.,
          2.14285720e-02, 0., 0., 7.14285718e-03, 0., 7.14285718e-03, 0.,
          1.42857144e-02, 7.14285718e-03, 7.14285718e-03, 0.,
          1.42857144e-02, 0., 0., 1.42857144e-02, 0., 0., 7.14285718e-03,
          0., 2.85714287e-02, 0., 0., 0., 0., 0., 7.14285718e-03, 0., 0.,
          0., 7.14285718e-03, 0., 0., 0., 0., 0., 7.14285718e-03, 0., 0.,
          7.14285718e-03, 0., 0., 7.14285718e-03, 2.85714287e-02,
          7.14285718e-03 ]
      - [ 0., 0., 0., 0., 0., 0., 0., 0., 1.06382975e-02, 0.,
          9.57446769e-02, 0., 0., 1.06382975e-02, 0., 1.06382975e-02, 0.,
          0., 0., 0., 0., 1.06382975e-02, 0., 0., 0., 0., 2.12765951e-02,
          0., 0., 0., 0., 0., 2.12765951e-02, 1.06382975e-02, 0., 0., 0.,
          0., 0., 0., 0., 0., 8.51063803e-02, 0., 0., 0., 1.06382973e-01,
          0., 0., 3.19148935e-02, 1.06382975e-02, 0., 0., 0., 0., 0.,
          1.06382975e-02, 0., 1.06382975e-02, 0., 0., 0., 0., 0.,
          3.19148935e-02, 0., 0., 0., 0., 4.25531901e-02, 0., 0.,
          1.06382975e-02, 1.06382975e-02, 0., 0., 0., 0., 0., 0., 0., 0.,
          0., 0., 0., 2.12765951e-02, 0., 0., 0., 1.06382975e-02, 0., 0.,
          1.06382975e-02, 3.19148935e-02, 0., 0., 0., 0., 0., 0., 0., 0.,
          1.06382975e-02, 0., 0., 1.06382975e-02, 0., 0., 0., 0., 0., 0.,
          1.06382975e-02, 2.12765951e-02, 1.06382975e-02, 0., 0., 0., 0.,
          0., 1.06382975e-02, 0., 0., 0., 0., 0., 0., 0., 0., 0., 0., 0.,
          1.06382975e-02, 0., 0., 0., 1.06382975e-02, 0., 0., 0., 0., 0.,
          0., 0., 0., 4.25531901e-02, 1.27659574e-01, 0., 0.,
          1.06382975e-02, 0., 1.06382975e-02, 0., 0., 0., 0., 0., 0., 0.,
          0., 0., 0., 1.06382975e-02, 0., 1.06382975e-02, 0., 0., 0., 0.,
          0., 0., 0., 0., 0., 0., 0., 0., 1.06382975e-02, 3.19148935e-02,
          0., 0., 0., 0., 1.06382975e-02, 0., 0., 1.06382975e-02, 0., 0.,
          0., 0., 0., 0., 0., 0., 1.06382975e-02, 0., 0., 0., 0. ]
      - [ 0., 0., 0., 1.33333337e-02, 0., 6.66666683e-03, 0.,
          6.66666683e-03, 0., 6.66666683e-03, 3.99999991e-02, 0., 0., 0.,
          1.33333337e-02, 1.33333337e-02, 0., 0., 0., 0., 0., 0.,
          6.66666683e-03, 0., 0., 6.66666683e-03, 6.66666683e-03, 0., 0.,
          6.66666683e-03, 6.66666683e-03, 0., 6.66666683e-03, 0., 0., 0.,
          0., 0., 6.66666683e-03, 0., 0., 0., 2.66666673e-02, 0., 0., 0.,
          3.33333351e-02, 0., 3.33333351e-02, 2.66666673e-02, 0.,
          1.33333337e-02, 0., 0., 0., 0., 0., 0., 0., 0., 6.66666683e-03,
          0., 0., 0., 0., 0., 0., 0., 0., 0., 6.66666683e-03, 0.,
          3.33333351e-02, 0., 0., 0., 0., 0., 0., 0., 0., 0.,
          1.99999996e-02, 0., 0., 1.99999996e-02, 6.66666683e-03,
          6.66666683e-03, 6.66666683e-03, 1.99999996e-02, 0., 0., 0.,
          6.66666683e-03, 0., 0., 0., 0., 0., 6.66666683e-03,
          6.66666683e-03, 0., 0., 6.66666683e-03, 6.66666683e-03, 0., 0.,
          0., 0., 0., 6.66666683e-03, 0., 1.33333337e-02, 2.66666673e-02,
          6.66666683e-03, 0., 0., 0., 0., 6.66666683e-03, 6.66666701e-02,
          0., 0., 0., 1.33333337e-02, 0., 0., 0., 0., 6.66666683e-03, 0.,
          0., 1.33333337e-02, 6.66666683e-03, 6.66666683e-03, 0.,
          6.66666683e-03, 0., 0., 6.66666683e-03, 0., 0., 0.,
          6.66666683e-03, 0., 6.66666683e-03, 6.00000024e-02, 0., 0.,
          6.66666683e-03, 0., 2.66666673e-02, 0., 6.66666683e-03, 0., 0.,
          6.66666683e-03, 0., 1.99999996e-02, 0., 6.66666683e-03,
          6.66666683e-03, 0., 0., 3.99999991e-02, 0., 1.33333337e-02,
          1.33333337e-02, 0., 0., 0., 1.33333337e-02, 0., 0., 0.,
          6.66666683e-03, 0., 0., 1.99999996e-02, 2.66666673e-02, 0., 0.,
          0., 6.66666683e-03, 0., 0., 0., 6.66666683e-03, 0., 0., 0., 0.,
          0., 0., 0., 0., 1.33333337e-02, 6.66666683e-03, 5.33333346e-02,
          0. ]
      - [ 1.47058824e-02, 0., 0., 0., 0., 0., 0., 0., 0., 1.47058824e-02,
          5.88235296e-02, 0., 0., 0., 0., 1.47058824e-02, 0., 0., 0., 0.,
          0., 0., 1.47058824e-02, 0., 0., 1.47058824e-02, 0., 0., 0., 0.,
          1.47058824e-02, 0., 0., 1.47058824e-02, 0., 0., 0., 0., 0., 0.,
          0., 0., 0., 1.47058824e-02, 0., 0., 0., 0., 0., 5.88235296e-02,
          0., 1.47058824e-02, 0., 0., 0., 0., 0., 0., 0., 0., 0.,
          4.41176482e-02, 0., 0., 0., 0., 1.47058824e-02, 0.,
          8.82352963e-02, 1.47058824e-02, 0., 0., 0., 0., 0.,
          1.47058824e-02, 0., 0., 0., 1.47058824e-02, 0., 0.,
          1.47058824e-02, 0., 0., 0., 0., 0., 0., 8.82352963e-02, 0., 0.,
          0., 0., 1.47058824e-02, 0., 1.47058824e-02, 0., 1.47058824e-02,
          0., 2.94117648e-02, 0., 0., 0., 1.47058824e-02, 0.,
          2.94117648e-02, 0., 0., 0., 1.47058824e-02, 0., 1.47058824e-02,
          0., 0., 0., 0., 0., 0., 0., 0., 0., 0., 0., 0., 0., 0., 0., 0.,
          0., 0., 0., 0., 1.47058824e-02, 2.94117648e-02, 0., 0., 0.,
          5.88235296e-02, 0., 0., 0., 0., 2.94117648e-02, 0., 0.,
          7.35294148e-02, 0., 0., 0., 0., 0., 0., 0., 0., 0., 0., 0., 0.,
          0., 0., 0., 0., 0., 1.47058824e-02, 0., 0., 0., 1.47058824e-02,
          0., 0., 0., 0., 0., 0., 0., 0., 1.47058824e-02, 1.47058824e-02,
          0., 0., 0., 0., 0., 0., 0., 0., 0., 0., 0., 0., 0., 0., 0., 0.,
          0., 2.94117648e-02, 0., 1.47058824e-02, 0. ]
      - [ 0., 0., 0., 0., 0., 1.49253728e-02, 0., 0., 0., 4.47761193e-02,
          0., 0., 0., 0., 1.49253728e-02, 2.98507456e-02, 0., 0., 0., 0.,
          0., 0., 0., 0., 0., 1.49253728e-02, 0., 0., 0., 0., 0., 0., 0.,
          0., 0., 0., 0., 0., 2.98507456e-02, 1.49253728e-02, 0., 0.,
          2.98507456e-02, 0., 0., 0., 2.98507456e-02, 0., 0.,
          1.49253728e-02, 1.49253728e-02, 0., 0., 0., 0., 0.,
          5.97014911e-02, 0., 0., 0., 0., 0., 0., 0., 2.98507456e-02, 0.,
          0., 0., 0., 5.97014911e-02, 0., 0., 0., 0., 0., 0., 0., 0., 0.,
          0., 0., 0., 0., 0., 0., 0., 0., 0., 0., 0., 0., 1.49253728e-02,
          0., 4.47761193e-02, 1.49253728e-02, 0., 0., 0., 0., 0., 0., 0.,
          0., 0., 1.49253728e-02, 0., 0., 0., 0., 0., 0., 0.,
          2.98507456e-02, 1.49253728e-02, 1.49253728e-02, 0., 0., 0., 0.,
          0., 0., 0., 0., 0., 0., 0., 0., 0., 0., 0., 0., 0., 0., 0., 0.,
          0., 0., 0., 0., 0., 0., 0., 0., 1.49253728e-02, 0.,
          1.34328350e-01, 1.49253728e-02, 0., 0., 0., 0., 2.98507456e-02,
          0., 0., 0., 2.98507456e-02, 0., 0., 1.49253728e-02, 0.,
          2.98507456e-02, 1.49253728e-02, 0., 1.49253728e-02, 0., 0., 0.,
          0., 0., 0., 0., 1.49253728e-02, 0., 0., 1.49253728e-02, 0., 0.,
          0., 2.98507456e-02, 1.49253728e-02, 0., 1.49253728e-02, 0., 0.,
          0., 0., 0., 0., 0., 0., 0., 1.49253728e-02, 0., 0., 0., 0., 0.,
          0., 2.98507456e-02, 1.49253728e-02 ]
      - [ 0., 0., 0., 0., 0., 0., 1.38888890e-02, 4.16666679e-02, 0., 0.,
          1.11111112e-01, 0., 1.38888890e-02, 0., 0., 0., 0., 0., 0., 0.,
          0., 0., 0., 0., 0., 0., 0., 0., 0., 0., 0., 0., 0., 0., 0.,
          5.55555560e-02, 1.38888890e-02, 1.38888890e-02, 0., 0., 0., 0.,
          6.94444478e-02, 0., 0., 0., 0., 0., 0., 2.77777780e-02,
          2.77777780e-02, 0., 1.38888890e-02, 0., 0., 0., 0., 0., 0., 0.,
          0., 2.77777780e-02, 2.77777780e-02, 0., 0., 0., 0., 0., 0., 0.,
          0., 0., 0., 0., 2.77777780e-02, 0., 0., 0., 0., 0., 0., 0., 0.,
          2.77777780e-02, 0., 0., 0., 0., 0., 0., 0., 0., 0., 0., 0.,
          1.38888890e-02, 0., 1.38888890e-02, 0., 0., 0., 0., 0.,
          1.38888890e-02, 1.38888890e-02, 0., 0., 0., 0., 0., 0., 0., 0.,
          0., 0., 1.38888890e-02, 0., 0., 0., 9.72222239e-02, 0., 0., 0.,
          0., 0., 0., 0., 0., 0., 0., 0., 0., 0., 0., 6.94444478e-02, 0.,
          5.55555560e-02, 0., 1.38888890e-02, 0., 0., 0., 0., 0., 0., 0.,
          4.16666679e-02, 0., 0., 0., 0., 0., 0., 0., 1.38888890e-02, 0.,
          0., 0., 0., 0., 0., 1.38888890e-02, 0., 0., 0., 1.38888890e-02,
          2.77777780e-02, 0., 0., 0., 0., 2.77777780e-02, 0., 0., 0., 0.,
          0., 1.38888890e-02, 0., 0., 0., 0., 0., 1.38888890e-02, 0., 0.,
          0., 0., 0., 0., 0., 0., 0., 0., 1.38888890e-02, 0., 0., 0., 0.,
          0. ]
      - [ 0., 0., 0., 0., 0., 0., 0., 0., 0., 0., 0., 0., 0.,
          2.94117648e-02, 0., 2.94117648e-02, 0., 0., 0., 0., 0., 0., 0.,
          0., 0., 0., 0., 0., 0., 0., 0., 0., 0., 0., 0., 0., 0., 0.,
          2.94117648e-02, 0., 0., 0., 2.94117648e-02, 0., 0., 0.,
          5.88235296e-02, 0., 0., 0., 0., 0., 0., 0., 0., 0.,
          8.82352963e-02, 0., 0., 0., 0., 0., 0., 0., 0., 0., 0., 0., 0.,
          0., 0., 0., 0., 0., 0., 0., 0., 0., 0., 0., 0., 0., 0., 0., 0.,
          0., 0., 0., 0., 0., 0., 0., 0., 0., 2.94117648e-02, 0., 0., 0.,
          0., 0., 0., 0., 0., 0., 0., 2.94117648e-02, 0., 0., 0., 0.,
          2.94117648e-02, 2.94117648e-02, 0., 5.88235296e-02, 0., 0., 0.,
          0., 0., 0., 2.94117648e-02, 0., 0., 0., 0., 0., 0., 0., 0., 0.,
          0., 0., 0., 0., 0., 0., 0., 0., 0., 0., 0., 0., 0., 0., 0.,
          1.76470593e-01, 0., 0., 2.94117648e-02, 0., 0., 5.88235296e-02,
          0., 2.94117648e-02, 0., 0., 0., 0., 0., 0., 0., 0., 0., 0.,
          2.94117648e-02, 0., 0., 0., 0., 0., 0., 0., 0., 0., 0., 0., 0.,
          0., 2.94117648e-02, 2.94117648e-02, 0., 0., 0., 0., 0., 0., 0.,
          0., 2.94117648e-02, 0., 0., 0., 0., 0., 0., 0., 0., 0.,
          1.17647059e-01, 0. ]
      - [ 2.98507456e-02, 0., 0., 0., 0., 0., 0., 1.49253728e-02, 0., 0.,
          4.47761193e-02, 0., 0., 0., 0., 0., 0., 1.49253728e-02, 0., 0.,
          0., 2.98507456e-02, 1.49253728e-02, 0., 0., 0., 2.98507456e-02,
          4.47761193e-02, 0., 0., 4.47761193e-02, 0., 0., 0., 0.,
          2.98507456e-02, 0., 0., 1.49253728e-02, 0., 0., 0.,
          4.47761193e-02, 0., 2.98507456e-02, 0., 0., 0., 0.,
          1.19402982e-01, 0., 0., 0., 0., 1.49253728e-02, 0., 0., 0., 0.,
          0., 0., 1.49253728e-02, 0., 0., 0., 0., 0., 0., 0., 0., 0., 0.,
          0., 0., 2.98507456e-02, 0., 0., 0., 0., 0., 0., 0., 0.,
          1.49253728e-02, 0., 0., 0., 0., 0., 0., 0., 0., 0., 0., 0., 0.,
          0., 0., 0., 0., 0., 0., 0., 1.49253728e-02, 0., 0.,
          1.49253728e-02, 0., 0., 0., 0., 0., 0., 0., 0., 0., 0., 0., 0.,
          1.49253728e-02, 0., 0., 0., 0., 0., 0., 2.98507456e-02, 0., 0.,
          0., 0., 0., 0., 0., 4.47761193e-02, 0., 0., 1.49253728e-02,
          2.98507456e-02, 0., 0., 1.49253728e-02, 0., 0., 0., 0., 0., 0.,
          0., 0., 0., 0., 0., 0., 0., 0., 1.49253728e-02, 0., 0.,
          5.97014911e-02, 0., 0., 2.98507456e-02, 0., 0., 0., 0., 0., 0.,
          0., 0., 1.49253728e-02, 0., 0., 0., 0., 0., 2.98507456e-02, 0.,
          0., 0., 0., 0., 0., 0., 0., 0., 1.49253728e-02, 0.,
          2.98507456e-02, 0., 0., 0., 0., 4.47761193e-02, 0., 0., 0., 0.,
          0. ]
      - [ 0., 0., 0., 0., 0., 0., 0., 2.38095243e-02, 0., 4.76190485e-02,
          4.76190485e-02, 0., 0., 0., 0., 0., 2.38095243e-02, 0., 0., 0.,
          0., 4.76190485e-02, 0., 0., 0., 0., 0., 0., 0., 0., 0., 0., 0.,
          0., 0., 0., 0., 0., 0., 0., 0., 0., 0., 0., 0., 0., 0.,
          2.38095243e-02, 2.38095243e-02, 2.38095243e-02, 0., 0., 0., 0.,
          0., 0., 0., 0., 0., 0., 0., 0., 2.38095243e-02, 0., 0., 0.,
          4.76190485e-02, 0., 2.38095243e-02, 0., 0., 0., 2.38095243e-02,
          0., 2.38095243e-02, 0., 0., 0., 0., 0., 0., 0., 2.38095243e-02,
          0., 0., 0., 0., 0., 0., 4.76190485e-02, 0., 0., 0., 0., 0., 0.,
          0., 0., 0., 0., 7.14285746e-02, 4.76190485e-02, 0., 0., 0., 0.,
          7.14285746e-02, 0., 0., 0., 0., 0., 0., 0., 0., 0., 0., 0., 0.,
          0., 0., 0., 0., 0., 2.38095243e-02, 0., 0., 0., 0., 0., 0., 0.,
          2.38095243e-02, 0., 2.38095243e-02, 0., 0., 0., 2.38095243e-02,
          0., 0., 2.38095243e-02, 0., 0., 0., 0., 0., 0., 0., 0., 0., 0.,
          0., 0., 0., 0., 0., 0., 0., 0., 0., 0., 0., 0., 0., 0.,
          2.38095243e-02, 0., 0., 0., 0., 7.14285746e-02, 0., 0., 0., 0.,
          0., 0., 0., 0., 2.38095243e-02, 0., 0., 0., 0., 0., 0., 0., 0.,
          2.38095243e-02, 0., 0., 0., 0., 2.38095243e-02, 0.,
          2.38095243e-02, 0., 2.38095243e-02, 0. ]
      - [ 0., 0., 0., 0., 1.68067235e-02, 0., 0., 0., 0., 8.40336177e-03,
          1.68067235e-02, 0., 0., 0., 4.20168079e-02, 0., 0., 0., 0., 0.,
          8.40336177e-03, 0., 0., 0., 8.40336177e-03, 0., 0., 0., 0.,
          8.40336177e-03, 0., 0., 0., 0., 0., 0., 0., 0., 0., 0., 0., 0.,
          1.68067235e-02, 2.52100863e-02, 0., 0., 8.40336177e-03, 0.,
          4.20168079e-02, 1.68067235e-02, 0., 0., 8.40336177e-03,
          8.40336177e-03, 0., 0., 0., 0., 0., 2.52100863e-02, 0., 0., 0.,
          0., 0., 0., 0., 0., 0., 4.20168079e-02, 8.40336177e-03,
          8.40336177e-03, 1.68067235e-02, 0., 0., 0., 0., 0., 0., 0., 0.,
          1.68067235e-02, 0., 0., 0., 0., 0., 2.52100863e-02, 0.,
          5.04201725e-02, 0., 0., 8.40336177e-03, 8.40336177e-03, 0., 0.,
          0., 0., 0., 0., 8.40336177e-03, 8.40336177e-03, 0., 0., 0., 0.,
          0., 0., 8.40336177e-03, 0., 2.52100863e-02, 0., 0.,
          1.68067235e-02, 8.40336177e-03, 0., 0., 0., 0., 8.40336177e-03,
          1.68067235e-02, 8.40336177e-03, 0., 0., 0., 0., 0., 0., 0.,
          1.68067235e-02, 0., 0., 0., 0., 0., 0., 0., 0., 0., 0., 0., 0.,
          2.52100863e-02, 8.40336177e-03, 0., 3.36134471e-02,
          8.40336177e-03, 0., 8.40336177e-03, 1.68067235e-02, 0.,
          3.36134471e-02, 8.40336177e-03, 1.68067235e-02, 0., 0., 0.,
          8.40336177e-03, 0., 1.68067235e-02, 0., 0., 0., 0., 0., 0., 0.,
          0., 0., 0., 0., 8.40336177e-03, 8.40336177e-03, 0., 0., 0.,
          8.40336177e-03, 0., 1.68067235e-02, 1.17647067e-01, 0., 0., 0.,
          0., 0., 0., 0., 0., 8.40336177e-03, 0., 0., 0., 0.,
          8.40336177e-03, 0., 0., 1.68067235e-02, 1.68067235e-02,
          3.36134471e-02, 0. ]
      - [ 0., 0., 0., 0., 0., 0., 0., 0., 0., 0., 2.66666673e-02, 0., 0.,
          0., 1.33333337e-02, 0., 0., 1.33333337e-02, 0., 1.33333337e-02,
          0., 0., 0., 0., 0., 0., 0., 0., 0., 1.33333337e-02, 0., 0., 0.,
          1.33333337e-02, 0., 0., 0., 0., 2.66666673e-02, 0., 0., 0., 0.,
          0., 0., 0., 1.73333332e-01, 0., 1.33333337e-02, 0., 0., 0.,
          1.33333337e-02, 0., 0., 0., 2.66666673e-02, 0., 0., 0., 0., 0.,
          0., 0., 1.33333337e-02, 0., 0., 0., 0., 1.33333337e-02, 0., 0.,
          0., 0., 0., 2.66666673e-02, 0., 2.66666673e-02, 0., 0., 0., 0.,
          0., 0., 0., 0., 1.33333337e-02, 0., 2.66666673e-02,
          1.33333337e-02, 0., 0., 0., 2.66666673e-02, 0., 0., 0., 0., 0.,
          0., 0., 0., 0., 0., 1.33333337e-02, 0., 0., 0., 0., 0., 0., 0.,
          0., 5.33333346e-02, 1.33333337e-02, 0., 1.33333337e-02, 0., 0.,
          6.66666701e-02, 0., 1.33333337e-02, 0., 0., 0., 0., 0., 0., 0.,
          0., 0., 1.33333337e-02, 0., 0., 0., 1.33333337e-02,
          3.99999991e-02, 1.33333337e-02, 0., 0., 0., 0., 0., 0., 0.,
          5.33333346e-02, 3.99999991e-02, 0., 0., 0., 0., 1.33333337e-02,
          0., 0., 0., 0., 0., 1.33333337e-02, 0., 0., 0., 2.66666673e-02,
          1.33333337e-02, 0., 0., 0., 0., 0., 0., 0., 0., 0., 0., 0., 0.,
          1.33333337e-02, 0., 0., 2.66666673e-02, 1.33333337e-02, 0., 0.,
          0., 0., 0., 0., 1.33333337e-02, 0., 0., 0., 0., 1.33333337e-02,
          0., 0., 0., 0., 0., 0., 0., 0. ]
      - [ 0., 0., 0., 0., 5.05050505e-03, 5.05050505e-03, 0., 0.,
          5.05050505e-03, 0., 0., 1.01010101e-02, 0., 1.01010101e-02,
          5.05050505e-03, 0., 0., 0., 1.51515156e-02, 1.01010101e-02, 0.,
          0., 1.01010101e-02, 5.05050505e-03, 5.05050505e-03,
          5.05050495e-02, 1.01010101e-02, 0., 0., 1.01010101e-02, 0., 0.,
          0., 0., 0., 0., 0., 1.01010101e-02, 5.05050505e-03,
          5.05050505e-03, 1.51515156e-02, 0., 0., 5.05050505e-03, 0.,
          5.05050505e-03, 0., 0., 0., 0., 0., 5.05050505e-03, 0.,
          1.01010101e-02, 0., 0., 0., 1.01010101e-02, 3.03030312e-02, 0.,
          5.05050505e-03, 0., 0., 0., 5.05050505e-03, 5.05050505e-03,
          5.05050505e-03, 5.05050505e-03, 0., 0., 0., 0., 5.05050505e-03,
          5.05050505e-03, 5.05050505e-03, 1.01010101e-02, 5.05050505e-03,
          0., 0., 0., 0., 2.52525248e-02, 0., 0., 0., 0., 5.05050505e-03,
          0., 5.05050505e-03, 0., 1.01010101e-02, 0., 0., 1.01010101e-02,
          5.05050505e-03, 5.05050505e-03, 0., 0., 0., 1.01010101e-02,
          1.01010101e-02, 1.01010101e-02, 2.52525248e-02, 0., 0.,
          5.05050505e-03, 1.01010101e-02, 1.01010101e-02, 5.05050505e-03,
          5.05050505e-03, 1.51515156e-02, 1.01010101e-02, 1.01010101e-02,
          1.51515156e-02, 0., 1.01010101e-02, 5.05050505e-03,
          5.05050505e-03, 0., 0., 1.51515156e-02, 5.05050505e-03,
          5.05050505e-03, 0., 0., 0., 0., 5.05050505e-03, 0., 0.,
          5.05050505e-03, 5.05050505e-03, 5.05050505e-03, 0.,
          5.05050505e-03, 5.05050505e-03, 0., 0., 0., 0., 0., 0., 0.,
          5.05050505e-03, 5.05050505e-03, 5.05050505e-03, 5.05050505e-03,
          2.02020202e-02, 5.05050505e-03, 1.51515156e-02, 5.05050505e-03,
          0., 0., 2.52525248e-02, 0., 5.05050505e-03, 0., 5.05050505e-03,
          0., 0., 5.05050505e-03, 0., 1.51515156e-02, 1.01010101e-02,
          1.01010101e-02, 5.05050505e-03, 0., 4.04040404e-02, 0.,
          2.02020202e-02, 1.51515156e-02, 0., 1.51515156e-02, 0.,
          5.05050505e-03, 0., 1.51515156e-02, 1.51515156e-02,
          2.52525248e-02, 0., 1.51515156e-02, 0., 2.02020202e-02, 0., 0.,
          1.01010101e-02, 5.05050505e-03, 0., 0., 2.02020202e-02,
          5.05050505e-03, 5.05050505e-03, 1.51515156e-02, 0., 0., 0.,
          5.05050505e-03, 5.05050505e-03, 0., 0. ]
      - [ 1.27877239e-02, 0., 5.11508947e-03, 5.11508947e-03,
          2.55754474e-03, 0., 0., 1.02301789e-02, 2.55754474e-03,
          1.02301789e-02, 1.53452680e-02, 5.11508947e-03, 5.11508947e-03,
          0., 0., 2.55754474e-03, 0., 2.55754474e-03, 0., 0.,
          2.55754474e-03, 1.02301789e-02, 1.02301789e-02, 0., 0.,
          7.67263398e-03, 2.55754474e-03, 1.02301789e-02, 5.11508947e-03,
          2.55754474e-03, 1.02301789e-02, 2.55754474e-03, 0.,
          5.11508947e-03, 0., 1.02301789e-02, 1.02301789e-02, 0.,
          2.55754474e-03, 1.27877239e-02, 1.27877239e-02, 0.,
          5.11508947e-03, 5.11508947e-03, 2.04603579e-02, 5.11508947e-03,
          0., 2.55754474e-03, 5.11508947e-03, 5.11508947e-03,
          1.02301789e-02, 2.55754474e-03, 2.55754474e-03, 2.55754474e-03,
          5.11508947e-03, 0., 1.27877239e-02, 7.67263398e-03,
          2.55754474e-03, 7.67263398e-03, 2.55754474e-03, 0.,
          2.04603579e-02, 0., 2.55754474e-03, 1.53452680e-02,
          2.55754474e-03, 7.67263398e-03, 5.11508947e-03, 0.,
          7.67263398e-03, 2.55754474e-03, 1.27877239e-02, 7.67263398e-03,
          0., 2.55754474e-03, 0., 0., 2.30179019e-02, 2.55754474e-03, 0.,
          0., 5.11508947e-03, 1.79028139e-02, 5.11508947e-03,
          2.55754474e-03, 0., 0., 1.27877239e-02, 2.55754474e-03, 0., 0.,
          5.11508947e-03, 2.55754474e-03, 0., 0., 1.27877239e-02,
          7.67263398e-03, 5.11508947e-03, 1.53452680e-02, 2.55754474e-03,
          2.55754474e-03, 2.55754474e-03, 1.02301789e-02, 1.02301789e-02,
          2.55754474e-03, 1.27877239e-02, 7.67263398e-03, 2.55754474e-03,
          2.55754474e-03, 2.55754474e-03, 7.67263398e-03, 2.55754474e-03,
          0., 0., 2.55754474e-03, 0., 2.04603579e-02, 1.27877239e-02,
          2.55754478e-02, 2.55754474e-03, 0., 2.55754474e-03, 0.,
          7.67263398e-03, 5.11508947e-03, 1.27877239e-02, 1.02301789e-02,
          0., 5.11508947e-03, 2.55754474e-03, 5.11508947e-03, 0., 0.,
          1.27877239e-02, 0., 5.11508947e-03, 1.53452680e-02,
          2.55754474e-03, 2.55754474e-03, 2.55754474e-03, 1.79028139e-02,
          1.02301789e-02, 2.55754474e-03, 0., 0., 2.55754474e-03,
          5.11508947e-03, 7.67263398e-03, 0., 0., 7.67263398e-03,
          1.27877239e-02, 0., 2.55754474e-03, 5.11508947e-03,
          5.11508947e-03, 0., 2.55754474e-03, 2.55754474e-03,
          5.11508947e-03, 7.67263398e-03, 1.02301789e-02, 5.11508947e-03,
          0., 2.55754474e-03, 2.55754474e-03, 5.11508947e-03,
          2.55754474e-03, 5.11508947e-03, 5.11508947e-03, 1.27877239e-02,
          1.27877239e-02, 2.55754474e-03, 2.55754474e-03, 5.11508947e-03,
          2.55754474e-03, 2.55754474e-03, 0., 7.67263398e-03,
          5.11508947e-03, 5.11508947e-03, 7.67263398e-03, 5.11508947e-03,
          2.55754474e-03, 0., 1.02301789e-02, 0., 1.02301789e-02,
          7.67263398e-03, 2.55754474e-03, 5.11508947e-03, 2.55754474e-03,
          0., 2.55754474e-03, 5.11508947e-03, 0., 0., 5.11508947e-03,
          5.11508947e-03 ]
      - [ 0., 0., 3.21543403e-03, 9.64630209e-03, 3.21543403e-03,
          3.21543403e-03, 0., 3.21543403e-03, 0., 9.64630209e-03,
          2.57234722e-02, 0., 3.21543403e-03, 6.43086806e-03, 0., 0., 0.,
          0., 0., 0., 6.43086806e-03, 0., 1.28617361e-02, 9.64630209e-03,
          6.43086806e-03, 9.64630209e-03, 6.43086806e-03, 3.21543403e-03,
          6.43086806e-03, 3.21543403e-03, 0., 0., 1.28617361e-02,
          1.92926042e-02, 3.21543403e-03, 9.64630209e-03, 0.,
          6.43086806e-03, 0., 1.60771701e-02, 1.28617361e-02,
          3.21543403e-03, 2.25080382e-02, 6.43086806e-03, 1.92926042e-02,
          1.28617361e-02, 9.64630209e-03, 3.21543403e-03, 6.43086806e-03,
          6.43086806e-03, 0., 9.64630209e-03, 0., 0., 3.21543403e-03, 0.,
          3.21543403e-03, 6.43086806e-03, 0., 3.21543403e-03, 0., 0., 0.,
          9.64630209e-03, 0., 1.28617361e-02, 1.60771701e-02,
          1.28617361e-02, 3.21543403e-03, 0., 0., 0., 9.64630209e-03,
          1.28617361e-02, 3.21543403e-03, 0., 0., 0., 3.21543403e-03, 0.,
          1.92926042e-02, 6.43086806e-03, 2.57234722e-02, 6.43086806e-03,
          6.43086806e-03, 3.21543403e-03, 0., 9.64630209e-03, 0.,
          6.43086806e-03, 1.28617361e-02, 9.64630209e-03, 3.21543403e-03,
          9.64630209e-03, 0., 0., 6.43086806e-03, 3.21543403e-03, 0., 0.,
          0., 3.21543403e-03, 3.21543403e-03, 6.43086806e-03,
          3.21543403e-03, 6.43086806e-03, 1.28617361e-02, 6.43086806e-03,
          3.21543403e-03, 0., 0., 3.21543403e-03, 6.43086806e-03,
          6.43086806e-03, 0., 0., 0., 0., 3.21543403e-03, 1.92926042e-02,
          3.21543403e-03, 0., 0., 0., 2.25080382e-02, 1.28617361e-02, 0.,
          0., 0., 3.21543403e-03, 3.21543403e-03, 1.60771701e-02,
          1.92926042e-02, 6.43086806e-03, 3.21543403e-03, 3.21543403e-03,
          3.21543403e-03, 0., 6.43086806e-03, 3.21543403e-03,
          6.43086806e-03, 3.21543403e-03, 0., 0., 6.43086806e-03,
          6.43086806e-03, 0., 0., 0., 6.43086806e-03, 6.43086806e-03,
          3.21543403e-03, 6.43086806e-03, 0., 6.43086806e-03, 0., 0., 0.,
          3.21543403e-03, 0., 0., 3.21543403e-03, 1.60771701e-02,
          1.28617361e-02, 0., 0., 3.21543403e-03, 6.43086806e-03, 0.,
          3.21543403e-03, 6.43086806e-03, 2.57234722e-02, 6.43086806e-03,
          0., 0., 0., 6.43086806e-03, 3.21543403e-03, 0., 0.,
          3.21543403e-03, 0., 1.60771701e-02, 6.43086806e-03,
          1.28617361e-02, 0., 3.21543403e-03, 0., 3.21543403e-03, 0., 0.,
          9.64630209e-03, 0., 1.92926042e-02, 1.92926042e-02,
          1.28617361e-02, 3.21543403e-03, 3.21543403e-03, 6.43086806e-03,
          3.21543403e-03 ]
      - [ 0., 1.83066353e-02, 2.28832942e-03, 2.28832942e-03,
          4.57665883e-03, 1.14416471e-02, 4.57665883e-03, 2.05949657e-02,
          0., 6.86498825e-03, 9.15331766e-03, 9.15331766e-03,
          2.28832942e-03, 2.28832942e-03, 2.28832942e-03, 9.15331766e-03,
          2.28832942e-03, 1.37299765e-02, 0., 0., 1.14416471e-02,
          2.28832942e-03, 6.86498825e-03, 1.37299765e-02, 2.51716226e-02,
          2.28832942e-03, 0., 0., 2.28832942e-03, 2.28832942e-03,
          9.15331766e-03, 2.28832942e-03, 6.86498825e-03, 2.28832942e-03,
          2.28832942e-03, 9.15331766e-03, 0., 0., 6.86498825e-03, 0.,
          4.57665883e-03, 6.86498825e-03, 0., 2.28832942e-03,
          4.57665883e-03, 4.57665883e-03, 6.86498825e-03, 4.57665883e-03,
          0., 0., 0., 4.57665883e-03, 1.37299765e-02, 6.86498825e-03,
          6.86498825e-03, 4.57665883e-03, 2.28832942e-03, 0., 0.,
          4.57665883e-03, 6.86498825e-03, 0., 9.15331766e-03,
          4.57665883e-03, 0., 0., 4.57665883e-03, 2.28832942e-03, 0., 0.,
          4.57665883e-03, 6.86498825e-03, 4.57665883e-03, 2.28832942e-03,
          2.28832942e-03, 2.28832942e-03, 0., 2.28832942e-03,
          6.86498825e-03, 6.86498825e-03, 0., 2.51716226e-02,
          6.86498825e-03, 4.57665883e-03, 4.57665883e-03, 0.,
          4.57665883e-03, 0., 4.57665883e-03, 2.28832942e-03,
          1.83066353e-02, 4.57665883e-03, 2.28832942e-03, 2.28832942e-03,
          6.86498825e-03, 2.51716226e-02, 2.28832942e-03, 0.,
          2.28832942e-03, 4.57665883e-03, 2.28832942e-03, 2.28832942e-03,
          6.86498825e-03, 0., 4.57665883e-03, 2.28832942e-03,
          9.15331766e-03, 4.57665883e-03, 0., 6.86498825e-03, 0.,
          2.28832942e-03, 2.28832942e-03, 6.86498825e-03, 6.86498825e-03,
          2.28832942e-03, 4.57665883e-03, 4.57665883e-03, 1.60183050e-02,
          6.86498825e-03, 2.28832942e-03, 0., 1.14416471e-02,
          2.28832942e-03, 4.57665883e-03, 2.28832942e-03, 2.28832942e-03,
          6.86498825e-03, 0., 0., 2.28832942e-03, 4.57665883e-03, 0.,
          6.86498825e-03, 6.86498825e-03, 1.37299765e-02, 2.28832942e-03,
          2.28832942e-03, 2.28832942e-03, 6.86498825e-03, 4.57665883e-03,
          2.28832942e-03, 0., 0., 1.37299765e-02, 2.28832942e-03,
          2.28832942e-03, 0., 6.86498825e-03, 2.28832942e-02,
          9.15331766e-03, 0., 1.60183050e-02, 0., 0., 6.86498825e-03,
          1.60183050e-02, 1.37299765e-02, 4.57665883e-03, 2.28832942e-03,
          9.15331766e-03, 2.28832942e-03, 4.57665883e-03, 4.57665883e-03,
          0., 2.28832942e-03, 6.86498825e-03, 0., 0., 0., 3.89016010e-02,
          4.57665883e-03, 1.14416471e-02, 1.14416471e-02, 4.57665883e-03,
          6.86498825e-03, 2.28832942e-03, 2.28832942e-03, 0., 0.,
          6.86498825e-03, 0., 2.28832942e-03, 1.83066353e-02,
          6.86498825e-03, 0., 2.28832942e-03, 2.28832942e-03,
          6.86498825e-03, 6.86498825e-03, 2.28832942e-03, 4.57665883e-03,
          2.28832942e-03, 9.15331766e-03, 9.15331766e-03, 4.57665883e-03,
          0., 4.57665883e-03, 6.86498825e-03, 4.57665883e-03 ]
      - [ 3.33333341e-03, 3.33333341e-03, 1.33333337e-02, 1.66666675e-02,
          0., 6.66666683e-03, 3.33333341e-03, 1.33333337e-02, 0., 0.,
          1.33333337e-02, 9.99999978e-03, 9.99999978e-03, 0.,
          3.33333341e-03, 0., 6.66666683e-03, 0., 3.33333341e-03, 0.,
          3.33333341e-03, 9.99999978e-03, 0., 6.66666683e-03,
          9.99999978e-03, 0., 9.99999978e-03, 0., 0., 6.66666683e-03,
          3.33333341e-03, 0., 0., 3.33333341e-03, 0., 1.33333337e-02, 0.,
          3.33333341e-03, 9.99999978e-03, 1.66666675e-02, 9.99999978e-03,
          9.99999978e-03, 1.99999996e-02, 0., 0., 3.33333341e-03,
          1.66666675e-02, 3.33333341e-03, 0., 6.66666683e-03, 0.,
          6.66666683e-03, 3.33333341e-03, 3.33333341e-03, 3.33333341e-03,
          3.33333341e-03, 6.66666683e-03, 3.33333341e-03, 2.33333334e-02,
          3.33333341e-03, 0., 3.33333341e-03, 3.33333341e-03,
          3.33333341e-03, 6.66666683e-03, 3.33333341e-03, 6.66666683e-03,
          6.66666683e-03, 0., 0., 9.99999978e-03, 0., 3.33333341e-03,
          6.66666683e-03, 9.99999978e-03, 0., 3.33333341e-03, 0.,
          1.66666675e-02, 0., 3.33333341e-03, 0., 9.99999978e-03,
          3.33333341e-03, 6.66666683e-03, 0., 0., 0., 6.66666683e-03, 0.,
          3.33333341e-03, 3.33333341e-03, 6.66666683e-03, 1.33333337e-02,
          3.33333341e-03, 3.33333341e-03, 6.66666683e-03, 0., 0., 0., 0.,
          3.33333341e-03, 6.66666683e-03, 3.00000012e-02, 0., 0.,
          2.33333334e-02, 1.33333337e-02, 0., 0., 0., 1.66666675e-02, 0.,
          2.33333334e-02, 9.99999978e-03, 6.66666683e-03, 0., 0., 0.,
          3.33333341e-03, 0., 0., 0., 0., 2.33333334e-02, 0.,
          3.33333341e-03, 1.66666675e-02, 1.33333337e-02, 0., 0., 0., 0.,
          0., 1.33333337e-02, 1.33333337e-02, 3.33333341e-03,
          3.33333341e-03, 3.33333341e-03, 0., 9.99999978e-03,
          1.66666675e-02, 3.33333341e-03, 0., 0., 0., 3.33333341e-03, 0.,
          3.33333341e-03, 0., 9.99999978e-03, 3.33333341e-03,
          6.66666683e-03, 3.33333341e-03, 0., 0., 6.66666683e-03,
          3.33333341e-03, 3.33333341e-03, 3.33333341e-03, 6.66666683e-03,
          1.33333337e-02, 6.66666683e-03, 9.99999978e-03, 0.,
          6.66666683e-03, 6.66666683e-03, 3.33333341e-03, 0.,
          2.33333334e-02, 6.66666683e-03, 6.66666683e-03, 0., 0.,
          1.33333337e-02, 0., 3.33333341e-03, 6.66666683e-03, 0., 0., 0.,
          1.66666675e-02, 0., 9.99999978e-03, 3.33333341e-03, 0.,
          3.33333341e-03, 0., 3.33333341e-03, 0., 3.33333341e-03,
          3.33333341e-03, 0., 0., 9.99999978e-03, 6.66666683e-03,
          6.66666683e-03, 0., 1.99999996e-02, 9.99999978e-03 ]
      - [ 5.35714300e-03, 7.14285718e-03, 7.14285718e-03, 0.,
          1.78571430e-03, 0., 0., 0., 3.57142859e-03, 1.78571430e-03,
          1.78571430e-03, 8.92857183e-03, 0., 8.92857183e-03, 0.,
          3.57142859e-03, 0., 0., 5.35714300e-03, 8.92857183e-03,
          1.07142860e-02, 1.78571430e-03, 1.42857144e-02, 1.96428578e-02,
          8.92857183e-03, 2.14285720e-02, 5.35714300e-03, 0.,
          3.57142859e-03, 7.14285718e-03, 1.78571430e-03, 0.,
          1.78571430e-03, 3.57142859e-03, 0., 5.35714300e-03, 0.,
          7.14285718e-03, 5.35714300e-03, 3.57142859e-03, 2.14285720e-02,
          0., 1.78571430e-03, 1.78571430e-03, 1.78571430e-03,
          7.14285718e-03, 1.25000002e-02, 0., 1.78571430e-03,
          3.57142859e-03, 3.57142859e-03, 3.57142859e-03, 0.,
          3.57142859e-03, 3.57142859e-03, 1.78571437e-02, 1.78571430e-03,
          3.57142859e-03, 8.92857183e-03, 5.35714300e-03, 3.57142859e-03,
          3.57142859e-03, 0., 1.78571430e-03, 0., 0., 7.14285718e-03,
          7.14285718e-03, 0., 0., 1.78571430e-03, 0., 0., 1.25000002e-02,
          1.78571430e-03, 3.57142859e-03, 1.78571430e-03, 7.14285718e-03,
          3.57142859e-03, 0., 0., 3.57142859e-03, 1.78571430e-03, 0.,
          3.57142859e-03, 0., 0., 1.78571430e-03, 1.25000002e-02,
          1.07142860e-02, 1.07142860e-02, 5.35714300e-03, 1.78571430e-03,
          3.57142859e-03, 0., 1.78571430e-03, 1.78571430e-03, 0.,
          1.60714295e-02, 1.25000002e-02, 3.57142859e-03, 7.14285718e-03,
          5.35714300e-03, 7.14285718e-03, 0., 1.60714295e-02, 0.,
          7.14285718e-03, 5.35714300e-03, 1.78571430e-03, 1.78571430e-03,
          1.42857144e-02, 3.57142859e-03, 5.35714300e-03, 1.78571430e-03,
          1.78571430e-03, 0., 1.78571430e-03, 5.35714300e-03,
          5.35714300e-03, 5.35714300e-03, 3.57142859e-03, 3.57142859e-03,
          8.92857183e-03, 1.25000002e-02, 1.25000002e-02, 3.57142859e-03,
          1.60714295e-02, 5.35714300e-03, 3.57142859e-03, 7.14285718e-03,
          0., 5.35714300e-03, 3.57142859e-03, 1.78571430e-03,
          5.35714300e-03, 0., 1.78571430e-03, 0., 8.92857183e-03,
          5.35714300e-03, 3.57142859e-03, 0., 0., 1.25000002e-02,
          1.25000002e-02, 0., 1.25000002e-02, 3.57142859e-03, 0.,
          8.92857183e-03, 1.25000002e-02, 1.96428578e-02, 1.78571430e-03,
          5.35714300e-03, 7.14285718e-03, 3.57142859e-03, 3.57142859e-03,
          3.57142859e-03, 7.14285718e-03, 0., 5.35714300e-03,
          8.92857183e-03, 1.60714295e-02, 0., 1.07142860e-02, 0.,
          8.92857183e-03, 1.78571430e-03, 1.78571430e-03, 8.92857183e-03,
          0., 1.78571430e-03, 5.35714300e-03, 1.25000002e-02,
          1.78571430e-03, 8.92857183e-03, 0., 7.14285718e-03,
          1.25000002e-02, 3.57142859e-03, 0., 3.57142859e-03,
          3.57142859e-03, 5.35714300e-03, 5.35714300e-03, 1.60714295e-02,
          1.07142860e-02, 5.35714300e-03, 1.60714295e-02, 7.14285718e-03,
          0., 1.60714295e-02, 1.78571437e-02, 0., 1.42857144e-02,
          3.57142859e-03, 0., 0., 0. ]
      - [ 3.74531839e-03, 1.87265920e-03, 0., 5.61797759e-03, 0.,
          3.74531839e-03, 5.61797759e-03, 1.87265920e-03, 9.36329551e-03,
          9.36329551e-03, 5.61797759e-03, 1.87265920e-03, 0.,
          1.12359552e-02, 1.87265920e-03, 3.74531839e-03, 0., 0.,
          3.74531839e-03, 9.36329551e-03, 7.49063678e-03, 7.49063678e-03,
          5.61797759e-03, 0., 1.12359552e-02, 1.12359552e-02,
          1.87265920e-03, 1.12359552e-02, 3.74531839e-03, 0.,
          1.87265920e-03, 0., 5.61797759e-03, 1.87265920e-03,
          7.49063678e-03, 1.87265920e-03, 8.23970065e-02, 9.36329551e-03,
          0., 9.36329551e-03, 5.61797759e-03, 0., 1.31086148e-02,
          3.74531839e-03, 7.49063678e-03, 3.74531839e-03, 0.,
          1.87265920e-03, 3.74531839e-03, 2.62172297e-02, 5.24344593e-02,
          3.74531839e-03, 0., 9.36329551e-03, 3.74531839e-03,
          3.74531839e-03, 5.61797759e-03, 5.61797759e-03, 0., 0.,
          1.12359552e-02, 2.62172297e-02, 0., 1.87265920e-03, 0.,
          7.49063678e-03, 5.61797759e-03, 1.87265920e-03, 3.74531839e-03,
          0., 9.36329551e-03, 1.87265920e-03, 5.61797759e-03,
          7.49063678e-03, 0., 9.36329551e-03, 3.74531839e-03, 0.,
          1.49812736e-02, 1.49812736e-02, 1.87265920e-03, 0.,
          3.74531839e-03, 0., 7.49063678e-03, 1.12359552e-02, 0.,
          3.74531839e-03, 3.74531839e-03, 9.36329551e-03, 5.61797759e-03,
          1.87265920e-03, 7.49063678e-03, 0., 5.61797759e-03, 0.,
          3.74531839e-03, 0., 3.74531839e-03, 1.87265920e-03,
          1.31086148e-02, 1.87265920e-03, 7.49063678e-03, 5.61797759e-03,
          1.87265920e-03, 1.87265920e-03, 3.74531839e-03, 1.87265920e-03,
          0., 1.87265920e-03, 1.87265920e-03, 0., 3.74531839e-03, 0., 0.,
          0., 0., 5.61797759e-03, 1.31086148e-02, 3.74531839e-03, 0.,
          5.61797759e-03, 3.74531839e-03, 0., 3.74531839e-03, 0.,
          9.36329551e-03, 7.49063678e-03, 9.36329551e-03, 0., 0.,
          5.61797759e-03, 0., 1.87265920e-03, 1.87265920e-03,
          1.87265920e-03, 0., 1.12359552e-02, 0., 7.49063678e-03,
          3.74531839e-03, 9.36329551e-03, 3.74531839e-03, 7.49063678e-03,
          7.49063678e-03, 1.87265920e-03, 1.87265920e-03, 1.87265920e-03,
          0., 3.74531839e-03, 0., 3.74531839e-03, 3.74531839e-03, 0.,
          1.87265920e-03, 3.74531839e-03, 1.87265920e-03, 0., 0.,
          1.87265920e-03, 5.61797759e-03, 3.74531839e-03, 0.,
          3.74531839e-03, 9.36329551e-03, 0., 5.61797759e-03,
          9.36329551e-03, 5.61797759e-03, 3.74531839e-03, 5.61797759e-03,
          5.61797759e-03, 9.36329551e-03, 9.36329551e-03, 1.87265920e-03,
          7.49063678e-03, 1.87265920e-03, 1.87265920e-03, 1.87265920e-03,
          5.61797759e-03, 0., 1.87265920e-03, 0., 1.87265920e-03,
          9.36329551e-03, 3.74531839e-03, 1.12359552e-02, 5.61797759e-03,
          5.61797759e-03, 0., 3.74531839e-03, 5.61797759e-03,
          5.61797759e-03, 7.49063678e-03, 9.36329551e-03, 1.12359552e-02,
          5.61797759e-03, 0., 1.87265920e-03, 1.31086148e-02 ]
      - [ 1.53172873e-02, 0., 8.75273533e-03, 0., 6.56455150e-03,
          6.56455150e-03, 0., 8.75273533e-03, 0., 0., 2.18818383e-03, 0.,
          0., 2.18818383e-03, 0., 0., 2.18818383e-03, 6.56455150e-03,
          2.18818383e-03, 0., 1.09409187e-02, 1.31291030e-02,
          1.31291030e-02, 0., 2.18818383e-03, 8.75273533e-03,
          1.53172873e-02, 2.18818383e-03, 1.09409187e-02, 4.37636767e-03,
          6.56455150e-03, 2.18818383e-03, 0., 6.56455150e-03,
          2.18818383e-03, 1.96936540e-02, 0., 6.56455150e-03, 0.,
          8.75273533e-03, 2.18818383e-03, 0., 6.56455150e-03,
          4.37636767e-03, 2.18818383e-03, 4.37636767e-03, 0.,
          2.18818383e-03, 4.37636767e-03, 6.56455150e-03, 0.,
          2.18818383e-03, 8.75273533e-03, 2.18818383e-03, 1.31291030e-02,
          1.75054707e-02, 2.18818383e-03, 1.31291030e-02, 8.75273533e-03,
          0., 4.37636767e-03, 2.18818383e-03, 2.18818383e-03,
          4.37636767e-03, 8.75273533e-03, 6.56455150e-03, 4.37636767e-03,
          1.75054707e-02, 2.18818383e-03, 0., 1.53172873e-02,
          2.18818383e-03, 8.75273533e-03, 2.18818383e-03, 1.09409187e-02,
          2.18818383e-03, 0., 0., 4.37636767e-03, 0., 1.96936540e-02, 0.,
          1.31291030e-02, 2.18818374e-02, 1.53172873e-02, 2.18818383e-03,
          2.18818383e-03, 0., 0., 4.37636767e-03, 6.56455150e-03,
          1.09409187e-02, 8.75273533e-03, 4.37636767e-03, 0.,
          8.75273533e-03, 2.18818383e-03, 8.75273533e-03, 2.18818383e-03,
          2.18818383e-03, 0., 6.56455150e-03, 0., 1.53172873e-02, 0.,
          6.56455150e-03, 2.18818383e-03, 2.18818374e-02, 0.,
          4.37636767e-03, 2.18818383e-03, 0., 2.18818383e-03,
          4.37636767e-03, 4.37636767e-03, 4.37636767e-03, 0.,
          1.53172873e-02, 0., 4.37636767e-03, 0., 0., 0., 2.18818383e-03,
          6.56455150e-03, 0., 2.18818383e-03, 6.56455150e-03,
          4.37636767e-03, 0., 2.18818383e-03, 0., 4.37636767e-03,
          2.18818383e-03, 1.31291030e-02, 6.56455150e-03, 0.,
          1.09409187e-02, 0., 2.18818383e-03, 1.09409187e-02,
          8.75273533e-03, 0., 2.18818383e-03, 2.18818383e-03, 0.,
          6.56455150e-03, 6.56455150e-03, 1.53172873e-02, 2.18818383e-03,
          0., 2.18818383e-03, 1.31291030e-02, 6.56455150e-03, 0.,
          6.56455150e-03, 1.53172873e-02, 1.53172873e-02, 0.,
          2.18818383e-03, 2.18818383e-03, 2.18818383e-03, 4.37636767e-03,
          2.18818374e-02, 0., 2.18818383e-03, 1.96936540e-02,
          4.37636767e-03, 0., 1.53172873e-02, 6.56455150e-03,
          1.53172873e-02, 4.37636767e-03, 0., 0., 4.37636767e-03,
          2.18818383e-03, 2.18818383e-03, 0., 0., 6.56455150e-03, 0., 0.,
          6.56455150e-03, 1.31291030e-02, 6.56455150e-03, 6.56455150e-03,
          0., 1.09409187e-02, 2.18818383e-03, 4.37636767e-03,
          2.18818383e-03, 8.75273533e-03, 6.56455150e-03, 6.56455150e-03,
          8.75273533e-03, 0., 0., 2.18818383e-03, 0. ]
      - [ 0., 0., 1.14155244e-02, 4.56620986e-03, 2.28310493e-03, 0.,
          2.28310493e-03, 2.28310493e-03, 0., 4.56620986e-03,
          4.56620986e-03, 1.14155244e-02, 0., 1.14155244e-02, 0., 0., 0.,
          0., 1.82648394e-02, 6.84931502e-03, 2.28310488e-02,
          2.28310493e-03, 4.56620986e-03, 2.05479451e-02, 4.56620986e-03,
          2.05479451e-02, 0., 2.28310493e-03, 1.36986300e-02, 0.,
          2.28310493e-03, 0., 2.28310493e-03, 6.84931502e-03, 0.,
          9.13241971e-03, 6.84931502e-03, 9.13241971e-03, 0., 0.,
          9.13241971e-03, 0., 4.56620986e-03, 4.56620986e-03, 0.,
          9.13241971e-03, 0., 6.84931502e-03, 4.56620986e-03, 0.,
          2.28310493e-03, 2.28310493e-03, 0., 2.28310493e-03, 0.,
          6.84931502e-03, 0., 4.56620986e-03, 0., 1.59817338e-02,
          2.28310493e-03, 9.13241971e-03, 6.84931502e-03, 2.28310493e-03,
          0., 2.28310493e-03, 6.84931502e-03, 9.13241971e-03,
          9.13241971e-03, 0., 1.14155244e-02, 0., 1.36986300e-02,
          2.28310493e-03, 4.56620986e-03, 6.84931502e-03, 6.84931502e-03,
          0., 0., 1.59817338e-02, 4.56620986e-03, 2.05479451e-02,
          2.96803638e-02, 2.28310493e-03, 0., 1.36986300e-02, 0., 0., 0.,
          0., 1.14155244e-02, 1.59817338e-02, 2.28310493e-03, 0., 0., 0.,
          4.56620986e-03, 4.56620986e-03, 6.84931502e-03, 4.56620986e-03,
          4.56620986e-03, 6.84931502e-03, 1.36986300e-02, 9.13241971e-03,
          0., 9.13241971e-03, 0., 1.82648394e-02, 4.56620986e-03, 0.,
          4.56620986e-03, 0., 4.56620986e-03, 0., 0., 0., 0.,
          4.56620986e-03, 6.84931502e-03, 0., 0., 0., 1.36986300e-02,
          1.36986300e-02, 0., 1.14155244e-02, 0., 2.28310493e-03,
          4.56620986e-03, 0., 2.28310493e-03, 1.36986300e-02,
          1.14155244e-02, 2.28310493e-03, 1.14155244e-02, 0., 0., 0.,
