%YAML:1.0
---
opencv_ml_svm:
   format: 3
   svmType: C_SVC
   kernel:
      type: CHI2
      gamma: 1.
   C: 1.
   term_criteria: { iterations:100 }
   var_count: 200
   class_count: 2
   class_labels: !!opencv-matrix
      rows: 2
      cols: 1
      dt: i
      data: [ 0, 1 ]
   sv_total: 104
   support_vectors:
      - [ 0., 6.75675692e-03, 0., 0., 1.35135138e-02, 0., 0.,
          2.02702712e-02, 6.75675692e-03, 0., 0., 6.75675692e-03,
          1.35135138e-02, 6.75675692e-03, 0., 2.02702712e-02, 0., 0.,
          2.02702712e-02, 0., 2.02702712e-02, 0., 6.75675692e-03,
          1.35135138e-02, 0., 6.75675692e-03, 0., 6.75675692e-03, 0.,
          6.75675692e-03, 0., 0., 0., 6.75675692e-03, 0., 6.75675692e-03,
          6.75675692e-03, 1.35135138e-02, 1.35135138e-02, 0., 0., 0.,
          6.75675692e-03, 6.75675692e-03, 6.75675692e-03, 0., 0.,
          1.35135138e-02, 0., 0., 0., 0., 0., 0., 0., 0., 6.75675692e-03,
          0., 0., 6.75675692e-03, 6.75675692e-03, 6.75675692e-03,
          1.35135138e-02, 6.75675692e-03, 1.35135138e-02, 2.02702712e-02,
          2.02702712e-02, 0., 0., 1.35135138e-02, 0., 0., 0., 0.,
          6.75675692e-03, 0., 6.75675692e-03, 0., 0., 6.75675692e-03,
          6.75675692e-03, 6.75675692e-03, 6.75675692e-03, 0., 0., 0.,
          6.75675692e-03, 6.75675692e-03, 6.75675692e-03, 6.75675692e-03,
          0., 6.75675692e-03, 0., 6.75675692e-03, 6.75675692e-03,
          1.35135138e-02, 0., 0., 0., 0., 0., 0., 0., 0., 0., 0.,
          1.35135138e-02, 0., 0., 0., 1.35135138e-02, 0., 6.75675692e-03,
          1.35135138e-02, 0., 0., 2.70270277e-02, 0., 0., 6.75675692e-03,
          6.75675692e-03, 2.02702712e-02, 0., 0., 6.75675692e-03, 0., 0.,
          1.35135138e-02, 6.75675692e-03, 0., 0., 6.75675692e-03, 0.,
          6.75675692e-03, 1.35135138e-02, 0., 0., 0., 1.35135138e-02,
          6.75675692e-03, 2.02702712e-02, 6.75675692e-03, 6.75675692e-03,
          0., 0., 0., 2.02702712e-02, 0., 6.75675692e-03, 0., 0.,
          2.02702712e-02, 4.05405425e-02, 3.37837860e-02, 0.,
          1.35135138e-02, 0., 6.75675692e-03, 0., 6.75675692e-03,
          6.75675692e-03, 0., 6.75675692e-03, 0., 0., 0., 0.,
          6.75675692e-03, 6.75675692e-03, 0., 0., 0., 2.70270277e-02, 0.,
          6.75675692e-03, 6.75675692e-03, 0., 0., 0., 6.75675692e-03,
          6.75675692e-03, 1.35135138e-02, 0., 0., 0., 0., 1.35135138e-02,
          2.70270277e-02, 6.75675692e-03, 0., 6.75675692e-03, 0., 0.,
          6.75675692e-03, 0., 0., 0., 0., 6.75675692e-03, 0. ]
      - [ 0., 0., 4.95049497e-03, 1.48514844e-02, 0., 4.95049497e-03, 0.,
          0., 9.90098994e-03, 0., 0., 9.90098994e-03, 4.95049497e-03, 0.,
          4.95049497e-03, 1.48514844e-02, 0., 4.95049497e-03,
          9.90098994e-03, 1.48514844e-02, 0., 4.95049497e-03, 0.,
          2.97029689e-02, 9.90098994e-03, 0., 0., 0., 9.90098994e-03,
          1.98019799e-02, 4.95049497e-03, 0., 9.90098994e-03, 0., 0., 0.,
          0., 2.47524753e-02, 0., 0., 2.47524753e-02, 4.95049497e-03,
          1.98019799e-02, 0., 0., 9.90098994e-03, 0., 0., 4.95049497e-03,
          0., 0., 0., 0., 1.48514844e-02, 0., 0., 0., 0., 9.90098994e-03,
          0., 0., 0., 0., 0., 0., 0., 4.95049497e-03, 4.95049497e-03,
          4.95049497e-03, 0., 0., 4.95049497e-03, 0., 0., 4.95049497e-03,
          1.98019799e-02, 9.90098994e-03, 4.95049497e-03, 1.48514844e-02,
          4.95049497e-03, 4.95049497e-03, 1.48514844e-02, 9.90098994e-03,
          0., 0., 4.95049497e-03, 0., 0., 9.90098994e-03, 0., 0., 0., 0.,
          4.95049497e-03, 0., 1.98019799e-02, 0., 0., 1.48514844e-02,
          4.95049497e-03, 0., 0., 0., 4.95049497e-03, 4.95049497e-03, 0.,
          9.90098994e-03, 0., 1.48514844e-02, 0., 0., 4.95049497e-03, 0.,
          0., 0., 9.90098994e-03, 0., 0., 1.98019799e-02, 4.95049497e-03,
          5.94059378e-02, 0., 0., 0., 0., 4.95049497e-03, 0.,
          9.90098994e-03, 0., 4.95049497e-03, 0., 1.48514844e-02, 0., 0.,
          4.95049497e-03, 1.48514844e-02, 0., 0., 3.96039598e-02,
          9.90098994e-03, 0., 0., 4.95049497e-03, 0., 9.90098994e-03,
          1.98019799e-02, 0., 4.95049497e-03, 4.95049497e-03, 0.,
          4.95049497e-03, 0., 0., 2.97029689e-02, 9.90098994e-03,
          9.90098994e-03, 4.95049497e-03, 0., 0., 1.98019799e-02, 0., 0.,
          9.90098994e-03, 4.95049497e-03, 9.90098994e-03, 4.95049497e-03,
          0., 1.98019799e-02, 4.95049497e-03, 9.90098994e-03,
          4.95049497e-03, 4.95049497e-03, 0., 0., 9.90098994e-03,
          4.95049497e-03, 9.90098994e-03, 0., 4.95049497e-03, 0.,
          4.95049497e-03, 0., 4.95049497e-03, 4.95049497e-03,
          4.95049497e-03, 0., 0., 0., 0., 9.90098994e-03, 0.,
          4.95049497e-03, 4.95049497e-03, 4.95049497e-03, 0.,
          1.48514844e-02, 0., 0., 0., 4.95049497e-03 ]
      - [ 0., 2.41935477e-02, 0., 0., 0., 0., 0., 0., 0., 0.,
          1.61290318e-02, 8.06451589e-03, 8.06451589e-03, 0., 0.,
          1.61290318e-02, 0., 1.61290318e-02, 0., 0., 0., 8.06451589e-03,
          1.61290318e-02, 1.61290318e-02, 0., 0., 0., 8.06451589e-03, 0.,
          1.61290318e-02, 8.06451589e-03, 0., 8.06451589e-03,
          1.61290318e-02, 8.06451589e-03, 0., 0., 8.06451589e-03, 0., 0.,
          0., 0., 0., 0., 8.06451589e-03, 1.61290318e-02, 1.61290318e-02,
          0., 8.06451589e-03, 0., 0., 0., 0., 8.06451589e-03, 0., 0., 0.,
          8.06451589e-03, 0., 1.61290318e-02, 0., 0., 1.61290318e-02, 0.,
          0., 0., 0., 0., 8.06451589e-03, 0., 8.06451589e-03, 0.,
          1.61290318e-02, 8.06451589e-03, 0., 4.03225794e-02, 0.,
          1.61290318e-02, 1.61290318e-02, 0., 2.41935477e-02,
          8.06451589e-03, 0., 0., 0., 0., 0., 0., 0., 0., 8.06451589e-03,
          8.06451589e-03, 8.06451589e-03, 0., 0., 0., 8.06451589e-03,
          8.06451589e-03, 0., 0., 0., 2.41935477e-02, 0., 0., 0., 0.,
          1.61290318e-02, 0., 8.06451589e-03, 0., 0., 0., 3.22580636e-02,
          8.06451589e-03, 0., 0., 8.06451589e-03, 0., 1.61290318e-02, 0.,
          8.06451589e-03, 0., 0., 8.06451589e-03, 0., 0., 8.06451589e-03,
          0., 0., 8.06451589e-03, 0., 0., 8.06451589e-03, 0.,
          1.61290318e-02, 0., 0., 0., 0., 0., 8.06451589e-03,
          8.06451589e-03, 8.06451589e-03, 0., 8.06451589e-03, 0.,
          2.41935477e-02, 0., 0., 0., 0., 0., 8.06451589e-03,
          8.06451589e-03, 8.06451589e-03, 2.41935477e-02, 0., 0., 0., 0.,
          8.06451589e-03, 0., 0., 1.61290318e-02, 0., 8.06451589e-03,
          8.06451589e-03, 0., 8.06451589e-03, 8.06451589e-03, 0.,
          8.06451589e-03, 1.61290318e-02, 0., 0., 1.61290318e-02,
          8.06451589e-03, 8.06451589e-03, 0., 1.61290318e-02, 0., 0.,
          8.06451589e-03, 0., 8.06451589e-03, 0., 8.06451589e-03,
          3.22580636e-02, 8.06451589e-03, 8.06451589e-03, 0., 0.,
          8.06451589e-03, 1.61290318e-02, 8.06451589e-03, 0., 0., 0.,
          8.06451589e-03, 0. ]
      - [ 0., 0., 1.44927539e-02, 7.24637695e-03, 0., 2.17391308e-02, 0.,
          0., 1.44927539e-02, 7.24637695e-03, 1.44927539e-02,
          1.44927539e-02, 0., 0., 0., 1.44927539e-02, 7.24637695e-03, 0.,
          0., 0., 0., 0., 7.24637695e-03, 7.24637695e-03, 0., 0.,
          7.24637695e-03, 2.17391308e-02, 0., 0., 0., 7.24637695e-03, 0.,
          0., 1.44927539e-02, 0., 0., 0., 0., 7.24637695e-03, 0., 0., 0.,
          7.24637695e-03, 7.24637695e-03, 0., 0., 0., 7.24637695e-03, 0.,
          0., 0., 0., 0., 0., 0., 0., 0., 0., 0., 2.17391308e-02,
          7.24637695e-03, 0., 0., 0., 7.24637695e-03, 0., 0., 0.,
          2.89855078e-02, 1.44927539e-02, 0., 0., 7.24637695e-03, 0.,
          7.24637695e-03, 7.24637695e-03, 0., 2.17391308e-02, 0., 0.,
          7.24637695e-03, 0., 0., 0., 0., 0., 0., 0., 1.44927539e-02, 0.,
          0., 1.44927539e-02, 7.24637695e-03, 1.44927539e-02,
          7.24637695e-03, 7.24637695e-03, 1.44927539e-02, 1.44927539e-02,
          7.24637695e-03, 0., 0., 0., 0., 0., 0., 0., 0., 1.44927539e-02,
          1.44927539e-02, 0., 7.24637695e-03, 0., 2.17391308e-02, 0.,
          1.44927539e-02, 1.44927539e-02, 0., 0., 0., 2.17391308e-02, 0.,
          7.24637695e-03, 0., 7.24637695e-03, 0., 0., 7.24637695e-03, 0.,
          7.24637695e-03, 0., 7.24637695e-03, 0., 0., 7.24637695e-03,
          1.44927539e-02, 0., 0., 1.44927539e-02, 2.17391308e-02, 0.,
          7.24637695e-03, 7.24637695e-03, 7.24637695e-03, 0.,
          7.24637695e-03, 0., 0., 0., 7.24637695e-03, 7.24637695e-03, 0.,
          7.24637695e-03, 1.44927539e-02, 7.24637695e-03, 0., 0.,
          1.44927539e-02, 7.24637695e-03, 2.17391308e-02, 1.44927539e-02,
          0., 7.24637695e-03, 7.24637695e-03, 0., 1.44927539e-02, 0., 0.,
          0., 0., 0., 7.24637695e-03, 0., 1.44927539e-02, 1.44927539e-02,
          1.44927539e-02, 0., 7.24637695e-03, 0., 7.24637695e-03, 0., 0.,
          0., 1.44927539e-02, 2.17391308e-02, 0., 0., 7.24637695e-03, 0.,
          0., 7.24637695e-03, 2.89855078e-02, 0., 2.17391308e-02, 0., 0.,
          7.24637695e-03, 7.24637695e-03, 0., 1.44927539e-02 ]
      - [ 1.74418613e-02, 1.16279069e-02, 0., 5.81395347e-03, 0.,
          5.81395347e-03, 0., 1.16279069e-02, 5.81395347e-03, 0., 0.,
          1.16279069e-02, 0., 2.32558139e-02, 5.81395347e-03, 0., 0., 0.,
          2.32558139e-02, 0., 0., 1.74418613e-02, 0., 2.32558139e-02, 0.,
          5.81395347e-03, 5.81395347e-03, 0., 0., 0., 0., 1.16279069e-02,
          0., 5.81395347e-03, 0., 1.16279069e-02, 5.81395347e-03,
          1.16279069e-02, 1.16279069e-02, 5.81395347e-03, 2.90697664e-02,
          0., 5.81395347e-03, 5.81395347e-03, 5.81395347e-03, 0.,
          5.81395347e-03, 2.90697664e-02, 0., 0., 0., 0., 0., 0., 0., 0.,
          0., 0., 1.74418613e-02, 1.16279069e-02, 0., 0., 0., 0., 0.,
          1.16279069e-02, 0., 0., 0., 0., 0., 0., 2.32558139e-02, 0., 0.,
          0., 0., 0., 0., 0., 2.32558139e-02, 1.16279069e-02, 0.,
          5.81395347e-03, 0., 5.81395347e-03, 5.81395347e-03,
          5.81395347e-03, 0., 5.81395347e-03, 1.74418613e-02, 0.,
          5.81395347e-03, 0., 2.32558139e-02, 5.81395347e-03,
          5.81395347e-03, 0., 5.81395347e-03, 5.81395347e-03, 0.,
          1.74418613e-02, 0., 0., 0., 5.81395347e-03, 0., 1.16279069e-02,
          0., 5.81395347e-03, 5.81395347e-03, 1.16279069e-02, 0.,
          5.81395347e-03, 0., 0., 5.81395347e-03, 0., 0., 0., 0., 0., 0.,
          0., 1.74418613e-02, 0., 5.81395347e-03, 0., 0., 1.16279069e-02,
          0., 2.32558139e-02, 1.16279069e-02, 0., 0., 1.16279069e-02, 0.,
          0., 0., 5.81395347e-03, 0., 0., 1.16279069e-02, 1.16279069e-02,
          1.16279069e-02, 0., 1.16279069e-02, 1.16279069e-02,
          1.16279069e-02, 0., 5.81395347e-03, 0., 2.32558139e-02,
          1.16279069e-02, 1.16279069e-02, 4.06976752e-02, 5.81395347e-03,
          1.16279069e-02, 0., 0., 0., 0., 0., 0., 0., 0., 2.32558139e-02,
          0., 0., 5.81395347e-03, 5.81395347e-03, 0., 2.32558139e-02, 0.,
          0., 5.81395347e-03, 0., 0., 0., 0., 5.81395347e-03,
          5.81395347e-03, 0., 0., 0., 5.81395347e-03, 0., 5.81395347e-03,
          0., 5.81395347e-03, 5.81395347e-03, 0., 0., 5.81395347e-03,
          1.74418613e-02, 5.81395347e-03, 5.81395347e-03, 5.81395347e-03,
          5.81395347e-03, 0. ]
      - [ 0., 7.93650839e-03, 0., 7.93650839e-03, 0., 0., 0., 0., 0., 0.,
          0., 3.17460336e-02, 7.93650839e-03, 7.93650839e-03,
          7.93650839e-03, 7.93650839e-03, 0., 0., 7.93650839e-03, 0.,
          7.93650839e-03, 0., 0., 7.93650839e-03, 0., 1.58730168e-02,
          7.93650839e-03, 0., 0., 7.93650839e-03, 7.93650839e-03,
          7.93650839e-03, 0., 7.93650839e-03, 0., 0., 7.93650839e-03,
          1.58730168e-02, 7.93650839e-03, 7.93650839e-03, 1.58730168e-02,
          0., 2.38095261e-02, 0., 1.58730168e-02, 0., 7.93650839e-03,
          7.93650839e-03, 0., 0., 0., 7.93650839e-03, 7.93650839e-03, 0.,
          0., 0., 1.58730168e-02, 0., 0., 7.93650839e-03, 0., 0., 0., 0.,
          0., 1.58730168e-02, 0., 7.93650839e-03, 0., 0., 0.,
          1.58730168e-02, 7.93650839e-03, 0., 7.93650839e-03,
          7.93650839e-03, 0., 0., 7.93650839e-03, 0., 0., 0.,
          7.93650839e-03, 1.58730168e-02, 7.93650839e-03, 0., 0.,
          7.93650839e-03, 0., 4.76190522e-02, 1.58730168e-02, 0., 0., 0.,
          1.58730168e-02, 0., 1.58730168e-02, 0., 0., 0., 0.,
          1.58730168e-02, 7.93650839e-03, 0., 0., 0., 0., 0., 0., 0., 0.,
          7.93650839e-03, 0., 0., 7.93650839e-03, 0., 0., 0.,
          2.38095261e-02, 7.93650839e-03, 7.93650839e-03, 7.93650839e-03,
          7.93650839e-03, 0., 0., 0., 0., 0., 7.93650839e-03,
          7.93650839e-03, 0., 2.38095261e-02, 0., 0., 1.58730168e-02, 0.,
          0., 0., 0., 1.58730168e-02, 2.38095261e-02, 0., 7.93650839e-03,
          7.93650839e-03, 0., 0., 1.58730168e-02, 0., 0., 0.,
          7.93650839e-03, 0., 2.38095261e-02, 3.17460336e-02,
          7.93650839e-03, 3.17460336e-02, 0., 7.93650839e-03, 0.,
          7.93650821e-02, 0., 0., 0., 0., 0., 0., 0., 0., 0., 0., 0., 0.,
          0., 0., 0., 0., 0., 0., 0., 0., 0., 0., 7.93650839e-03,
          7.93650839e-03, 0., 7.93650839e-03, 0., 7.93650839e-03,
          7.93650839e-03, 0., 0., 7.93650839e-03, 7.93650839e-03, 0., 0.,
          0., 0., 0., 7.93650839e-03, 7.93650839e-03 ]
      - [ 0., 0., 1.49253728e-02, 0., 0., 0., 0., 0., 0., 0., 0., 0., 0.,
          1.49253728e-02, 0., 2.98507456e-02, 0., 0., 2.98507456e-02, 0.,
          0., 0., 0., 0., 0., 0., 0., 0., 1.49253728e-02, 0., 0., 0.,
          1.49253728e-02, 1.49253728e-02, 1.49253728e-02, 0., 0.,
          2.98507456e-02, 0., 1.49253728e-02, 0., 1.49253728e-02, 0.,
          2.98507456e-02, 0., 2.98507456e-02, 0., 0., 0., 0., 0., 0., 0.,
          0., 0., 0., 0., 0., 0., 0., 0., 0., 0., 0., 0., 0., 0., 0., 0.,
          0., 0., 0., 0., 0., 0., 0., 1.49253728e-02, 1.49253728e-02,
          1.49253728e-02, 1.49253728e-02, 1.49253728e-02, 0., 0.,
          1.49253728e-02, 0., 2.98507456e-02, 0., 0., 0., 0.,
          1.49253728e-02, 0., 0., 0., 0., 0., 0., 0., 0., 0., 0.,
          1.04477607e-01, 0., 0., 0., 0., 0., 2.98507456e-02, 0., 0., 0.,
          0., 1.49253728e-02, 0., 0., 0., 0., 0., 0., 1.49253728e-02, 0.,
          0., 2.98507456e-02, 0., 0., 0., 0., 0., 0., 0., 2.98507456e-02,
          0., 0., 0., 1.49253728e-02, 1.49253728e-02, 0., 0.,
          2.98507456e-02, 0., 0., 0., 4.47761193e-02, 0., 0., 0.,
          4.47761193e-02, 0., 0., 0., 0., 0., 2.98507456e-02, 0., 0.,
          2.98507456e-02, 0., 0., 0., 1.49253728e-02, 0., 0.,
          1.49253728e-02, 0., 0., 0., 0., 1.49253728e-02, 0., 0., 0., 0.,
          0., 0., 0., 0., 0., 0., 0., 0., 0., 0., 0., 0., 0.,
          2.98507456e-02, 0., 0., 0., 0., 1.49253728e-02, 0., 0.,
          1.49253728e-02, 4.47761193e-02, 0., 0., 0., 1.49253728e-02, 0. ]
      - [ 1.31578948e-02, 0., 0., 1.31578948e-02, 1.31578948e-02, 0., 0.,
          0., 0., 0., 0., 1.31578948e-02, 0., 0., 0., 0., 0., 0.,
          2.63157897e-02, 0., 0., 0., 0., 1.31578948e-02, 0.,
          1.31578948e-02, 0., 0., 0., 0., 0., 1.31578948e-02, 0., 0., 0.,
          0., 0., 0., 0., 0., 1.31578948e-02, 0., 1.31578948e-02, 0., 0.,
          0., 1.31578948e-02, 0., 0., 0., 0., 2.63157897e-02,
          1.31578948e-02, 0., 0., 0., 2.63157897e-02, 0., 0., 0., 0.,
          3.94736826e-02, 0., 0., 1.31578948e-02, 3.94736826e-02, 0., 0.,
          0., 0., 0., 0., 1.31578948e-02, 0., 0., 0., 0., 0., 0., 0., 0.,
          0., 0., 0., 1.31578948e-02, 0., 0., 0., 0., 1.31578948e-02, 0.,
          1.31578948e-02, 0., 0., 0., 0., 0., 0., 3.94736826e-02, 0., 0.,
          0., 0., 1.31578948e-02, 0., 0., 0., 1.31578948e-02, 0., 0., 0.,
          1.31578948e-02, 1.31578948e-02, 2.63157897e-02, 1.31578948e-02,
          0., 0., 1.31578948e-02, 0., 0., 1.31578948e-02, 0., 0., 0., 0.,
          0., 0., 0., 0., 0., 0., 1.31578952e-01, 2.63157897e-02, 0., 0.,
          2.63157897e-02, 2.63157897e-02, 2.63157897e-02, 1.31578948e-02,
          0., 1.31578948e-02, 0., 0., 0., 0., 0., 1.31578948e-02,
          1.31578948e-02, 0., 0., 0., 0., 1.31578948e-02, 0., 0., 0., 0.,
          0., 2.63157897e-02, 0., 0., 0., 0., 0., 0., 0., 0., 0.,
          1.31578948e-02, 0., 1.31578948e-02, 2.63157897e-02, 0.,
          1.31578948e-02, 0., 0., 0., 5.26315793e-02, 0., 0., 0., 0., 0.,
          0., 0., 0., 0., 1.31578948e-02, 0., 0., 0., 0., 0., 0., 0., 0.,
          0., 0., 0., 1.31578948e-02 ]
      - [ 4.80769249e-03, 0., 0., 1.44230779e-02, 0., 4.80769249e-03, 0.,
          0., 9.61538497e-03, 1.44230779e-02, 0., 4.80769249e-03, 0.,
          4.80769249e-03, 0., 9.61538497e-03, 4.80769249e-03, 0.,
          9.61538497e-03, 4.80769249e-03, 1.44230779e-02, 9.61538497e-03,
          1.92307699e-02, 2.40384620e-02, 0., 0., 0., 9.61538497e-03, 0.,
          4.80769249e-03, 0., 4.80769249e-03, 0., 0., 0., 0.,
          4.80769249e-03, 6.73076957e-02, 4.80769249e-03, 4.80769249e-03,
          1.44230779e-02, 9.61538497e-03, 1.44230779e-02, 0., 0.,
          2.40384620e-02, 0., 0., 9.61538497e-03, 0., 0., 1.44230779e-02,
          0., 0., 4.80769249e-03, 0., 4.80769249e-03, 0., 9.61538497e-03,
          0., 0., 4.80769239e-02, 0., 4.80769249e-03, 4.80769249e-03,
          4.80769249e-03, 4.80769249e-03, 4.80769249e-03, 0.,
          4.80769249e-03, 0., 0., 2.40384620e-02, 9.61538497e-03,
          9.61538497e-03, 0., 9.61538497e-03, 9.61538497e-03, 0., 0.,
          9.61538497e-03, 1.44230779e-02, 4.80769249e-03, 0., 0.,
          1.44230779e-02, 0., 0., 4.80769249e-03, 0., 4.80769249e-03, 0.,
          0., 0., 0., 0., 9.61538497e-03, 9.61538497e-03, 4.80769249e-03,
          4.80769249e-03, 0., 0., 9.61538497e-03, 0., 4.80769249e-03, 0.,
          0., 0., 9.61538497e-03, 9.61538497e-03, 0., 4.80769249e-03, 0.,
          0., 0., 0., 1.92307699e-02, 9.61538497e-03, 2.88461559e-02,
          4.80769249e-03, 0., 4.80769249e-03, 4.80769249e-03, 0.,
          2.40384620e-02, 4.80769249e-03, 0., 4.80769249e-03, 0., 0., 0.,
          1.44230779e-02, 0., 0., 0., 0., 0., 0., 0., 9.61538497e-03, 0.,
          0., 9.61538497e-03, 1.44230779e-02, 0., 4.80769249e-03, 0., 0.,
          0., 4.80769249e-03, 0., 0., 5.28846160e-02, 4.80769249e-03,
          4.80769249e-03, 2.88461559e-02, 0., 0., 0., 4.80769249e-03, 0.,
          0., 0., 0., 0., 0., 1.44230779e-02, 0., 4.80769249e-03, 0., 0.,
          0., 0., 0., 4.80769249e-03, 1.44230779e-02, 4.80769249e-03,
          3.84615399e-02, 0., 0., 4.80769249e-03, 0., 4.80769249e-03, 0.,
          0., 4.80769249e-03, 0., 0., 0., 0., 0., 4.80769249e-03, 0., 0.,
          9.61538497e-03, 0., 0., 4.80769249e-03, 0., 4.80769249e-03 ]
      - [ 0., 0., 0., 1.06382975e-02, 0., 0., 0., 5.31914877e-03,
          1.06382975e-02, 1.06382975e-02, 0., 2.65957434e-02, 0.,
          1.59574468e-02, 0., 5.31914877e-03, 0., 0., 1.59574468e-02, 0.,
          5.31914877e-03, 0., 0., 5.31914877e-03, 5.31914877e-03,
          1.06382975e-02, 0., 5.31914877e-03, 0., 5.31914877e-03, 0., 0.,
          5.31914877e-03, 1.06382975e-02, 0., 1.06382975e-02,
          1.59574468e-02, 1.59574468e-02, 1.06382975e-02, 1.06382975e-02,
          5.31914877e-03, 0., 2.12765951e-02, 5.31914877e-03,
          1.59574468e-02, 1.06382975e-02, 0., 0., 0., 0., 5.31914877e-03,
          1.59574468e-02, 1.06382975e-02, 5.31914877e-03, 5.31914877e-03,
          0., 2.12765951e-02, 1.06382975e-02, 1.06382975e-02,
          1.06382975e-02, 5.31914877e-03, 1.06382975e-02, 5.31914877e-03,
          1.06382975e-02, 5.31914877e-03, 5.31914877e-03, 5.31914877e-03,
          0., 5.31914877e-03, 1.06382975e-02, 0., 5.31914877e-03,
          5.31914877e-03, 0., 0., 5.31914877e-03, 1.59574468e-02, 0., 0.,
          1.06382975e-02, 5.31914877e-03, 0., 0., 0., 1.59574468e-02,
          5.31914877e-03, 0., 0., 0., 5.31914877e-03, 0., 0., 0., 0.,
          1.59574468e-02, 1.06382975e-02, 0., 5.31914877e-03,
          5.31914877e-03, 0., 5.31914877e-03, 2.12765951e-02, 0., 0., 0.,
          5.31914877e-03, 0., 0., 5.31914877e-03, 0., 1.59574468e-02,
          5.31914877e-03, 5.31914877e-03, 2.65957434e-02, 0., 0., 0., 0.,
          5.31914877e-03, 0., 3.72340418e-02, 0., 0., 0., 1.06382975e-02,
          0., 0., 0., 5.31914877e-03, 0., 0., 5.31914877e-03, 0.,
          5.31914877e-03, 2.65957434e-02, 1.59574468e-02, 0., 0., 0.,
          1.06382975e-02, 5.31914877e-03, 0., 0., 1.06382975e-02, 0., 0.,
          5.31914877e-03, 0., 1.59574468e-02, 5.31914877e-03, 0.,
          1.59574468e-02, 0., 5.31914877e-03, 5.31914877e-03,
          1.59574468e-02, 5.31914877e-03, 0., 5.31914877e-03, 0., 0., 0.,
          5.31914877e-03, 5.31914877e-03, 0., 0., 5.31914877e-03, 0.,
          1.06382975e-02, 0., 0., 0., 2.12765951e-02, 1.06382975e-02, 0.,
          0., 0., 5.31914877e-03, 0., 5.31914877e-03, 1.06382975e-02, 0.,
          0., 5.31914877e-03, 0., 0., 5.31914877e-03, 1.59574468e-02, 0.,
          0., 0., 0., 5.31914877e-03, 5.31914877e-03, 0., 1.06382975e-02,
          5.31914877e-03, 1.06382975e-02, 0., 0. ]
      - [ 0., 2.22222228e-02, 0., 3.33333351e-02, 0., 1.11111114e-02,
          1.11111114e-02, 0., 1.11111114e-02, 0., 0., 0., 0., 0., 0.,
          1.11111114e-02, 0., 0., 2.22222228e-02, 0., 0., 0., 0., 0., 0.,
          0., 0., 0., 0., 1.11111114e-02, 0., 2.22222228e-02, 0., 0., 0.,
          0., 0., 0., 0., 0., 0., 0., 0., 0., 0., 0., 0., 0.,
          1.11111114e-02, 1.11111114e-02, 0., 0., 0., 0., 0., 0., 0., 0.,
          2.22222228e-02, 0., 0., 2.22222228e-02, 0., 0., 0., 0.,
          3.33333351e-02, 0., 1.11111114e-02, 0., 0., 0., 1.11111114e-02,
          0., 0., 1.11111114e-02, 1.11111114e-02, 0., 0., 0.,
          1.11111114e-02, 0., 0., 2.22222228e-02, 1.11111114e-02, 0., 0.,
          0., 1.11111114e-02, 0., 0., 0., 0., 0., 0., 0., 0., 0., 0., 0.,
          0., 4.44444455e-02, 0., 0., 1.11111114e-02, 0., 0., 0., 0.,
          1.11111114e-02, 0., 1.11111114e-02, 0., 0., 0., 0., 0., 0.,
          1.11111114e-02, 0., 0., 1.11111114e-02, 0., 0., 3.33333351e-02,
          0., 0., 0., 0., 0., 0., 2.22222228e-02, 1.11111114e-02, 0.,
          5.55555560e-02, 3.33333351e-02, 0., 0., 1.11111114e-02,
          1.11111114e-02, 0., 0., 1.11111114e-02, 1.11111114e-02, 0., 0.,
          5.55555560e-02, 0., 0., 1.11111114e-02, 0., 0., 1.11111114e-02,
          1.11111114e-02, 1.11111114e-02, 2.22222228e-02, 0., 0., 0., 0.,
          0., 0., 0., 0., 0., 0., 0., 0., 0., 3.33333351e-02, 0., 0.,
          2.22222228e-02, 1.11111114e-02, 0., 1.11111114e-02,
          1.11111114e-02, 1.11111114e-02, 1.11111114e-02, 1.11111114e-02,
          0., 0., 0., 0., 1.11111114e-02, 0., 0., 6.66666701e-02, 0., 0.,
          1.11111114e-02, 0., 0., 0., 1.11111114e-02, 0., 0., 0., 0., 0. ]
      - [ 1.69491526e-02, 8.47457629e-03, 0., 0., 8.47457629e-03, 0., 0.,
          0., 8.47457629e-03, 0., 0., 0., 0., 2.54237279e-02, 0., 0., 0.,
          1.69491526e-02, 1.69491526e-02, 0., 0., 0., 8.47457629e-03, 0.,
          0., 0., 0., 8.47457629e-03, 8.47457629e-03, 8.47457629e-03, 0.,
          0., 8.47457629e-03, 0., 0., 0., 1.69491526e-02, 1.69491526e-02,
          1.69491526e-02, 2.54237279e-02, 8.47457629e-03, 0., 0., 0., 0.,
          0., 0., 0., 0., 0., 1.69491526e-02, 8.47457629e-03, 0., 0.,
          8.47457629e-03, 0., 0., 0., 8.47457629e-03, 8.47457629e-03, 0.,
          8.47457629e-03, 0., 0., 8.47457629e-03, 1.69491526e-02, 0., 0.,
          8.47457629e-03, 0., 0., 8.47457629e-03, 2.54237279e-02, 0., 0.,
          0., 0., 0., 0., 0., 0., 1.69491526e-02, 0., 8.47457629e-03, 0.,
          8.47457629e-03, 0., 0., 0., 2.54237279e-02, 2.54237279e-02, 0.,
          0., 0., 1.69491526e-02, 0., 0., 0., 0., 0., 0., 8.47457629e-03,
          8.47457629e-03, 0., 0., 0., 0., 0., 1.69491526e-02, 0., 0.,
          8.47457629e-03, 0., 0., 0., 0., 3.38983051e-02, 1.69491526e-02,
          3.38983051e-02, 0., 0., 0., 0., 0., 1.69491526e-02, 0., 0., 0.,
          0., 8.47457629e-03, 0., 2.54237279e-02, 0., 0., 0., 0., 0., 0.,
          0., 0., 8.47457629e-03, 8.47457629e-03, 8.47457629e-03,
          8.47457629e-03, 0., 1.69491526e-02, 0., 0., 0., 0., 0., 0., 0.,
          8.47457629e-03, 0., 9.32203382e-02, 0., 0., 0., 8.47457629e-03,
          0., 0., 0., 0., 0., 0., 4.23728824e-02, 0., 0., 1.69491526e-02,
          0., 8.47457629e-03, 1.69491526e-02, 0., 8.47457629e-03, 0., 0.,
          8.47457629e-03, 0., 0., 0., 0., 0., 0., 0., 0., 0.,
          1.69491526e-02, 0., 8.47457629e-03, 8.47457629e-03,
          8.47457629e-03, 0., 0., 5.08474559e-02, 0., 0., 0.,
          8.47457629e-03, 0. ]
      - [ 8.92857183e-03, 0., 0., 0., 0., 8.92857183e-03, 0.,
          2.67857164e-02, 0., 8.92857183e-03, 0., 8.92857183e-03, 0., 0.,
          0., 0., 0., 0., 0., 0., 0., 8.92857183e-03, 0., 8.92857183e-03,
          0., 5.35714328e-02, 0., 0., 8.92857183e-03, 0., 0.,
          1.07142866e-01, 0., 0., 0., 0., 8.92857183e-03, 0.,
          1.78571437e-02, 2.67857164e-02, 0., 0., 8.92857183e-03, 0., 0.,
          0., 0., 8.92857183e-03, 0., 0., 0., 0., 0., 0., 0., 0.,
          3.57142873e-02, 0., 0., 8.92857183e-03, 0., 0., 0., 0., 0.,
          1.78571437e-02, 2.67857164e-02, 0., 0., 0., 0., 1.78571437e-02,
          0., 0., 0., 0., 0., 0., 0., 0., 0., 0., 0., 0., 2.67857164e-02,
          0., 0., 1.78571437e-02, 0., 0., 0., 0., 0., 0., 0.,
          8.92857183e-03, 0., 0., 0., 0., 0., 2.67857164e-02, 0., 0.,
          8.92857183e-03, 0., 0., 0., 0., 0., 0., 1.78571437e-02, 0.,
          3.57142873e-02, 0., 0., 0., 0., 0., 0., 0., 0., 0., 0.,
          3.57142873e-02, 0., 0., 0., 0., 8.92857183e-03, 0.,
          8.92857183e-03, 2.67857164e-02, 0., 8.92857183e-03, 0., 0.,
          8.92857183e-03, 0., 0., 0., 0., 8.92857183e-03, 0., 0., 0.,
          7.14285746e-02, 0., 0., 8.92857183e-03, 0., 8.92857183e-03, 0.,
          2.67857164e-02, 0., 2.67857164e-02, 0., 0., 8.92857183e-03,
          8.92857183e-03, 0., 0., 0., 0., 0., 0., 3.57142873e-02,
          8.92857183e-03, 0., 0., 0., 0., 6.25000000e-02, 8.92857183e-03,
          0., 8.92857183e-03, 8.92857183e-03, 0., 0., 0., 0., 0., 0., 0.,
          8.92857183e-03, 0., 0., 1.78571437e-02, 0., 0., 0., 0., 0., 0.,
          0., 0., 0., 0., 0., 0. ]
      - [ 0., 2.23880596e-02, 0., 1.49253728e-02, 2.23880596e-02, 0.,
          7.46268639e-03, 7.46268639e-03, 0., 0., 0., 1.49253728e-02,
          1.49253728e-02, 0., 7.46268639e-03, 0., 7.46268639e-03, 0.,
          2.98507456e-02, 0., 0., 0., 7.46268639e-03, 1.49253728e-02, 0.,
          2.98507456e-02, 0., 0., 7.46268639e-03, 0., 0., 7.46268639e-03,
          0., 7.46268639e-03, 0., 0., 0., 0., 7.46268639e-03, 0.,
          1.49253728e-02, 0., 0., 0., 0., 7.46268639e-03, 7.46268639e-03,
          0., 0., 0., 7.46268639e-03, 0., 0., 7.46268639e-03, 0., 0.,
          1.49253728e-02, 0., 0., 7.46268639e-03, 0., 7.46268639e-03,
          1.49253728e-02, 7.46268639e-03, 7.46268639e-03, 0., 0., 0., 0.,
          0., 0., 7.46268639e-03, 7.46268639e-03, 7.46268639e-03,
          2.23880596e-02, 2.23880596e-02, 0., 0., 0., 7.46268639e-03,
          7.46268639e-03, 0., 0., 2.23880596e-02, 2.98507456e-02,
          7.46268639e-03, 0., 0., 0., 0., 0., 0., 0., 0., 0.,
          7.46268639e-03, 0., 7.46268639e-03, 7.46268639e-03,
          7.46268639e-03, 0., 7.46268639e-03, 7.46268639e-03,
          1.49253728e-02, 0., 0., 0., 0., 1.49253728e-02, 7.46268639e-03,
          2.23880596e-02, 1.49253728e-02, 0., 7.46268639e-03, 0.,
          7.46268639e-03, 0., 0., 0., 0., 7.46268639e-03, 2.98507456e-02,
          7.46268639e-03, 0., 2.98507456e-02, 0., 0., 0., 0.,
          1.49253728e-02, 0., 2.23880596e-02, 7.46268639e-03, 0.,
          1.49253728e-02, 7.46268639e-03, 1.49253728e-02, 0., 0.,
          1.49253728e-02, 0., 0., 1.49253728e-02, 1.49253728e-02,
          7.46268639e-03, 0., 2.23880596e-02, 0., 0., 0., 0., 0.,
          7.46268639e-03, 0., 0., 7.46268639e-03, 1.49253728e-02, 0.,
          2.23880596e-02, 0., 0., 7.46268639e-03, 0., 0., 0., 0.,
          7.46268639e-03, 7.46268639e-03, 0., 0., 0., 0., 2.23880596e-02,
          0., 0., 0., 0., 0., 0., 0., 0., 0., 0., 0., 0., 7.46268639e-03,
          0., 7.46268639e-03, 7.46268639e-03, 0., 7.46268639e-03, 0., 0.,
          1.49253728e-02, 7.46268639e-03, 0., 0., 0., 0., 7.46268639e-03 ]
      - [ 0., 1.79104470e-02, 5.97014930e-03, 2.98507465e-03,
          2.98507465e-03, 2.98507465e-03, 2.98507465e-03, 0.,
          5.97014930e-03, 5.97014930e-03, 2.98507465e-03, 0., 0.,
          5.97014930e-03, 2.98507465e-03, 8.95522349e-03, 2.98507465e-03,
          0., 5.97014930e-03, 5.97014930e-03, 2.98507465e-03,
          8.95522349e-03, 5.97014930e-03, 8.95522349e-03, 1.49253737e-02,
          2.68656723e-02, 8.95522349e-03, 0., 8.95522349e-03,
          5.97014930e-03, 2.98507465e-03, 1.19402986e-02, 2.98507465e-03,
          1.19402986e-02, 0., 0., 2.98507465e-03, 0., 5.97014930e-03,
          2.98507465e-03, 1.19402986e-02, 2.98507465e-03, 0.,
          2.98507465e-03, 0., 5.97014930e-03, 5.97014930e-03, 0.,
          2.98507465e-03, 0., 0., 2.98507465e-03, 2.98507465e-03,
          5.97014930e-03, 2.98507465e-03, 1.19402986e-02, 1.79104470e-02,
          2.98507465e-03, 8.95522349e-03, 5.97014930e-03, 0.,
          2.98507465e-03, 8.95522349e-03, 2.98507465e-03, 2.98507465e-03,
          1.49253737e-02, 2.98507465e-03, 0., 0., 2.98507465e-03,
          5.97014930e-03, 0., 5.97014930e-03, 8.95522349e-03,
          8.95522349e-03, 1.19402986e-02, 2.98507465e-03, 2.98507465e-03,
          8.95522349e-03, 2.98507465e-03, 0., 2.98507465e-03,
          2.98507465e-03, 2.98507465e-03, 2.38805972e-02, 0.,
          8.95522349e-03, 0., 2.98507465e-03, 2.98507465e-03, 0., 0.,
          2.98507465e-03, 8.95522349e-03, 0., 5.97014930e-03,
          2.98507465e-03, 8.95522349e-03, 5.97014930e-03, 8.95522349e-03,
          8.95522349e-03, 4.47761193e-02, 0., 0., 5.97014930e-03,
          5.97014930e-03, 0., 2.98507465e-03, 2.98507465e-03,
          2.98507465e-03, 5.97014930e-03, 8.95522349e-03, 1.19402986e-02,
          0., 2.98507465e-03, 5.97014930e-03, 2.98507465e-03, 0., 0., 0.,
          0., 8.95522349e-03, 0., 0., 0., 2.98507465e-03, 8.95522349e-03,
          8.95522349e-03, 0., 8.95522349e-03, 8.95522349e-03,
          5.97014930e-03, 2.98507465e-03, 2.98507465e-03, 5.97014930e-03,
          5.97014930e-03, 0., 2.98507465e-03, 2.98507465e-03,
          5.97014930e-03, 2.98507465e-03, 2.98507465e-03, 0.,
          2.98507465e-03, 8.95522349e-03, 5.97014930e-03, 1.49253737e-02,
          0., 2.98507465e-03, 0., 5.97014930e-03, 0., 2.98507465e-03,
          2.98507465e-03, 5.97014930e-03, 2.98507465e-03, 2.98507465e-03,
          5.97014930e-03, 8.95522349e-03, 0., 5.97014930e-03,
          2.98507465e-03, 5.97014930e-03, 8.95522349e-03, 2.98507465e-03,
          2.98507465e-03, 2.98507465e-03, 2.98507465e-03, 2.98507465e-03,
          0., 1.19402986e-02, 0., 1.19402986e-02, 2.98507465e-03,
          2.98507465e-03, 8.95522349e-03, 5.97014930e-03, 0.,
          8.95522349e-03, 2.98507465e-03, 2.98507465e-03, 2.98507465e-03,
          1.19402986e-02, 2.98507465e-03, 5.97014930e-03, 0., 0.,
          2.08955221e-02, 0., 5.97014930e-03, 1.19402986e-02,
          1.19402986e-02, 1.49253737e-02, 1.19402986e-02, 0., 0.,
          2.98507465e-03, 0., 5.97014930e-03, 8.95522349e-03 ]
      - [ 0., 0., 0., 3.99999991e-02, 0., 0., 1.99999996e-02, 0., 0.,
          3.99999991e-02, 0., 0., 0., 0., 0., 0., 0., 0., 0.,
          1.99999996e-02, 0., 0., 1.99999996e-02, 1.99999996e-02,
          1.99999996e-02, 0., 0., 0., 1.99999996e-02, 0., 1.99999996e-02,
          0., 0., 1.99999996e-02, 0., 0., 0., 0., 1.99999996e-02, 0., 0.,
          0., 1.99999996e-02, 0., 0., 0., 0., 0., 0., 0., 0.,
          1.99999996e-02, 0., 0., 0., 0., 0., 0., 1.99999996e-02, 0., 0.,
          0., 0., 0., 0., 0., 0., 0., 0., 0., 0., 0., 0., 0., 0.,
          3.99999991e-02, 0., 0., 0., 0., 0., 0., 0., 0., 0., 0., 0., 0.,
          0., 0., 0., 1.99999996e-02, 0., 0., 0., 0., 0., 3.99999991e-02,
          3.99999991e-02, 0., 0., 1.99999996e-02, 0., 0., 0., 0., 0., 0.,
          0., 0., 0., 0., 0., 0., 7.99999982e-02, 0., 1.99999996e-02,
          1.99999996e-02, 0., 0., 1.99999996e-02, 0., 0., 0., 0., 0., 0.,
          1.99999996e-02, 0., 1.99999996e-02, 1.99999996e-02, 0., 0., 0.,
          1.99999996e-02, 0., 1.99999996e-02, 1.99999996e-02,
          1.99999996e-02, 5.99999987e-02, 1.99999996e-02, 0., 0., 0.,
          1.99999996e-02, 0., 0., 0., 0., 1.99999996e-02, 0., 0., 0., 0.,
          0., 1.99999996e-02, 0., 0., 1.99999996e-02, 0., 0., 0., 0., 0.,
          0., 0., 0., 0., 0., 0., 0., 0., 0., 0., 0., 0., 0., 0., 0.,
          1.99999996e-02, 0., 0., 0., 0., 0., 0., 0., 0., 0., 0., 0., 0.,
          0., 0., 0., 0., 0., 0., 0., 5.99999987e-02 ]
      - [ 0., 4.50450461e-03, 0., 4.50450461e-03, 0., 9.00900923e-03,
          4.50450461e-03, 0., 1.80180185e-02, 4.50450461e-03, 0.,
          1.35135138e-02, 0., 0., 4.50450461e-03, 0., 2.70270277e-02,
          9.00900923e-03, 0., 0., 4.50450461e-03, 4.50450461e-03,
          9.00900923e-03, 0., 0., 0., 1.80180185e-02, 9.00900923e-03, 0.,
          4.50450461e-03, 0., 9.00900923e-03, 0., 9.00900923e-03,
          1.80180185e-02, 4.50450461e-03, 0., 2.70270277e-02, 0., 0.,
          4.50450461e-03, 0., 9.00900923e-03, 0., 0., 9.00900923e-03, 0.,
          0., 9.00900923e-03, 0., 0., 0., 0., 0., 0., 0., 0., 0., 0., 0.,
          9.00900923e-03, 4.50450461e-03, 4.50450461e-03, 1.35135138e-02,
          0., 1.35135138e-02, 1.35135138e-02, 0., 0., 0., 0.,
          4.50450461e-03, 9.00900923e-03, 4.50450461e-03, 1.80180185e-02,
          9.00900923e-03, 0., 9.00900923e-03, 1.35135138e-02,
          9.00900923e-03, 0., 0., 4.50450461e-03, 0., 4.50450461e-03,
          9.00900923e-03, 0., 0., 9.00900923e-03, 0., 0., 0.,
          4.50450461e-03, 4.50450461e-03, 9.00900923e-03, 4.50450461e-03,
          0., 1.80180185e-02, 4.50450461e-03, 0., 0., 0., 0., 0.,
          9.00900923e-03, 4.50450461e-03, 1.80180185e-02, 0.,
          4.50450461e-03, 0., 4.50450461e-03, 0., 0., 0., 2.25225240e-02,
          4.50450461e-03, 1.35135138e-02, 4.50450461e-03, 9.00900923e-03,
          4.50450461e-03, 4.50450461e-03, 1.80180185e-02, 0., 0.,
          1.35135138e-02, 9.00900923e-03, 0., 1.80180185e-02, 0.,
          4.50450461e-03, 0., 3.15315314e-02, 2.25225240e-02, 0.,
          4.50450461e-03, 9.00900923e-03, 4.50450461e-03, 4.50450461e-03,
          3.60360369e-02, 9.00900923e-03, 0., 4.50450461e-03,
          4.50450461e-03, 9.00900923e-03, 4.50450461e-03, 9.00900923e-03,
          0., 0., 4.50450461e-03, 2.25225240e-02, 4.50450461e-03, 0., 0.,
          4.50450461e-03, 1.35135138e-02, 0., 4.50450461e-03,
          3.15315314e-02, 0., 9.00900923e-03, 0., 0., 2.25225240e-02, 0.,
          0., 0., 0., 4.50450461e-03, 9.00900923e-03, 0., 4.50450461e-03,
          0., 0., 1.80180185e-02, 4.50450461e-03, 1.80180185e-02,
          4.50450461e-03, 9.00900923e-03, 0., 4.50450461e-03, 0., 0., 0.,
          4.50450461e-03, 9.00900923e-03, 0., 4.50450461e-03, 0., 0., 0.,
          0., 4.50450461e-03, 4.50450461e-03, 0., 0., 0., 0.,
          4.50450461e-03, 0., 0. ]
      - [ 1.13636367e-02, 0., 0., 0., 0., 0., 0., 3.40909101e-02, 0., 0.,
          0., 0., 0., 3.40909101e-02, 0., 0., 0., 0., 0., 0., 0.,
          1.13636367e-02, 0., 0., 0., 0., 0., 0., 0., 0., 0.,
          6.81818202e-02, 0., 0., 0., 0., 0., 0., 0., 1.13636367e-02,
          1.13636367e-02, 0., 0., 0., 0., 0., 0., 0., 0., 0.,
          1.13636367e-02, 0., 0., 0., 4.54545468e-02, 0., 3.40909101e-02,
          0., 0., 1.13636367e-02, 0., 0., 1.13636367e-02, 0.,
          1.13636367e-02, 0., 0., 2.27272734e-02, 0., 1.13636367e-02, 0.,
          0., 0., 0., 0., 0., 0., 0., 0., 0., 0., 0., 0., 4.54545468e-02,
          1.13636367e-02, 0., 0., 2.27272734e-02, 0., 2.27272734e-02,
          1.13636367e-02, 0., 0., 0., 0., 0., 0., 0., 0., 0., 0., 0., 0.,
          0., 0., 0., 0., 1.13636367e-02, 0., 0., 0., 0., 0.,
          6.81818202e-02, 0., 0., 0., 0., 0., 1.13636367e-02, 0., 0., 0.,
          0., 1.13636367e-02, 0., 0., 0., 1.13636367e-02, 1.13636367e-02,
          0., 2.27272734e-02, 0., 0., 0., 0., 0., 0., 0., 1.13636367e-02,
          1.13636367e-02, 1.13636367e-02, 0., 0., 0., 0., 2.27272734e-02,
          1.13636367e-02, 0., 0., 0., 0., 2.27272734e-02, 1.13636367e-02,
          0., 9.09090936e-02, 0., 0., 0., 0., 0., 0., 0., 0., 0., 0.,
          1.13636367e-02, 0., 0., 0., 0., 0., 6.81818202e-02, 0., 0., 0.,
          0., 2.27272734e-02, 0., 0., 0., 0., 0., 1.13636367e-02, 0., 0.,
          0., 1.13636367e-02, 0., 0., 0., 0., 0., 1.13636367e-02,
          6.81818202e-02, 0., 0., 0., 0., 0. ]
      - [ 0., 0., 0., 1.71875000e-01, 0., 0., 0., 1.56250000e-02, 0., 0.,
          3.12500000e-02, 1.25000000e-01, 0., 0., 0., 0., 0., 0., 0., 0.,
          0., 0., 4.68750000e-02, 0., 0., 3.12500000e-02, 0., 0., 0., 0.,
          0., 0., 0., 0., 7.81250000e-02, 0., 0., 0., 0., 0., 0., 0., 0.,
          0., 0., 0., 0., 0., 0., 0., 0., 0., 0., 0., 0., 0., 0., 0., 0.,
          0., 0., 0., 0., 0., 0., 0., 0., 1.56250000e-02, 0., 0., 0., 0.,
          0., 0., 0., 1.56250000e-02, 1.56250000e-02, 0., 3.12500000e-02,
          0., 0., 0., 0., 0., 0., 0., 0., 0., 0., 0., 0., 0., 0., 0., 0.,
          0., 0., 1.56250000e-02, 0., 0., 0., 1.56250000e-02, 0., 0., 0.,
          0., 0., 0., 0., 0., 0., 1.56250000e-02, 1.56250000e-02, 0.,
          1.56250000e-02, 0., 0., 0., 0., 0., 4.68750000e-02, 0., 0., 0.,
          0., 0., 0., 0., 0., 0., 0., 0., 0., 0., 1.56250000e-02, 0., 0.,
          0., 3.12500000e-02, 0., 0., 3.12500000e-02, 0., 0., 0., 0., 0.,
          0., 0., 1.56250000e-02, 1.56250000e-02, 0., 0., 1.56250000e-02,
          4.68750000e-02, 1.56250000e-02, 0., 1.56250000e-02, 0., 0., 0.,
          0., 0., 0., 0., 0., 0., 0., 0., 0., 0., 0., 0., 0., 0., 0., 0.,
          0., 0., 0., 0., 0., 0., 1.56250000e-02, 0., 0., 0., 0., 0., 0.,
          1.56250000e-02, 3.12500000e-02, 0., 0., 3.12500000e-02, 0., 0.,
          0., 0., 0. ]
      - [ 0., 0., 0., 0., 0., 1.14942528e-02, 0., 1.14942528e-02, 0., 0.,
          0., 0., 0., 0., 0., 1.14942528e-02, 0., 0., 2.29885057e-02, 0.,
          1.14942528e-02, 0., 2.29885057e-02, 2.29885057e-02, 0., 0., 0.,
          0., 0., 0., 0., 0., 0., 0., 0., 1.14942528e-02, 1.14942528e-02,
          0., 1.14942528e-02, 0., 0., 1.14942528e-02, 0., 0.,
          2.29885057e-02, 0., 0., 0., 0., 0., 3.44827585e-02, 0., 0., 0.,
          0., 0., 0., 0., 0., 0., 0., 0., 0., 0., 0., 2.29885057e-02,
          1.14942528e-02, 1.14942528e-02, 3.44827585e-02, 0., 0.,
          4.59770113e-02, 0., 0., 0., 0., 0., 0., 0., 1.14942528e-02, 0.,
          0., 1.14942528e-02, 0., 0., 1.14942528e-02, 1.14942528e-02, 0.,
          1.14942528e-02, 0., 0., 0., 0., 0., 0., 3.44827585e-02, 0.,
          1.14942528e-02, 1.14942528e-02, 1.14942528e-02, 0., 0., 0., 0.,
          0., 0., 0., 0., 1.14942528e-02, 0., 0., 1.14942528e-02, 0.,
          1.14942528e-02, 0., 0., 0., 1.14942528e-02, 0., 0., 0., 0., 0.,
          0., 0., 0., 0., 0., 0., 0., 0., 3.44827585e-02, 0., 0., 0.,
          1.14942528e-02, 0., 0., 1.14942528e-02, 0., 0., 1.14942528e-02,
          1.14942528e-02, 2.29885057e-02, 0., 2.29885057e-02, 0., 0., 0.,
          0., 0., 0., 0., 1.14942528e-02, 1.14942528e-02, 0., 0.,
          1.14942528e-02, 0., 0., 0., 4.59770113e-02, 0., 0., 0.,
          1.14942528e-02, 0., 0., 1.14942528e-02, 0., 1.14942528e-02,
          1.14942528e-02, 0., 0., 0., 1.14942528e-02, 1.14942528e-02, 0.,
          0., 1.14942528e-02, 2.29885057e-02, 0., 0., 0., 0., 0., 0., 0.,
          0., 1.14942528e-02, 1.14942528e-02, 0., 0., 0., 0.,
          8.04597735e-02, 0., 0., 1.14942528e-02, 5.74712642e-02 ]
      - [ 0., 0., 0., 1.02564111e-01, 0., 0., 8.54700897e-03, 0., 0.,
          1.70940179e-02, 0., 3.41880359e-02, 0., 0., 0., 0.,
          1.70940179e-02, 0., 0., 0., 0., 0., 0., 0., 8.54700897e-03,
          6.83760718e-02, 0., 0., 0., 0., 0., 8.54700897e-03, 0.,
          8.54700897e-03, 7.69230798e-02, 0., 0., 0., 0., 0., 0., 0.,
          2.56410278e-02, 0., 0., 0., 8.54700897e-03, 0., 0., 0., 0., 0.,
          0., 0., 0., 0., 0., 0., 0., 0., 0., 0., 8.54700897e-03, 0.,
          8.54700897e-03, 0., 0., 0., 0., 0., 0., 0., 0., 8.54700897e-03,
          0., 0., 0., 0., 8.54700897e-03, 0., 0., 0., 0., 0., 0., 0., 0.,
          8.54700897e-03, 0., 8.54700897e-03, 0., 0., 8.54700897e-03,
          8.54700897e-03, 8.54700897e-03, 8.54700897e-03, 1.70940179e-02,
          1.70940179e-02, 0., 0., 0., 8.54700897e-03, 0., 0., 0., 0.,
          8.54700897e-03, 8.54700897e-03, 0., 0., 0., 0., 0.,
          8.54700897e-03, 8.54700897e-03, 0., 2.56410278e-02, 0., 0., 0.,
          1.28205135e-01, 8.54700897e-03, 8.54700897e-03, 0.,
          1.70940179e-02, 0., 0., 8.54700897e-03, 0., 0., 0., 0.,
          2.56410278e-02, 8.54700897e-03, 2.56410278e-02, 1.70940179e-02,
          0., 0., 1.70940179e-02, 8.54700897e-03, 0., 0., 0.,
          8.54700897e-03, 8.54700897e-03, 0., 0., 0., 0., 1.70940179e-02,
          2.56410278e-02, 0., 8.54700897e-03, 0., 8.54700897e-03, 0., 0.,
          0., 8.54700897e-03, 1.70940179e-02, 0., 0., 8.54700897e-03,
          8.54700897e-03, 0., 0., 0., 0., 0., 0., 0., 0., 0.,
          8.54700897e-03, 8.54700897e-03, 0., 0., 0., 8.54700897e-03, 0.,
          0., 0., 0., 0., 0., 0., 0., 0., 0., 0., 8.54700897e-03, 0., 0.,
          0., 0., 0., 0., 0., 0., 0. ]
      - [ 0., 0., 0., 1.23456791e-02, 0., 0., 1.23456791e-02, 0.,
          1.23456791e-02, 2.46913582e-02, 0., 0., 0., 1.23456791e-02, 0.,
          0., 0., 1.23456791e-02, 0., 2.46913582e-02, 1.23456791e-02,
          1.23456791e-02, 0., 0., 1.23456791e-02, 1.23456791e-02, 0., 0.,
          0., 2.46913582e-02, 1.23456791e-02, 2.46913582e-02, 0., 0., 0.,
          0., 0., 0., 0., 0., 1.23456791e-02, 0., 2.46913582e-02, 0., 0.,
          0., 0., 0., 1.23456791e-02, 0., 0., 0., 0., 0., 0., 0., 0., 0.,
          0., 0., 0., 1.23456791e-02, 1.23456791e-02, 0., 0.,
          2.46913582e-02, 0., 0., 0., 0., 1.23456791e-02, 1.23456791e-02,
          2.46913582e-02, 0., 0., 2.46913582e-02, 0., 1.23456791e-02, 0.,
          0., 0., 0., 0., 0., 0., 0., 0., 0., 0., 0., 0., 1.23456791e-02,
          0., 0., 2.46913582e-02, 0., 1.23456791e-02, 0., 0., 0., 0.,
          1.23456791e-02, 0., 0., 0., 0., 1.23456791e-02, 0., 0., 0., 0.,
          2.46913582e-02, 0., 0., 2.46913582e-02, 0., 1.23456791e-02,
          1.23456791e-02, 2.46913582e-02, 0., 0., 0., 0., 0.,
          6.17283955e-02, 0., 1.23456791e-02, 1.23456791e-02, 0., 0.,
          1.23456791e-02, 1.23456791e-02, 3.70370373e-02, 0., 0., 0., 0.,
          1.23456791e-02, 2.46913582e-02, 0., 0., 0., 0., 0.,
          1.23456791e-02, 0., 0., 0., 0., 1.23456791e-02, 1.23456791e-02,
          0., 0., 1.23456791e-02, 0., 1.23456791e-02, 0., 0.,
          1.23456791e-02, 0., 0., 0., 1.23456791e-02, 1.23456791e-02,
          2.46913582e-02, 0., 1.23456791e-02, 0., 0., 0., 0., 0., 0., 0.,
          0., 0., 0., 1.23456791e-02, 0., 0., 0., 0., 0., 0.,
          4.93827164e-02, 0., 1.23456791e-02, 0., 0., 0., 1.23456791e-02,
          0., 0., 0., 1.23456791e-02, 0., 0., 0., 0., 0. ]
      - [ 2.98507456e-02, 0., 0., 0., 0., 0., 0., 0., 0., 0., 0.,
          1.49253728e-02, 0., 0., 0., 0., 0., 0., 0., 0., 0., 0., 0., 0.,
          0., 0., 0., 0., 0., 0., 0., 2.98507456e-02, 0., 0., 0., 0., 0.,
          0., 0., 2.98507456e-02, 0., 0., 0., 0., 0., 0., 0.,
          2.98507456e-02, 0., 0., 0., 0., 0., 0., 0., 0., 0., 0., 0., 0.,
          0., 1.49253728e-02, 0., 0., 0., 0., 0., 0., 0., 0., 0., 0.,
          1.49253728e-02, 0., 0., 0., 0., 0., 0., 0., 0., 0., 0., 0.,
          1.49253728e-02, 0., 0., 0., 0., 0., 0., 0., 0., 0., 0.,
          1.49253728e-02, 1.49253728e-02, 0., 0., 0., 0., 4.47761193e-02,
          0., 0., 0., 0., 0., 0., 0., 0., 0., 0., 0., 1.49253728e-02, 0.,
          0., 0., 0., 0., 0., 0., 0., 0., 0., 0., 0., 0., 0., 0., 0., 0.,
          8.95522386e-02, 1.49253728e-02, 0., 0., 0., 0., 0., 0., 0.,
          1.49253728e-02, 0., 0., 0., 0., 0., 3.13432842e-01,
          1.49253728e-02, 0., 0., 0., 1.49253728e-02, 0., 4.47761193e-02,
          0., 1.79104477e-01, 0., 0., 0., 0., 0., 0., 0., 0., 0., 0.,
          4.47761193e-02, 0., 0., 0., 0., 0., 0., 0., 0., 0., 0., 0., 0.,
          0., 0., 0., 0., 0., 0., 0., 0., 0., 0., 0., 0., 0., 0., 0., 0.,
          0., 0., 0., 0., 0. ]
      - [ 1.99999996e-02, 0., 0., 0., 0., 0., 0., 3.99999991e-02,
          3.99999991e-02, 0., 1.99999996e-02, 1.99999996e-02,
          1.99999996e-02, 1.99999996e-02, 0., 1.99999996e-02,
          1.99999996e-02, 0., 1.99999996e-02, 0., 0., 0., 0.,
          1.99999996e-02, 0., 0., 0., 0., 0., 0., 0., 0., 0., 0., 0., 0.,
          0., 0., 1.99999996e-02, 0., 0., 0., 0., 0., 0., 1.99999996e-02,
          0., 0., 1.99999996e-02, 0., 0., 5.99999987e-02, 1.99999996e-02,
          0., 0., 0., 0., 0., 1.99999996e-02, 0., 0., 0., 0., 0., 0., 0.,
          0., 1.99999996e-02, 0., 0., 0., 0., 0., 0., 0., 0., 0., 0., 0.,
          0., 0., 0., 0., 1.99999996e-02, 0., 0., 1.99999996e-02, 0., 0.,
          1.99999996e-02, 0., 0., 0., 0., 0., 0., 0., 0., 1.99999996e-02,
          0., 0., 1.99999996e-02, 0., 0., 5.99999987e-02, 0., 0., 0., 0.,
          1.99999996e-02, 0., 0., 0., 0., 0., 0., 1.99999996e-02, 0., 0.,
          0., 0., 0., 0., 0., 1.99999996e-02, 0., 0., 0., 0., 0., 0., 0.,
          1.99999996e-02, 0., 0., 3.99999991e-02, 0., 1.99999996e-02, 0.,
          1.99999996e-02, 0., 0., 5.99999987e-02, 0., 0., 0., 0., 0.,
          1.99999996e-02, 1.99999996e-02, 0., 0., 0., 0., 0.,
          1.99999996e-02, 1.99999996e-02, 1.99999996e-02, 0.,
          1.99999996e-02, 0., 0., 0., 0., 0., 0., 1.99999996e-02, 0., 0.,
          0., 0., 0., 0., 0., 0., 0., 0., 0., 0., 0., 0., 0., 0., 0., 0.,
          0., 0., 0., 0., 0., 0., 0., 0., 1.99999996e-02, 0., 0., 0., 0.,
          1.99999996e-02, 0. ]
      - [ 0., 2.70270277e-02, 0., 0., 0., 0., 0., 0., 0., 2.70270277e-02,
          0., 0., 0., 0., 0., 0., 0., 0., 0., 0., 0., 0., 0.,
          2.70270277e-02, 0., 0., 0., 0., 0., 8.10810849e-02, 0., 0.,
          2.70270277e-02, 0., 0., 0., 2.70270277e-02, 2.70270277e-02, 0.,
          0., 0., 0., 0., 0., 0., 0., 0., 2.70270277e-02, 0., 0., 0., 0.,
          0., 0., 0., 0., 0., 0., 0., 0., 0., 0., 0., 0., 0.,
          2.70270277e-02, 0., 0., 0., 2.70270277e-02, 0., 0., 0., 0.,
          2.70270277e-02, 0., 0., 2.70270277e-02, 0., 0., 0., 0., 0.,
          5.40540554e-02, 0., 0., 0., 0., 0., 0., 0., 0., 0., 0.,
          2.70270277e-02, 0., 0., 0., 2.70270277e-02, 0., 0., 0., 0., 0.,
          0., 0., 0., 0., 0., 0., 0., 0., 2.70270277e-02, 0., 0., 0.,
          2.70270277e-02, 2.70270277e-02, 2.70270277e-02, 0., 0., 0., 0.,
          0., 0., 0., 0., 0., 0., 2.70270277e-02, 0., 0., 0., 0., 0., 0.,
          0., 0., 0., 2.70270277e-02, 0., 0., 0., 0., 0., 0., 0.,
          2.70270277e-02, 0., 0., 0., 0., 2.70270277e-02, 5.40540554e-02,
          0., 0., 0., 0., 2.70270277e-02, 2.70270277e-02, 0., 0., 0.,
          2.70270277e-02, 0., 0., 0., 0., 0., 0., 0., 0., 0., 0., 0., 0.,
          0., 0., 0., 0., 0., 0., 0., 0., 0., 0., 0., 5.40540554e-02, 0.,
          0., 2.70270277e-02, 5.40540554e-02, 0., 0., 0., 2.70270277e-02,
          0., 0., 0., 0. ]
      - [ 1.36986300e-02, 0., 0., 1.36986300e-02, 0., 0., 0.,
          4.10958901e-02, 0., 0., 0., 0., 0., 1.36986300e-02, 0., 0., 0.,
          0., 0., 0., 0., 0., 0., 0., 0., 1.36986300e-02, 0., 0., 0., 0.,
          0., 0., 0., 0., 0., 0., 1.36986300e-02, 5.47945201e-02,
          1.36986300e-02, 1.36986300e-02, 1.36986300e-02, 0., 0., 0., 0.,
          0., 2.73972601e-02, 1.36986300e-02, 0., 0., 0., 0., 0., 0., 0.,
          0., 1.36986300e-02, 0., 0., 0., 0., 2.73972601e-02, 0., 0.,
          2.73972601e-02, 1.36986300e-02, 0., 0., 0., 0., 0.,
          1.36986300e-02, 0., 0., 0., 0., 0., 0., 0., 0., 0., 0., 0.,
          1.36986300e-02, 2.73972601e-02, 0., 1.36986300e-02, 0., 0.,
          1.36986300e-02, 1.36986300e-02, 0., 0., 0., 0., 0., 0., 0., 0.,
          0., 1.36986300e-02, 0., 0., 0., 0., 0., 0., 0., 0.,
          1.36986300e-02, 0., 1.36986300e-02, 0., 4.10958901e-02, 0., 0.,
          0., 0., 1.36986300e-02, 0., 0., 0., 0., 0., 2.73972601e-02, 0.,
          0., 0., 0., 1.36986300e-02, 0., 1.36986300e-02, 0.,
          4.10958901e-02, 0., 0., 0., 1.36986300e-02, 0., 0.,
          1.36986300e-02, 0., 0., 0., 0., 0., 2.73972601e-02, 0.,
          2.73972601e-02, 0., 0., 1.36986300e-02, 4.10958901e-02,
          2.73972601e-02, 0., 8.21917802e-02, 0., 1.36986300e-02, 0., 0.,
          0., 0., 0., 1.36986300e-02, 0., 0., 0., 0., 1.36986300e-02, 0.,
          0., 0., 1.36986300e-02, 0., 0., 0., 0., 1.36986300e-02, 0., 0.,
          0., 0., 0., 0., 0., 0., 0., 0., 0., 1.36986300e-02, 0., 0., 0.,
          0., 5.47945201e-02, 0., 0., 0., 0., 0. ]
      - [ 0., 1.27388537e-02, 0., 0., 0., 6.36942685e-03, 0.,
          1.27388537e-02, 0., 6.36942685e-03, 0., 6.36942685e-03,
          1.27388537e-02, 6.36942685e-03, 0., 6.36942685e-03,
          6.36942685e-03, 6.36942685e-03, 3.18471342e-02, 0., 0., 0.,
          1.27388537e-02, 0., 0., 0., 1.27388537e-02, 0., 0.,
          1.27388537e-02, 6.36942685e-03, 0., 0., 0., 6.36942685e-03,
          1.27388537e-02, 6.36942685e-03, 1.27388537e-02, 1.27388537e-02,
          0., 0., 0., 0., 1.27388537e-02, 0., 1.27388537e-02, 0., 0., 0.,
          6.36942685e-03, 0., 0., 0., 1.27388537e-02, 0., 0., 0., 0.,
          6.36942685e-03, 6.36942685e-03, 0., 0., 6.36942685e-03,
          1.91082805e-02, 0., 0., 3.82165611e-02, 1.27388537e-02,
          2.54777074e-02, 1.27388537e-02, 0., 1.91082805e-02,
          4.45859879e-02, 0., 0., 1.27388537e-02, 6.36942685e-03,
          6.36942685e-03, 1.27388537e-02, 0., 1.27388537e-02,
          6.36942685e-03, 0., 6.36942685e-03, 0., 0., 0., 0.,
          6.36942685e-03, 1.27388537e-02, 0., 0., 0., 0., 0., 0., 0., 0.,
          2.54777074e-02, 6.36942685e-03, 0., 0., 1.27388537e-02, 0., 0.,
          0., 0., 0., 6.36942685e-03, 0., 1.91082805e-02, 0., 0., 0., 0.,
          0., 1.91082805e-02, 6.36942685e-03, 1.91082805e-02, 0., 0., 0.,
          0., 0., 6.36942685e-03, 1.27388537e-02, 0., 6.36942685e-03, 0.,
          6.36942685e-03, 1.91082805e-02, 6.36942685e-03, 0., 0.,
          6.36942685e-03, 0., 6.36942685e-03, 0., 0., 6.36942685e-03,
          6.36942685e-03, 0., 6.36942685e-03, 0., 0., 6.36942685e-03, 0.,
          0., 0., 0., 0., 0., 3.18471342e-02, 6.36942685e-03,
          1.27388537e-02, 6.36942685e-03, 6.36942685e-03, 0.,
          1.27388537e-02, 6.36942685e-03, 6.36942685e-03, 6.36942685e-03,
          6.36942685e-03, 0., 6.36942685e-03, 0., 0., 0., 0.,
          1.27388537e-02, 6.36942685e-03, 0., 1.91082805e-02,
          6.36942685e-03, 0., 6.36942685e-03, 6.36942685e-03,
          1.27388537e-02, 0., 1.27388537e-02, 0., 6.36942685e-03,
          1.27388537e-02, 0., 6.36942685e-03, 0., 0., 2.54777074e-02, 0.,
          0., 6.36942685e-03, 0., 6.36942685e-03, 0., 0., 0., 0., 0., 0.,
          6.36942685e-03 ]
      - [ 0., 0., 0., 1.23966932e-02, 4.13223123e-03, 0., 0., 0.,
          1.65289249e-02, 4.13223123e-03, 0., 8.26446246e-03, 0., 0., 0.,
          4.13223123e-03, 1.23966932e-02, 4.13223123e-03, 8.26446246e-03,
          4.13223123e-03, 1.65289249e-02, 0., 1.23966932e-02,
          8.26446246e-03, 0., 4.13223123e-03, 0., 4.13223123e-03,
          4.13223123e-03, 0., 0., 0., 0., 0., 4.13223123e-03,
          4.13223123e-03, 0., 1.65289249e-02, 8.26446246e-03,
          4.13223123e-03, 4.13223123e-03, 0., 8.26446246e-03, 0., 0.,
          4.13223123e-03, 4.13223123e-03, 0., 0., 4.13223123e-03, 0.,
          4.13223123e-03, 4.13223123e-03, 0., 0., 0., 4.13223123e-03,
          4.13223123e-03, 8.26446246e-03, 0., 8.26446246e-03,
          2.06611566e-02, 0., 4.13223123e-03, 0., 1.23966932e-02,
          3.30578499e-02, 0., 1.23966932e-02, 4.13223123e-03,
          4.13223123e-03, 1.23966932e-02, 1.65289249e-02, 0., 0., 0., 0.,
          4.13223123e-03, 8.26446246e-03, 4.13223123e-03, 4.13223123e-03,
          0., 8.26446246e-03, 0., 1.65289249e-02, 4.13223123e-03, 0.,
          4.13223123e-03, 0., 4.13223123e-03, 4.13223123e-03, 0., 0.,
          4.13223123e-03, 0., 0., 0., 4.13223123e-03, 4.13223123e-03,
          4.13223123e-03, 0., 1.23966932e-02, 4.13223123e-03, 0.,
          4.13223123e-03, 0., 4.13223123e-03, 0., 0., 8.26446246e-03,
          4.13223123e-03, 4.13223123e-03, 0., 0., 0., 0., 1.23966932e-02,
          4.13223123e-03, 1.65289249e-02, 0., 4.13223123e-03,
          4.13223123e-03, 0., 1.23966932e-02, 8.26446246e-03, 0.,
          8.26446246e-03, 0., 4.13223123e-03, 0., 4.13223123e-03,
          4.95867729e-02, 0., 0., 4.13223123e-03, 4.13223123e-03, 0.,
          4.13223123e-03, 1.23966932e-02, 1.23966932e-02, 1.23966932e-02,
          4.13223123e-03, 0., 8.26446246e-03, 4.13223123e-03,
          4.13223123e-03, 0., 0., 4.13223123e-03, 0., 0., 4.13223123e-03,
          8.67768526e-02, 0., 8.26446246e-03, 2.47933865e-02,
          4.13223123e-03, 4.13223123e-03, 4.13223123e-03, 1.23966932e-02,
          0., 0., 0., 8.26446246e-03, 0., 8.26446246e-03, 0.,
          8.26446246e-03, 1.23966932e-02, 4.13223123e-03, 4.13223123e-03,
          0., 4.13223123e-03, 1.65289249e-02, 0., 1.65289249e-02,
          8.26446246e-03, 4.13223123e-03, 0., 0., 0., 0., 1.23966932e-02,
          4.13223123e-03, 8.26446246e-03, 8.26446246e-03, 0., 0., 0., 0.,
          1.23966932e-02, 8.26446246e-03, 1.65289249e-02, 4.13223123e-03,
          0., 0., 0., 0., 4.13223123e-03, 1.23966932e-02 ]
      - [ 3.09278332e-02, 0., 0., 1.03092780e-02, 1.03092780e-02, 0., 0.,
          0., 1.03092780e-02, 0., 1.03092780e-02, 0., 0., 0., 0., 0.,
          1.03092780e-02, 0., 0., 2.06185561e-02, 0., 0., 0.,
          3.09278332e-02, 0., 1.03092780e-02, 1.03092780e-02,
          1.03092780e-02, 0., 1.03092780e-02, 0., 0., 0., 2.06185561e-02,
          0., 1.03092780e-02, 0., 0., 0., 0., 1.03092780e-02, 0.,
          1.03092780e-02, 1.03092780e-02, 2.06185561e-02, 1.03092780e-02,
          0., 0., 0., 0., 0., 0., 0., 1.03092780e-02, 0., 0., 0., 0., 0.,
          0., 0., 0., 0., 1.03092780e-02, 0., 0., 0., 0., 2.06185561e-02,
          0., 2.06185561e-02, 3.09278332e-02, 1.03092780e-02, 0.,
          1.03092780e-02, 0., 0., 2.06185561e-02, 1.03092780e-02, 0.,
          1.03092780e-02, 0., 1.03092780e-02, 0., 0., 0., 0., 0., 0., 0.,
          0., 0., 0., 0., 1.03092780e-02, 0., 0., 0., 0., 0.,
          1.03092780e-02, 1.03092780e-02, 1.03092780e-02, 0., 0., 0., 0.,
          1.03092780e-02, 2.06185561e-02, 2.06185561e-02, 1.03092780e-02,
          0., 0., 0., 1.03092780e-02, 0., 0., 0., 0., 0., 1.03092780e-02,
          1.03092780e-02, 0., 0., 1.03092780e-02, 0., 0., 0., 0.,
          4.12371121e-02, 1.03092780e-02, 1.03092780e-02, 1.03092780e-02,
          0., 0., 2.06185561e-02, 0., 1.03092780e-02, 3.09278332e-02, 0.,
          0., 0., 4.12371121e-02, 0., 1.03092780e-02, 0., 0.,
          1.03092780e-02, 0., 0., 0., 0., 0., 1.03092780e-02,
          3.09278332e-02, 1.03092780e-02, 1.03092780e-02, 0.,
          2.06185561e-02, 5.15463911e-02, 0., 0., 1.03092780e-02, 0., 0.,
          0., 1.03092780e-02, 0., 0., 0., 0., 0., 1.03092780e-02, 0.,
          1.03092780e-02, 1.03092780e-02, 0., 0., 0., 1.03092780e-02, 0.,
          0., 1.03092780e-02, 0., 0., 0., 0., 0., 0., 0., 0., 0.,
          1.03092780e-02, 0., 0., 0., 0., 0., 1.03092780e-02, 0. ]
      - [ 1.76991150e-02, 3.53982300e-02, 0., 0., 0., 0., 0., 0., 0.,
          8.84955749e-03, 0., 0., 1.76991150e-02, 3.53982300e-02,
          8.84955749e-03, 8.84955749e-03, 0., 0., 0., 0., 0., 0., 0.,
          1.76991150e-02, 0., 0., 0., 0., 0., 0., 8.84955749e-03,
          8.84955749e-03, 0., 0., 0., 8.84955749e-03, 8.84955749e-03,
          8.84955749e-03, 8.84955749e-03, 0., 0., 0., 0., 0., 0., 0., 0.,
          0., 8.84955749e-03, 0., 0., 0., 8.84955749e-03, 8.84955749e-03,
          7.07964599e-02, 0., 0., 0., 0., 0., 0., 0., 0., 1.76991150e-02,
          8.84955749e-03, 0., 2.65486725e-02, 0., 8.84955749e-03, 0., 0.,
          8.84955749e-03, 3.53982300e-02, 0., 0., 0., 0., 0., 0., 0.,
          8.84955749e-03, 8.84955749e-03, 0., 1.76991150e-02,
          8.84955749e-03, 0., 8.84955749e-03, 0., 0., 8.84955749e-03,
          8.84955749e-03, 0., 0., 0., 2.65486725e-02, 0., 0.,
          8.84955749e-03, 0., 0., 0., 0., 3.53982300e-02, 0., 0., 0., 0.,
          0., 0., 1.76991150e-02, 0., 1.76991150e-02, 0., 8.84955749e-03,
          0., 0., 8.84955749e-03, 8.84955749e-03, 3.53982300e-02, 0., 0.,
          8.84955749e-03, 8.84955749e-03, 0., 0., 8.84955749e-03, 0., 0.,
          0., 8.84955749e-03, 0., 2.65486725e-02, 0., 1.76991150e-02, 0.,
          0., 0., 1.76991150e-02, 8.84955749e-03, 0., 8.84955749e-03, 0.,
          8.84955749e-03, 0., 0., 0., 1.76991150e-02, 0., 8.84955749e-03,
          0., 0., 0., 1.76991150e-02, 0., 0., 3.53982300e-02, 0., 0., 0.,
          0., 0., 0., 0., 0., 8.84955749e-03, 0., 1.76991150e-02, 0.,
          8.84955749e-03, 0., 0., 0., 3.53982300e-02, 0., 0., 0., 0., 0.,
          0., 0., 0., 0., 0., 0., 0., 0., 0., 1.76991150e-02, 0., 0., 0.,
          0., 0., 0., 4.42477874e-02, 8.84955749e-03, 0., 0., 0.,
          8.84955749e-03 ]
      - [ 0., 2.17391308e-02, 0., 0., 0., 0., 0., 0., 1.44927539e-02,
          7.24637695e-03, 0., 1.44927539e-02, 0., 7.24637695e-03, 0.,
          7.24637695e-03, 0., 0., 0., 0., 0., 1.44927539e-02, 0.,
          1.44927539e-02, 0., 7.24637695e-03, 0., 0., 0., 0., 0.,
          7.24637695e-03, 0., 0., 0., 0., 4.34782617e-02, 0.,
          1.44927539e-02, 7.24637695e-03, 7.24637695e-03, 0.,
          7.24637695e-03, 1.44927539e-02, 0., 7.24637695e-03, 0.,
          7.24637695e-03, 7.24637695e-03, 0., 7.24637695e-03,
          7.24637695e-03, 1.44927539e-02, 0., 1.44927539e-02, 0., 0., 0.,
          0., 0., 0., 7.24637695e-03, 7.24637695e-03, 0., 0., 0.,
          7.24637695e-03, 0., 7.24637695e-03, 0., 0., 7.24637695e-03,
          2.89855078e-02, 0., 0., 0., 0., 0., 0., 7.24637695e-03,
          2.89855078e-02, 3.62318829e-02, 0., 1.44927539e-02, 0.,
          7.24637695e-03, 0., 0., 0., 0., 0., 0., 0., 0., 7.24637695e-03,
          0., 0., 0., 7.24637695e-03, 0., 0., 2.17391308e-02, 0., 0., 0.,
          7.24637695e-03, 1.44927539e-02, 0., 7.24637695e-03, 0., 0.,
          7.24637695e-03, 7.24637695e-03, 1.44927539e-02, 0., 0.,
          7.24637695e-03, 0., 7.24637695e-03, 0., 0., 0., 0., 0., 0., 0.,
          7.24637695e-03, 0., 1.44927539e-02, 1.44927539e-02, 0.,
          7.24637695e-03, 0., 7.24637695e-03, 7.24637695e-03, 0.,
          1.44927539e-02, 7.24637695e-03, 0., 7.24637695e-03,
          2.17391308e-02, 0., 0., 1.44927539e-02, 0., 1.44927539e-02,
          7.24637695e-03, 0., 0., 0., 7.24637695e-03, 0., 4.34782617e-02,
          0., 0., 5.07246405e-02, 7.24637695e-03, 0., 0., 2.89855078e-02,
          0., 0., 0., 0., 0., 0., 7.24637695e-03, 7.24637695e-03, 0.,
          1.44927539e-02, 0., 2.89855078e-02, 0., 0., 0., 0.,
          7.24637695e-03, 0., 7.24637695e-03, 0., 0., 0., 7.24637695e-03,
          0., 0., 7.24637695e-03, 0., 1.44927539e-02, 0., 1.44927539e-02,
          0., 0., 0., 7.24637695e-03, 1.44927539e-02, 7.24637695e-03,
          7.24637695e-03, 7.24637695e-03, 7.24637695e-03, 7.24637695e-03 ]
      - [ 5.81395347e-03, 2.32558139e-02, 0., 1.16279069e-02, 0.,
          1.16279069e-02, 0., 4.65116277e-02, 5.81395347e-03,
          5.81395347e-03, 0., 5.81395347e-03, 5.81395347e-03, 0.,
          5.81395347e-03, 1.16279069e-02, 0., 5.81395347e-03,
          2.32558139e-02, 0., 1.16279069e-02, 0., 5.81395347e-03, 0., 0.,
          0., 0., 0., 0., 0., 0., 0., 1.16279069e-02, 5.81395347e-03,
          5.81395347e-03, 5.81395347e-03, 0., 5.81395347e-03, 0., 0.,
          1.74418613e-02, 0., 0., 5.81395347e-03, 0., 5.81395347e-03, 0.,
          0., 5.81395347e-03, 0., 5.81395347e-03, 5.81395347e-03, 0.,
          5.81395347e-03, 1.16279069e-02, 0., 5.81395347e-03, 0., 0.,
          1.16279069e-02, 5.81395347e-03, 0., 0., 5.81395347e-03, 0.,
          2.90697664e-02, 2.32558139e-02, 5.81395347e-03, 1.16279069e-02,
          0., 0., 5.81395347e-03, 0., 0., 0., 5.81395347e-03, 0.,
          2.32558139e-02, 0., 5.81395347e-03, 5.81395347e-03,
          5.81395347e-03, 5.81395347e-03, 5.81395347e-03, 0., 0., 0.,
          5.81395347e-03, 5.81395347e-03, 0., 3.48837227e-02, 0., 0., 0.,
          0., 0., 0., 5.81395347e-03, 1.16279069e-02, 0., 0.,
          2.32558139e-02, 1.16279069e-02, 0., 5.81395347e-03, 0.,
          1.16279069e-02, 5.81395347e-03, 5.81395347e-03, 1.16279069e-02,
          5.81395347e-03, 0., 0., 0., 0., 0., 2.32558139e-02,
          5.81395347e-03, 1.16279069e-02, 0., 1.16279069e-02,
          5.81395347e-03, 0., 5.81395347e-03, 1.16279069e-02, 0.,
          1.16279069e-02, 0., 0., 0., 0., 1.16279069e-02, 0., 0.,
          5.81395347e-03, 0., 5.81395347e-03, 0., 0., 5.81395347e-03,
          1.16279069e-02, 0., 2.90697664e-02, 0., 0., 0., 0., 0., 0.,
          5.81395347e-03, 1.74418613e-02, 5.81395347e-03, 5.81395347e-03,
          0., 0., 1.74418613e-02, 1.16279069e-02, 0., 5.81395347e-03, 0.,
          0., 5.81395347e-03, 0., 5.81395347e-03, 0., 5.81395347e-03,
          1.74418613e-02, 0., 5.81395347e-03, 1.16279069e-02, 0., 0.,
          1.16279069e-02, 5.81395347e-03, 5.81395347e-03, 1.16279069e-02,
          0., 5.81395347e-03, 5.81395347e-03, 0., 0., 0., 0., 0., 0.,
          1.16279069e-02, 1.16279069e-02, 0., 1.16279069e-02, 0., 0., 0.,
          0., 5.81395347e-03, 5.81395347e-03, 5.81395347e-03,
          5.81395347e-03, 1.74418613e-02, 0., 5.81395347e-03 ]
      - [ 0., 0., 0., 2.50000004e-02, 0., 0., 0., 0., 0., 0., 0., 0., 0.,
          0., 0., 2.50000004e-02, 0., 0., 0., 2.50000004e-02, 0., 0., 0.,
          0., 0., 2.50000004e-02, 0., 0., 0., 0., 0., 2.50000004e-02, 0.,
          5.00000007e-02, 7.50000030e-02, 0., 0., 0., 0., 0., 0., 0., 0.,
          0., 0., 0., 0., 0., 0., 0., 2.50000004e-02, 0., 0., 0., 0., 0.,
          2.50000004e-02, 0., 0., 0., 2.50000004e-02, 0., 0., 0., 0., 0.,
          0., 0., 0., 0., 2.50000004e-02, 0., 0., 0., 0., 2.50000004e-02,
          0., 0., 0., 0., 0., 2.50000004e-02, 0., 0., 2.50000004e-02, 0.,
          0., 0., 0., 0., 0., 0., 0., 0., 0., 0., 0., 0., 0., 0., 0., 0.,
          0., 0., 0., 0., 0., 0., 0., 0., 0., 0., 0., 0., 0., 0., 0., 0.,
          0., 0., 0., 0., 2.50000004e-02, 0., 0., 0., 2.50000004e-02, 0.,
          0., 0., 0., 2.50000004e-02, 5.00000007e-02, 0., 0.,
          5.00000007e-02, 0., 0., 2.50000004e-02, 1.00000001e-01, 0., 0.,
          0., 0., 0., 5.00000007e-02, 0., 0., 0., 0., 0., 2.50000004e-02,
          0., 0., 0., 0., 0., 0., 0., 2.50000004e-02, 0., 0., 0., 0., 0.,
          0., 0., 0., 0., 0., 0., 0., 0., 0., 0., 0., 0., 2.50000004e-02,
          0., 0., 0., 0., 0., 2.50000004e-02, 5.00000007e-02,
          2.50000004e-02, 0., 0., 0., 2.50000004e-02, 0., 0.,
          2.50000004e-02, 0., 0., 0., 0., 0., 0., 0. ]
      - [ 0., 0., 0., 4.37956192e-02, 0., 0., 7.29927002e-03, 0.,
          7.29927002e-03, 7.29927002e-03, 0., 0., 0., 0., 0., 0., 0., 0.,
          0., 2.18978096e-02, 0., 0., 0., 1.45985400e-02, 0.,
          3.64963487e-02, 7.29927002e-03, 7.29927002e-03, 0.,
          1.45985400e-02, 0., 0., 0., 0., 7.29926974e-02, 0., 0.,
          2.18978096e-02, 0., 0., 2.18978096e-02, 0., 2.91970801e-02, 0.,
          0., 0., 0., 7.29927002e-03, 0., 0., 0., 0., 0., 0., 0., 0.,
          7.29927002e-03, 0., 0., 7.29927002e-03, 0., 0., 7.29927002e-03,
          7.29927002e-03, 1.45985400e-02, 0., 7.29927002e-03,
          7.29927002e-03, 7.29927002e-03, 0., 1.45985400e-02,
          1.45985400e-02, 0., 0., 7.29927002e-03, 7.29927002e-03, 0.,
          1.45985400e-02, 7.29927002e-03, 0., 2.18978096e-02, 0., 0., 0.,
          0., 7.29927002e-03, 0., 0., 0., 1.45985400e-02, 0.,
          1.45985400e-02, 2.18978096e-02, 0., 0., 0., 0., 0., 0.,
          7.29927002e-03, 0., 2.91970801e-02, 0., 0., 0., 0., 0.,
          7.29927002e-03, 0., 0., 0., 1.45985400e-02, 0., 0.,
          7.29927002e-03, 0., 2.91970801e-02, 0., 0., 0., 4.37956192e-02,
          0., 0., 0., 0., 0., 0., 7.29927002e-03, 0., 0., 0., 0.,
          2.18978096e-02, 0., 2.91970801e-02, 2.18978096e-02, 0., 0.,
          2.18978096e-02, 2.18978096e-02, 0., 0., 1.45985400e-02,
          2.18978096e-02, 7.29927002e-03, 0., 7.29927002e-03, 0., 0.,
          1.45985400e-02, 1.45985400e-02, 0., 7.29927002e-03, 0., 0., 0.,
          0., 0., 1.45985400e-02, 1.45985400e-02, 0., 0., 0., 0., 0., 0.,
          0., 7.29927002e-03, 0., 0., 0., 0., 0., 7.29927002e-03, 0.,
          7.29927002e-03, 0., 7.29927002e-03, 0., 7.29927002e-03, 0., 0.,
          0., 7.29927002e-03, 2.18978096e-02, 0., 0., 0., 0., 0., 0.,
          1.45985400e-02, 0., 0., 0., 7.29927002e-03, 0., 0., 0., 0. ]
      - [ 1.74418613e-02, 1.16279069e-02, 1.16279069e-02, 1.16279069e-02,
          0., 1.16279069e-02, 5.81395347e-03, 0., 5.81395347e-03,
          1.16279069e-02, 0., 0., 0., 0., 5.81395347e-03, 1.74418613e-02,
          5.81395347e-03, 0., 0., 0., 0., 5.81395347e-03, 0., 0., 0.,
          2.32558139e-02, 5.81395347e-03, 5.81395347e-03, 0.,
          5.81395347e-03, 0., 5.81395347e-03, 0., 5.81395347e-03, 0., 0.,
          0., 0., 2.32558139e-02, 0., 5.81395347e-03, 5.81395347e-03, 0.,
          5.81395347e-03, 5.81395347e-03, 0., 5.81395347e-03,
          1.16279069e-02, 0., 0., 0., 0., 5.81395347e-03, 5.81395347e-03,
          0., 0., 5.81395347e-03, 5.81395347e-03, 0., 1.16279069e-02, 0.,
          0., 5.81395347e-03, 5.81395347e-03, 5.81395347e-03, 0.,
          1.74418613e-02, 0., 2.32558139e-02, 0., 0., 5.81395347e-03,
          5.81395347e-03, 0., 1.16279069e-02, 1.16279069e-02,
          5.81395347e-03, 5.81395347e-03, 0., 5.81395347e-03, 0.,
          2.32558139e-02, 1.16279069e-02, 1.16279069e-02, 1.74418613e-02,
          5.81395347e-03, 5.81395347e-03, 1.16279069e-02, 5.81395347e-03,
          1.16279069e-02, 0., 0., 0., 5.81395347e-03, 0., 0.,
          5.81395347e-03, 0., 5.81395347e-03, 1.74418613e-02, 0.,
          2.32558139e-02, 5.81395347e-03, 0., 5.81395347e-03, 0., 0.,
          5.81395347e-03, 5.81395347e-03, 5.81395347e-03, 5.81395347e-03,
          1.16279069e-02, 0., 5.81395347e-03, 0., 5.81395347e-03,
          1.74418613e-02, 0., 5.81395347e-03, 0., 5.81395347e-03,
          5.81395347e-03, 5.81395347e-03, 0., 0., 0., 1.74418613e-02, 0.,
          0., 1.74418613e-02, 0., 1.74418613e-02, 1.16279069e-02, 0., 0.,
          0., 0., 1.74418613e-02, 1.16279069e-02, 1.16279069e-02,
          5.81395347e-03, 5.81395347e-03, 1.16279069e-02, 1.16279069e-02,
          0., 0., 2.32558139e-02, 0., 5.81395347e-03, 0., 5.81395347e-03,
          1.16279069e-02, 5.81395347e-03, 0., 1.74418613e-02,
          1.16279069e-02, 0., 0., 5.81395347e-03, 1.16279069e-02,
          1.74418613e-02, 0., 0., 0., 0., 5.81395347e-03, 5.81395347e-03,
          1.74418613e-02, 5.81395347e-03, 5.81395347e-03, 0., 0., 0., 0.,
          0., 0., 5.81395347e-03, 0., 0., 0., 0., 0., 0., 0.,
          5.81395347e-03, 0., 0., 0., 0., 0., 1.74418613e-02, 0., 0.,
          5.81395347e-03, 0., 1.74418613e-02, 5.81395347e-03, 0., 0., 0. ]
      - [ 0., 2.81690136e-02, 0., 5.63380271e-02, 0., 1.40845068e-02, 0.,
          0., 0., 0., 1.40845068e-02, 0., 1.40845068e-02, 1.40845068e-02,
          0., 0., 0., 0., 1.40845068e-02, 0., 0., 1.40845068e-02, 0.,
          1.40845068e-02, 0., 1.40845068e-02, 0., 0., 0., 0., 0., 0., 0.,
          0., 4.22535203e-02, 0., 0., 0., 0., 1.40845068e-02, 0., 0., 0.,
          0., 0., 0., 0., 0., 0., 0., 0., 0., 0., 0., 0., 0., 0., 0., 0.,
          0., 0., 0., 0., 1.40845068e-02, 0., 0., 2.81690136e-02,
          1.40845068e-02, 0., 1.40845068e-02, 0., 0., 1.40845068e-02, 0.,
          0., 1.40845068e-02, 0., 0., 0., 0., 0., 1.40845068e-02, 0., 0.,
          0., 0., 0., 0., 0., 1.40845068e-02, 1.40845068e-02, 0., 0., 0.,
          0., 0., 0., 0., 5.63380271e-02, 0., 0., 9.85915512e-02,
          1.40845068e-02, 0., 0., 0., 0., 0., 0., 1.40845068e-02, 0., 0.,
          0., 0., 1.40845068e-02, 0., 0., 0., 1.40845068e-02, 0.,
          8.45070407e-02, 0., 0., 0., 0., 0., 1.40845068e-02, 0., 0., 0.,
          1.40845068e-02, 0., 0., 0., 2.81690136e-02, 1.40845068e-02,
          1.40845068e-02, 0., 1.40845068e-02, 0., 0., 0., 0., 0., 0., 0.,
          7.04225302e-02, 0., 1.40845068e-02, 0., 0., 0., 1.40845068e-02,
          0., 0., 1.40845068e-02, 0., 0., 0., 0., 0., 0., 0., 0., 0., 0.,
          0., 0., 0., 1.40845068e-02, 0., 0., 0., 0., 1.40845068e-02, 0.,
          0., 1.40845068e-02, 0., 1.40845068e-02, 0., 0., 0., 0., 0., 0.,
          0., 0., 0., 0., 1.40845068e-02, 1.40845068e-02, 0., 0., 0., 0.,
          0., 0., 0., 1.40845068e-02 ]
      - [ 0., 0., 0., 1.28571436e-01, 0., 0., 0., 0., 0., 0., 0., 0., 0.,
          0., 0., 0., 0., 1.42857144e-02, 0., 0., 0., 0., 0., 0., 0., 0.,
          0., 2.85714287e-02, 0., 0., 0., 1.42857144e-02, 0.,
          1.42857144e-02, 0., 0., 0., 0., 0., 0., 0., 0., 0.,
          1.42857144e-02, 0., 2.85714287e-02, 0., 0., 0., 0., 0., 0., 0.,
          0., 0., 0., 1.42857144e-02, 0., 0., 0., 5.71428575e-02, 0., 0.,
          0., 0., 0., 0., 0., 0., 0., 0., 0., 0., 0., 0., 2.85714287e-02,
          0., 0., 4.28571440e-02, 1.42857144e-02, 0., 0., 1.42857144e-02,
          0., 0., 0., 0., 1.42857144e-02, 0., 0., 0., 0., 0., 0., 0., 0.,
          0., 0., 0., 0., 0., 8.57142881e-02, 0., 0., 0., 1.42857144e-02,
          0., 0., 0., 0., 0., 1.42857144e-02, 2.85714287e-02, 0., 0., 0.,
          0., 0., 0., 0., 1.42857144e-02, 0., 0., 0., 0., 0., 0., 0., 0.,
          0., 0., 7.14285746e-02, 0., 0., 0., 7.14285746e-02, 0., 0.,
          1.42857144e-02, 1.42857144e-02, 0., 0., 0., 0., 1.42857144e-02,
          0., 4.28571440e-02, 0., 0., 0., 0., 0., 0., 0., 1.42857144e-02,
          0., 0., 0., 4.28571440e-02, 0., 0., 0., 0., 1.42857144e-02, 0.,
          0., 0., 0., 0., 0., 0., 0., 0., 0., 0., 0., 1.42857144e-02, 0.,
          0., 0., 0., 0., 0., 0., 7.14285746e-02, 0., 0., 1.42857144e-02,
          0., 0., 0., 0., 1.42857144e-02, 0., 0., 0., 0., 0., 0., 0. ]
      - [ 0., 5.84795326e-03, 1.16959065e-02, 5.84795326e-03,
          5.84795326e-03, 5.84795326e-03, 0., 0., 1.16959065e-02,
          1.75438598e-02, 0., 5.84795326e-03, 1.16959065e-02,
          5.84795326e-03, 0., 1.16959065e-02, 0., 0., 1.16959065e-02,
          1.16959065e-02, 0., 0., 5.84795326e-03, 1.16959065e-02,
          5.84795326e-03, 0., 1.16959065e-02, 5.84795326e-03, 0., 0., 0.,
          0., 0., 0., 5.84795326e-03, 1.16959065e-02, 0., 1.16959065e-02,
          0., 0., 1.16959065e-02, 5.84795326e-03, 5.84795326e-03, 0., 0.,
          5.84795326e-03, 5.84795326e-03, 0., 1.16959065e-02,
          5.84795326e-03, 5.84795326e-03, 0., 5.84795326e-03, 0., 0., 0.,
          0., 0., 0., 5.84795326e-03, 0., 0., 0., 0., 0., 0., 0., 0., 0.,
          5.84795326e-03, 0., 1.16959065e-02, 3.50877196e-02, 0.,
          1.75438598e-02, 1.16959065e-02, 5.84795326e-03, 1.75438598e-02,
          1.16959065e-02, 0., 1.75438598e-02, 5.84795326e-03, 0., 0., 0.,
          1.16959065e-02, 0., 0., 0., 0., 0., 0., 0., 0., 1.16959065e-02,
          1.16959065e-02, 5.84795326e-03, 1.16959065e-02, 0., 0., 0.,
          4.67836261e-02, 5.84795326e-03, 0., 0., 0., 0., 0., 0.,
          5.84795326e-03, 0., 0., 5.84795326e-03, 0., 0., 5.84795326e-03,
          3.50877196e-02, 5.84795326e-03, 5.84795326e-03, 5.84795326e-03,
          2.92397663e-02, 0., 0., 0., 0., 5.84795326e-03, 0.,
          5.84795326e-03, 0., 0., 0., 1.16959065e-02, 5.84795326e-03, 0.,
          5.84795326e-03, 1.75438598e-02, 0., 0., 4.09356728e-02,
          3.50877196e-02, 0., 0., 0., 5.84795326e-03, 0., 0.,
          5.84795326e-03, 0., 0., 0., 5.84795326e-03, 0., 1.75438598e-02,
          0., 2.33918130e-02, 2.92397663e-02, 0., 5.84795326e-03,
          1.16959065e-02, 0., 5.84795326e-03, 1.75438598e-02, 0., 0., 0.,
          0., 0., 0., 0., 0., 5.84795326e-03, 0., 0., 0., 5.84795326e-03,
          1.75438598e-02, 5.84795326e-03, 1.16959065e-02, 0., 0., 0., 0.,
          5.84795326e-03, 5.84795326e-03, 0., 0., 0., 5.84795326e-03,
          5.84795326e-03, 5.84795326e-03, 5.84795326e-03, 5.84795326e-03,
          5.84795326e-03, 1.16959065e-02, 5.84795326e-03, 0.,
          1.16959065e-02, 0., 0., 1.16959065e-02 ]
      - [ 0., 0., 0., 7.93650839e-03, 3.17460336e-02, 0., 0.,
          3.17460336e-02, 0., 7.93650839e-03, 7.93650839e-03, 0.,
          7.93650839e-03, 0., 0., 0., 1.58730168e-02, 0., 7.93650839e-03,
          7.93650839e-03, 7.93650839e-03, 0., 0., 0., 0., 0., 0., 0., 0.,
          0., 1.58730168e-02, 1.58730168e-02, 0., 7.93650839e-03, 0., 0.,
          0., 0., 0., 0., 1.58730168e-02, 0., 0., 0., 0., 0.,
          7.93650839e-03, 1.58730168e-02, 0., 0., 0., 0., 0., 0.,
          1.58730168e-02, 0., 7.93650839e-03, 0., 0., 7.93650839e-03,
          7.93650839e-03, 1.58730168e-02, 0., 0., 0., 1.58730168e-02, 0.,
          0., 1.58730168e-02, 1.58730168e-02, 7.93650839e-03,
          7.93650839e-03, 0., 0., 1.58730168e-02, 0., 0., 2.38095261e-02,
          0., 7.93650839e-03, 0., 0., 0., 0., 0., 7.93650839e-03, 0., 0.,
          7.93650839e-03, 7.93650839e-03, 0., 0., 0., 0., 0., 0., 0.,
          7.93650839e-03, 0., 0., 0., 2.38095261e-02, 0., 0., 0.,
          7.93650839e-03, 7.93650839e-03, 0., 1.58730168e-02, 0., 0., 0.,
          0., 0., 7.93650839e-03, 7.93650839e-03, 0., 3.96825410e-02, 0.,
          0., 0., 0., 7.93650839e-03, 1.58730168e-02, 2.38095261e-02,
          7.93650839e-03, 7.93650839e-03, 7.93650839e-03, 0.,
          7.93650839e-03, 0., 0., 7.93650839e-03, 0., 7.93650839e-03, 0.,
          7.93650839e-03, 0., 0., 7.93650839e-03, 0., 7.93650839e-03,
          2.38095261e-02, 2.38095261e-02, 0., 7.93650839e-03,
          4.76190522e-02, 0., 7.93650839e-03, 7.93650839e-03, 0.,
          3.17460336e-02, 0., 7.93650839e-03, 7.93650839e-03, 0.,
          2.38095261e-02, 7.93650839e-03, 0., 0., 0., 7.93650839e-03, 0.,
          0., 0., 0., 7.93650839e-03, 7.93650839e-03, 1.58730168e-02, 0.,
          0., 7.93650839e-03, 1.58730168e-02, 7.93650839e-03, 0., 0., 0.,
          0., 0., 0., 0., 0., 0., 0., 0., 7.93650839e-03, 0.,
          3.17460336e-02, 0., 0., 7.93650839e-03, 0., 7.93650839e-03,
          7.93650839e-03, 1.58730168e-02, 0., 0., 7.93650839e-03, 0., 0. ]
      - [ 0., 0., 0., 0., 0., 6.75675692e-03, 0., 0., 6.75675692e-03,
          6.75675692e-03, 0., 6.75675692e-03, 0., 0., 0., 0., 0., 0., 0.,
          0., 0., 0., 0., 1.35135138e-02, 0., 3.37837860e-02, 0., 0., 0.,
          0., 0., 0., 0., 6.75675692e-03, 2.02702712e-02, 0., 0., 0.,
          1.35135138e-02, 6.75675692e-03, 2.02702712e-02, 0.,
          6.75675692e-03, 0., 0., 0., 0., 0., 0., 0., 0., 0., 0., 0., 0.,
          0., 2.70270277e-02, 0., 6.75675692e-03, 2.70270277e-02,
          2.02702712e-02, 1.35135138e-02, 6.75675692e-03, 0.,
          1.35135138e-02, 1.35135138e-02, 1.35135138e-02, 0., 0.,
          6.75675692e-03, 0., 0., 0., 6.75675692e-03, 6.75675692e-03,
          6.75675692e-03, 0., 0., 6.75675692e-03, 6.75675692e-03, 0.,
          6.75675692e-03, 0., 1.35135138e-02, 2.02702712e-02, 0., 0.,
          6.75675692e-03, 0., 6.75675692e-03, 0., 6.75675692e-03, 0.,
          6.75675692e-03, 1.35135138e-02, 0., 0., 2.02702712e-02, 0., 0.,
          0., 2.70270277e-02, 6.75675692e-03, 6.75675692e-03,
          6.75675692e-03, 6.75675692e-03, 0., 1.35135138e-02, 0.,
          1.35135138e-02, 0., 2.02702712e-02, 0., 3.37837860e-02,
          2.02702712e-02, 0., 0., 6.75675692e-03, 6.75675692e-03,
          6.75675692e-03, 6.75675692e-03, 6.75675692e-03, 0., 0.,
          1.35135138e-02, 0., 0., 6.75675692e-03, 0., 6.75675692e-03, 0.,
          3.37837860e-02, 6.75675692e-03, 0., 0., 0., 0., 6.75675692e-03,
          2.70270277e-02, 0., 6.75675692e-03, 0., 1.35135138e-02, 0., 0.,
          0., 1.35135138e-02, 0., 0., 0., 6.75675692e-03, 0.,
          1.35135138e-02, 1.35135138e-02, 6.75675692e-03, 5.40540554e-02,
          6.75675692e-03, 0., 2.02702712e-02, 0., 0., 0., 0.,
          6.75675692e-03, 0., 0., 6.75675692e-03, 0., 0., 0., 0., 0.,
          2.02702712e-02, 6.75675692e-03, 0., 0., 0., 1.35135138e-02, 0.,
          6.75675692e-03, 0., 6.75675692e-03, 0., 0., 1.35135138e-02,
          6.75675692e-03, 0., 1.35135138e-02, 0., 0., 0., 0., 0., 0., 0.,
          0., 1.35135138e-02, 0., 0., 6.75675692e-03 ]
      - [ 0., 0., 0., 3.75939868e-02, 7.51879718e-03, 1.50375944e-02, 0.,
          0., 7.51879718e-03, 7.51879718e-03, 0., 3.00751887e-02,
          2.25563906e-02, 0., 1.50375944e-02, 7.51879718e-03,
          7.51879718e-03, 0., 0., 0., 0., 0., 1.50375944e-02,
          7.51879718e-03, 0., 0., 0., 0., 0., 0., 0., 7.51879718e-03,
          1.50375944e-02, 0., 7.51879718e-03, 0., 7.51879718e-03, 0.,
          1.50375944e-02, 0., 3.00751887e-02, 0., 7.51879718e-03, 0., 0.,
          0., 1.50375944e-02, 0., 7.51879718e-03, 0., 0., 0.,
          7.51879718e-03, 0., 0., 0., 0., 0., 7.51879718e-03,
          7.51879718e-03, 0., 0., 0., 0., 0., 0., 7.51879718e-03, 0.,
          7.51879718e-03, 0., 0., 0., 0., 0., 1.50375944e-02, 0., 0.,
          1.50375944e-02, 0., 0., 2.25563906e-02, 0., 0., 0., 0.,
          7.51879718e-03, 0., 7.51879718e-03, 0., 7.51879718e-03, 0.,
          7.51879718e-03, 0., 0., 0., 0., 0., 7.51879718e-03,
          7.51879718e-03, 0., 0., 7.51879718e-03, 0., 7.51879718e-03,
          7.51879718e-03, 0., 0., 0., 0., 0., 0., 7.51879718e-03,
          7.51879718e-03, 0., 0., 0., 0., 1.50375944e-02, 0., 0.,
          3.75939868e-02, 1.50375944e-02, 0., 7.51879718e-03,
          1.50375944e-02, 0., 7.51879718e-03, 2.25563906e-02, 0., 0., 0.,
          7.51879718e-03, 2.25563906e-02, 0., 1.50375944e-02, 0., 0., 0.,
          2.25563906e-02, 0., 0., 0., 0., 0., 7.51879718e-03,
          2.25563906e-02, 0., 0., 0., 7.51879718e-03, 7.51879718e-03, 0.,
          2.25563906e-02, 0., 0., 2.25563906e-02, 2.25563906e-02,
          3.00751887e-02, 0., 0., 0., 7.51879718e-03, 0., 0., 0., 0., 0.,
          0., 7.51879718e-03, 0., 0., 7.51879718e-03, 0., 1.50375944e-02,
          0., 2.25563906e-02, 1.50375944e-02, 0., 7.51879718e-03, 0., 0.,
          0., 7.51879718e-03, 0., 7.51879718e-03, 0., 0., 3.75939868e-02,
          0., 0., 1.50375944e-02, 1.50375944e-02, 0., 0., 0.,
          1.50375944e-02, 1.50375944e-02, 0., 0., 7.51879718e-03 ]
      - [ 0., 0., 0., 7.14285718e-03, 7.14285718e-03, 0., 0.,
          7.14285718e-03, 1.42857144e-02, 0., 0., 0., 1.42857144e-02,
          7.14285718e-03, 0., 2.14285720e-02, 7.14285718e-03, 0.,
          1.42857144e-02, 7.14285718e-03, 0., 0., 0., 2.14285720e-02, 0.,
          0., 7.14285718e-03, 7.14285718e-03, 0., 0., 7.14285718e-03,
          7.14285718e-03, 7.14285718e-03, 0., 0., 7.14285718e-03, 0.,
          7.14285718e-03, 7.14285718e-03, 0., 0., 0., 0., 0., 0.,
          7.14285718e-03, 0., 0., 7.14285718e-03, 0., 7.14285718e-03,
          2.14285720e-02, 2.85714287e-02, 0., 7.14285718e-03, 0.,
          1.42857144e-02, 0., 0., 0., 0., 0., 7.14285718e-03,
          1.42857144e-02, 0., 2.85714287e-02, 7.14285718e-03, 0.,
          7.14285718e-03, 0., 0., 7.14285718e-03, 2.85714287e-02, 0., 0.,
          7.14285718e-03, 0., 7.14285718e-03, 7.14285718e-03, 0.,
          7.14285718e-03, 7.14285718e-03, 0., 0., 0., 7.14285718e-03, 0.,
          0., 0., 0., 0., 0., 0., 0., 7.14285718e-03, 0., 0.,
          7.14285718e-03, 0., 0., 7.14285718e-03, 1.42857144e-02,
          7.14285718e-03, 0., 2.14285720e-02, 7.14285718e-03, 0., 0., 0.,
          2.14285720e-02, 0., 0., 0., 1.42857144e-02, 0., 0., 0., 0.,
          3.57142873e-02, 7.14285718e-03, 2.14285720e-02, 0.,
          7.14285718e-03, 0., 0., 7.14285718e-03, 0., 1.42857144e-02, 0.,
          2.14285720e-02, 0., 1.42857144e-02, 7.14285718e-03, 0.,
          1.42857144e-02, 1.42857144e-02, 0., 0., 7.14285718e-03, 0., 0.,
          0., 0., 0., 0., 7.14285718e-03, 7.14285718e-03, 0.,
          1.42857144e-02, 0., 0., 0., 3.57142873e-02, 0., 0.,
          2.85714287e-02, 7.14285718e-03, 0., 7.14285718e-03,
          1.42857144e-02, 0., 0., 0., 0., 0., 0., 0., 0., 0.,
          7.14285718e-03, 7.14285718e-03, 0., 2.14285720e-02, 0., 0., 0.,
          0., 0., 0., 0., 0., 0., 0., 0., 0., 0., 0., 5.00000007e-02,
          7.14285718e-03, 0., 7.14285718e-03, 0., 0., 7.14285718e-03,
          2.14285720e-02, 7.14285718e-03, 0., 7.14285718e-03,
          7.14285718e-03, 2.85714287e-02 ]
      - [ 0., 0., 6.13496918e-03, 0., 0., 6.13496918e-03, 0.,
          6.13496918e-03, 1.22699384e-02, 0., 2.45398767e-02, 0., 0.,
          6.13496918e-03, 0., 0., 1.22699384e-02, 0., 6.13496918e-03, 0.,
          0., 6.13496918e-03, 0., 0., 0., 0., 1.22699384e-02,
          6.13496918e-03, 0., 0., 6.13496918e-03, 1.22699384e-02, 0.,
          2.45398767e-02, 0., 2.45398767e-02, 0., 2.45398767e-02, 0.,
          1.22699384e-02, 4.29447852e-02, 1.22699384e-02, 0.,
          6.13496918e-03, 0., 1.84049085e-02, 0., 1.22699384e-02, 0., 0.,
          6.13496918e-03, 6.13496918e-03, 6.13496918e-03, 0.,
          6.13496918e-03, 0., 2.45398767e-02, 6.13496918e-03, 0.,
          6.13496918e-03, 3.68098170e-02, 6.13496918e-03, 0.,
          6.13496918e-03, 0., 6.13496918e-03, 0., 0., 0., 0., 0., 0., 0.,
          0., 0., 6.13496918e-03, 0., 6.13496918e-03, 0., 6.13496918e-03,
          0., 1.22699384e-02, 0., 6.13496918e-03, 1.84049085e-02, 0., 0.,
          1.22699384e-02, 0., 6.13496918e-03, 6.13496918e-03,
          6.13496918e-03, 0., 0., 0., 0., 1.84049085e-02, 0., 0.,
          1.22699384e-02, 0., 7.36196339e-02, 6.13496918e-03, 0., 0.,
          1.84049085e-02, 1.22699384e-02, 0., 1.22699384e-02, 0., 0., 0.,
          6.13496918e-03, 6.13496918e-03, 0., 0., 6.13496918e-03,
          1.22699384e-02, 0., 0., 1.22699384e-02, 6.13496918e-03, 0.,
          6.13496918e-03, 0., 0., 6.13496918e-03, 1.22699384e-02, 0.,
          6.13496918e-03, 0., 6.13496918e-03, 6.13496918e-03,
          1.84049085e-02, 0., 0., 0., 1.22699384e-02, 1.84049085e-02, 0.,
          1.22699384e-02, 0., 6.13496918e-03, 0., 0., 6.13496918e-03,
          1.22699384e-02, 6.13496918e-03, 0., 6.13496918e-03, 0.,
          1.22699384e-02, 0., 0., 6.13496918e-03, 0., 0., 0.,
          1.22699384e-02, 0., 6.13496918e-03, 0., 0., 6.13496918e-03,
          6.13496918e-03, 0., 0., 0., 6.13496918e-03, 6.13496918e-03, 0.,
          0., 1.22699384e-02, 6.13496918e-03, 0., 6.13496918e-03,
          6.13496918e-03, 2.45398767e-02, 6.13496918e-03, 0., 0., 0., 0.,
          6.13496918e-03, 0., 0., 0., 0., 0., 6.13496918e-03, 0., 0., 0.,
          0., 6.13496918e-03, 0., 6.13496918e-03, 6.13496918e-03, 0., 0. ]
      - [ 0., 4.78468882e-03, 4.78468882e-03, 0., 0., 0., 0., 0.,
          9.56937764e-03, 4.78468882e-03, 0., 0., 9.56937764e-03,
          4.78468882e-03, 1.43540669e-02, 1.43540669e-02, 4.78468882e-03,
          9.56937764e-03, 0., 4.78468882e-03, 0., 0., 1.91387553e-02,
          4.78468882e-03, 4.78468882e-03, 1.91387553e-02, 4.78468882e-03,
          4.78468882e-03, 9.56937764e-03, 0., 4.78468882e-03,
          1.43540669e-02, 0., 4.78468882e-03, 4.78468882e-03, 0., 0.,
          1.43540669e-02, 0., 4.78468882e-03, 0., 4.78468882e-03, 0., 0.,
          0., 4.78468882e-03, 0., 0., 4.78468882e-03, 0., 4.78468882e-03,
          0., 1.43540669e-02, 4.78468882e-03, 4.78468882e-03, 0.,
          4.78468882e-03, 1.43540669e-02, 0., 9.56937764e-03, 0., 0.,
          4.78468882e-03, 9.56937764e-03, 0., 4.78468882e-03, 0.,
          4.78468882e-03, 9.56937764e-03, 9.56937764e-03, 4.78468882e-03,
          1.43540669e-02, 0., 9.56937764e-03, 0., 1.43540669e-02,
          9.56937764e-03, 0., 9.56937764e-03, 1.43540669e-02, 0., 0.,
          9.56937764e-03, 0., 0., 0., 0., 4.78468882e-03, 1.43540669e-02,
          9.56937764e-03, 9.56937764e-03, 0., 1.43540669e-02,
          4.78468882e-03, 9.56937764e-03, 4.78468882e-03, 0., 0.,
          9.56937764e-03, 4.78468882e-03, 0., 1.91387553e-02, 0., 0.,
          1.43540669e-02, 0., 0., 0., 9.56937764e-03, 0., 0.,
          1.43540669e-02, 0., 0., 1.91387553e-02, 4.78468882e-03,
          4.78468882e-03, 0., 0., 0., 0., 0., 4.78468882e-03,
          4.78468882e-03, 9.56937764e-03, 0., 4.78468882e-03,
          1.91387553e-02, 4.78468882e-03, 0., 9.56937764e-03,
          9.56937764e-03, 9.56937764e-03, 0., 4.78468882e-03, 0., 0., 0.,
          4.78468882e-03, 4.78468882e-03, 0., 1.43540669e-02,
          9.56937764e-03, 0., 4.78468882e-03, 4.78468882e-03,
          1.43540669e-02, 0., 0., 9.56937764e-03, 4.78468882e-03, 0.,
          1.43540669e-02, 4.78468882e-03, 9.56937764e-03, 0.,
          4.78468882e-03, 0., 0., 0., 4.78468882e-03, 1.43540669e-02,
          9.56937764e-03, 0., 0., 0., 0., 9.56937764e-03, 4.78468882e-03,
          0., 0., 4.78468882e-03, 2.87081338e-02, 4.78468882e-03,
          4.78468882e-03, 1.91387553e-02, 4.78468882e-03, 4.78468882e-03,
          4.78468882e-03, 9.56937764e-03, 0., 4.78468882e-03, 0.,
          1.91387553e-02, 4.78468882e-03, 0., 4.78468882e-03,
          1.91387553e-02, 4.78468882e-03, 0., 1.43540669e-02, 0.,
          1.43540669e-02, 1.91387553e-02, 0., 0., 0., 4.78468882e-03, 0.,
          0. ]
      - [ 0., 0., 0., 0., 0., 0., 0., 0., 0., 0., 0., 1.49253728e-02, 0.,
          0., 0., 1.49253728e-02, 0., 0., 2.98507456e-02, 0., 0., 0., 0.,
          4.47761193e-02, 0., 0., 1.49253728e-02, 0., 0., 1.49253728e-02,
          0., 1.49253728e-02, 0., 0., 1.49253728e-02, 0., 0., 0.,
          1.49253728e-02, 0., 0., 0., 0., 0., 0., 0., 0., 0., 0., 0., 0.,
          1.49253728e-02, 0., 0., 0., 0., 0., 0., 0., 0., 1.49253728e-02,
          0., 0., 0., 5.97014911e-02, 1.49253728e-02, 0., 0.,
          1.49253728e-02, 0., 0., 0., 0., 2.98507456e-02, 2.98507456e-02,
          4.47761193e-02, 0., 4.47761193e-02, 1.49253728e-02, 0., 0., 0.,
          0., 0., 0., 0., 0., 0., 0., 0., 0., 2.98507456e-02,
          2.98507456e-02, 0., 0., 0., 0., 1.49253728e-02, 0., 0., 0., 0.,
          1.49253728e-02, 0., 0., 0., 0., 0., 0., 0., 0., 1.49253728e-02,
          0., 1.49253728e-02, 1.49253728e-02, 0., 0., 1.49253728e-02, 0.,
          0., 0., 0., 0., 0., 0., 0., 0., 1.49253728e-02, 0.,
          2.98507456e-02, 0., 2.98507456e-02, 7.46268630e-02, 0., 0.,
          2.98507456e-02, 0., 0., 2.98507456e-02, 1.49253728e-02,
          1.49253728e-02, 1.49253728e-02, 1.49253728e-02, 0., 0., 0., 0.,
          0., 0., 0., 0., 0., 0., 0., 1.49253728e-02, 0., 1.49253728e-02,
          0., 0., 0., 0., 0., 0., 0., 0., 0., 0., 1.49253728e-02, 0., 0.,
          0., 0., 0., 0., 1.49253728e-02, 0., 0., 0., 0., 0., 0., 0., 0.,
          0., 2.98507456e-02, 1.49253728e-02, 0., 0., 0., 0., 0., 0.,
          1.49253728e-02, 0., 0., 0., 0., 0., 0., 0. ]
      - [ 5.06329127e-02, 1.26582282e-02, 0., 0., 0., 1.26582282e-02, 0.,
          1.26582282e-02, 0., 1.26582282e-02, 1.26582282e-02, 0., 0., 0.,
          0., 0., 0., 0., 1.26582282e-02, 0., 0., 0., 0., 0., 0.,
          1.26582282e-02, 0., 0., 0., 0., 0., 1.26582282e-02, 0., 0., 0.,
          0., 1.26582282e-02, 0., 0., 1.26582282e-02, 1.26582282e-02, 0.,
          0., 0., 0., 0., 0., 1.26582282e-02, 1.26582282e-02, 0., 0., 0.,
          0., 0., 5.06329127e-02, 0., 0., 0., 0., 1.26582282e-02,
          1.26582282e-02, 0., 0., 0., 0., 0., 2.53164563e-02, 0.,
          1.26582282e-02, 0., 0., 0., 1.26582282e-02, 0., 0., 0., 0.,
          1.26582282e-02, 0., 0., 0., 1.26582282e-02, 0., 1.26582282e-02,
          0., 0., 0., 2.53164563e-02, 0., 0., 1.26582282e-02, 0., 0., 0.,
          0., 0., 0., 0., 0., 0., 0., 0., 1.26582282e-02, 0., 0., 0., 0.,
          0., 1.26582282e-02, 0., 0., 0., 0., 1.26582282e-02, 0., 0., 0.,
          1.26582282e-02, 0., 0., 1.26582282e-02, 0., 0., 0., 0., 0., 0.,
          0., 0., 0., 1.26582282e-02, 1.26582282e-02, 0., 2.53164563e-02,
          0., 1.26582282e-02, 0., 0., 0., 0., 3.79746854e-02, 0., 0.,
          1.26582282e-02, 0., 0., 2.53164563e-02, 0., 0., 0.,
          1.26582282e-02, 3.79746854e-02, 3.79746854e-02, 6.32911399e-02,
          0., 1.01265825e-01, 1.26582282e-02, 0., 0., 1.26582282e-02, 0.,
          0., 0., 0., 0., 0., 0., 0., 0., 0., 0., 0., 0., 0., 0., 0., 0.,
          0., 0., 0., 0., 0., 0., 0., 2.53164563e-02, 1.26582282e-02, 0.,
          0., 0., 0., 0., 0., 0., 1.26582282e-02, 3.79746854e-02, 0., 0.,
          0., 1.26582282e-02, 0. ]
      - [ 0., 0., 0., 9.00900923e-03, 0., 9.00900923e-03, 9.00900923e-03,
          0., 0., 0., 0., 0., 9.00900923e-03, 0., 0., 0., 0., 0.,
          9.00900923e-03, 9.00900923e-03, 0., 9.00900923e-03, 0.,
          9.00900923e-03, 1.80180185e-02, 9.00900923e-03, 0., 0., 0., 0.,
          0., 6.30630627e-02, 0., 0., 2.70270277e-02, 0., 0.,
          9.00900923e-03, 9.00900923e-03, 0., 0., 0., 1.80180185e-02, 0.,
          0., 0., 0., 9.00900923e-03, 9.00900923e-03, 0., 0.,
          9.00900923e-03, 0., 9.00900923e-03, 0., 0., 2.70270277e-02, 0.,
          0., 9.00900923e-03, 2.70270277e-02, 3.60360369e-02, 0., 0., 0.,
          0., 0., 0., 9.00900923e-03, 0., 0., 0., 0., 1.80180185e-02, 0.,
          0., 0., 0., 9.00900923e-03, 0., 0., 0., 0., 9.00900923e-03, 0.,
          0., 9.00900923e-03, 2.70270277e-02, 0., 9.00900923e-03, 0., 0.,
          9.00900923e-03, 0., 0., 9.00900923e-03, 0., 1.80180185e-02, 0.,
          0., 0., 0., 0., 0., 0., 9.00900923e-03, 1.80180185e-02, 0., 0.,
          0., 0., 0., 0., 2.70270277e-02, 0., 0., 4.50450480e-02,
          9.00900923e-03, 0., 0., 4.50450480e-02, 0., 0., 0.,
          3.60360369e-02, 9.00900923e-03, 0., 1.80180185e-02,
          1.80180185e-02, 0., 0., 0., 0., 9.00900923e-03, 2.70270277e-02,
          1.80180185e-02, 0., 0., 9.00900923e-03, 1.80180185e-02, 0., 0.,
          0., 1.80180185e-02, 0., 0., 0., 0., 0., 9.00900923e-03,
          1.80180185e-02, 0., 2.70270277e-02, 9.00900923e-03, 0., 0., 0.,
          0., 3.60360369e-02, 0., 0., 0., 0., 1.80180185e-02, 0., 0., 0.,
          0., 0., 9.00900923e-03, 0., 0., 1.80180185e-02, 0., 0., 0., 0.,
          0., 0., 0., 0., 0., 0., 0., 0., 0., 0., 0., 9.00900923e-03, 0.,
          9.00900923e-03, 9.00900923e-03, 9.00900923e-03, 0., 0., 0., 0.,
          0., 0., 0. ]
      - [ 1.83486231e-02, 0., 0., 3.66972461e-02, 2.75229346e-02,
          9.17431153e-03, 0., 0., 9.17431153e-03, 1.83486231e-02, 0., 0.,
          0., 0., 0., 0., 0., 0., 9.17431153e-03, 0., 0., 0., 0.,
          1.83486231e-02, 0., 9.17431153e-03, 0., 0., 9.17431153e-03, 0.,
          0., 9.17431153e-03, 0., 0., 9.17431153e-03, 0., 1.83486231e-02,
          0., 0., 9.17431153e-03, 0., 0., 9.17431153e-03, 0.,
          9.17431153e-03, 0., 0., 9.17431153e-03, 0., 0., 0., 0., 0., 0.,
          0., 0., 9.17431153e-03, 0., 0., 1.83486231e-02, 0.,
          2.75229346e-02, 0., 0., 1.83486231e-02, 9.17431153e-03, 0., 0.,
          0., 0., 0., 2.75229346e-02, 9.17431153e-03, 0., 0., 0., 0., 0.,
          0., 0., 0., 0., 0., 1.83486231e-02, 9.17431153e-03, 0., 0.,
          9.17431153e-03, 1.83486231e-02, 0., 0., 0., 0., 0., 0., 0.,
          3.66972461e-02, 0., 0., 0., 0., 1.83486231e-02, 0., 0., 0., 0.,
          0., 0., 3.66972461e-02, 9.17431153e-03, 0., 9.17431153e-03,
          9.17431153e-03, 2.75229346e-02, 9.17431153e-03, 0., 0., 0., 0.,
          9.17431153e-03, 9.17431153e-03, 0., 9.17431153e-03, 0., 0., 0.,
          0., 0., 0., 2.75229346e-02, 0., 4.58715558e-02, 9.17431153e-03,
          0., 3.66972461e-02, 0., 0., 0., 0., 0., 0., 0., 0., 0., 0., 0.,
          3.66972461e-02, 9.17431153e-03, 9.17431153e-03, 0., 0.,
          9.17431153e-03, 9.17431153e-03, 0., 0., 5.50458692e-02, 0.,
          9.17431153e-03, 2.75229346e-02, 0., 0., 0., 0., 0., 0., 0.,
          2.75229346e-02, 9.17431153e-03, 0., 9.17431153e-03, 0., 0., 0.,
          9.17431153e-03, 0., 0., 0., 0., 0., 9.17431153e-03, 0., 0.,
          9.17431153e-03, 0., 0., 0., 0., 0., 9.17431153e-03, 0.,
          2.75229346e-02, 9.17431153e-03, 0., 0., 0., 0., 0., 0., 0., 0. ]
      - [ 0., 8.77192989e-03, 0., 4.38596494e-03, 4.38596494e-03,
          1.31578948e-02, 1.31578948e-02, 0., 1.31578948e-02, 0., 0., 0.,
          0., 0., 1.75438598e-02, 0., 4.38596494e-03, 4.38596494e-03, 0.,
          0., 0., 0., 1.31578948e-02, 4.38596494e-03, 8.77192989e-03,
          2.19298247e-02, 0., 4.38596494e-03, 1.75438598e-02,
          2.63157897e-02, 0., 0., 0., 4.38596494e-03, 4.38596494e-03,
          4.38596494e-03, 0., 0., 2.19298247e-02, 4.38596494e-03, 0.,
          1.31578948e-02, 4.38596494e-03, 0., 0., 4.38596494e-03,
          1.31578948e-02, 0., 0., 1.31578948e-02, 0., 4.38596494e-03,
          4.38596494e-03, 1.31578948e-02, 0., 4.38596494e-03,
          8.77192989e-03, 4.38596494e-03, 4.38596494e-03, 0., 0.,
          1.75438598e-02, 0., 4.38596494e-03, 4.38596494e-03, 0.,
          1.31578948e-02, 1.31578948e-02, 8.77192989e-03, 0.,
          4.38596494e-03, 0., 0., 4.38596494e-03, 0., 1.31578948e-02,
          4.38596494e-03, 4.38596494e-03, 4.38596494e-03, 4.38596494e-03,
          1.75438598e-02, 0., 0., 0., 4.38596494e-03, 8.77192989e-03, 0.,
          0., 0., 0., 4.38596494e-03, 0., 1.31578948e-02, 0., 0., 0., 0.,
          8.77192989e-03, 0., 8.77192989e-03, 0., 7.89473653e-02, 0.,
          4.38596494e-03, 4.38596494e-03, 0., 4.38596494e-03,
          8.77192989e-03, 0., 0., 4.38596494e-03, 0., 0., 0.,
          8.77192989e-03, 4.38596494e-03, 8.77192989e-03, 0.,
          4.38596494e-03, 8.77192989e-03, 0., 0., 4.38596494e-03,
          8.77192989e-03, 4.38596494e-03, 0., 0., 1.75438598e-02, 0.,
          1.75438598e-02, 8.77192989e-03, 4.38596494e-03, 4.38596494e-03,
          0., 4.38596494e-03, 0., 0., 0., 4.38596494e-03, 8.77192989e-03,
          0., 3.07017546e-02, 0., 0., 0., 8.77192989e-03, 1.31578948e-02,
          0., 0., 1.75438598e-02, 0., 0., 8.77192989e-03, 4.38596494e-03,
          0., 1.31578948e-02, 0., 4.38596494e-03, 0., 0., 0.,
          1.75438598e-02, 8.77192989e-03, 0., 8.77192989e-03,
          8.77192989e-03, 0., 4.38596494e-03, 4.38596494e-03, 0.,
          8.77192989e-03, 0., 0., 4.38596494e-03, 8.77192989e-03,
          1.75438598e-02, 4.38596494e-03, 4.38596494e-03, 8.77192989e-03,
          0., 0., 0., 4.38596494e-03, 8.77192989e-03, 0., 0.,
          8.77192989e-03, 0., 0., 0., 1.75438598e-02, 1.31578948e-02,
          8.77192989e-03, 0., 0., 4.38596494e-03, 8.77192989e-03, 0.,
          4.38596494e-03, 4.38596494e-03 ]
      - [ 0., 1.81818176e-02, 0., 0., 0., 0., 0., 0., 6.06060587e-03, 0.,
          1.81818176e-02, 6.06060587e-03, 0., 1.81818176e-02,
          6.06060587e-03, 1.81818176e-02, 0., 0., 6.06060587e-03,
          1.81818176e-02, 0., 0., 6.06060587e-03, 6.06060587e-03,
          1.21212117e-02, 0., 1.21212117e-02, 0., 1.21212117e-02,
          1.81818176e-02, 6.06060587e-03, 6.06060587e-03, 6.06060587e-03,
          1.21212117e-02, 0., 6.06060587e-03, 0., 0., 0., 1.21212117e-02,
          1.81818176e-02, 0., 0., 0., 6.06060587e-03, 1.81818176e-02,
          1.21212117e-02, 6.06060587e-03, 6.06060587e-03, 0., 0.,
          6.06060587e-03, 0., 0., 0., 0., 0., 0., 6.06060587e-03, 0., 0.,
          0., 1.21212117e-02, 1.21212117e-02, 0., 0., 0., 0.,
          1.21212117e-02, 0., 0., 1.21212117e-02, 6.06060587e-03, 0.,
          6.06060587e-03, 1.81818176e-02, 6.06060587e-03, 6.06060587e-03,
          0., 0., 0., 0., 0., 0., 6.06060587e-03, 0., 0., 0., 0., 0., 0.,
          0., 0., 0., 6.06060587e-03, 6.06060587e-03, 0., 0.,
          1.81818176e-02, 1.21212117e-02, 0., 1.81818176e-02, 0., 0.,
          6.06060587e-03, 0., 0., 0., 1.21212117e-02, 1.21212117e-02, 0.,
          0., 6.06060587e-03, 0., 6.06060587e-03, 1.21212117e-02, 0., 0.,
          0., 0., 0., 6.06060587e-03, 0., 0., 0., 6.06060587e-03,
          1.81818176e-02, 6.06060587e-03, 0., 6.06060587e-03, 0.,
          6.06060587e-03, 0., 0., 3.03030293e-02, 0., 6.06060587e-03, 0.,
          0., 6.06060587e-03, 0., 2.42424235e-02, 0., 1.81818176e-02,
          1.21212117e-02, 1.81818176e-02, 1.21212117e-02, 0.,
          6.06060587e-03, 0., 1.21212117e-02, 0., 6.06060587e-03,
          1.81818176e-02, 0., 0., 0., 0., 0., 6.06060587e-03, 0.,
          1.21212117e-02, 6.06060587e-03, 6.06060587e-03, 1.21212117e-02,
          0., 0., 0., 0., 1.81818176e-02, 1.81818176e-02, 0., 0., 0.,
          6.06060587e-03, 6.06060587e-03, 0., 0., 3.03030293e-02,
          6.06060587e-03, 1.21212117e-02, 0., 6.06060587e-03, 0.,
          1.21212117e-02, 0., 1.21212117e-02, 1.21212117e-02, 0.,
          1.21212117e-02, 0., 6.06060587e-03, 6.06060587e-03, 0., 0.,
          1.21212117e-02, 1.81818176e-02, 6.06060587e-03, 0.,
          1.81818176e-02 ]
      - [ 0., 0., 3.43642617e-03, 3.43642617e-03, 0., 6.87285233e-03,
          3.43642617e-03, 0., 6.87285233e-03, 0., 0., 3.43642617e-03,
          3.43642617e-03, 0., 6.87285233e-03, 6.87285233e-03, 0.,
          6.87285233e-03, 0., 0., 0., 0., 1.03092790e-02, 0.,
          3.43642617e-03, 2.40549836e-02, 3.43642617e-03, 3.43642617e-03,
          0., 3.43642617e-03, 6.87285233e-03, 6.87285233e-03, 0.,
          3.43642617e-03, 1.71821304e-02, 0., 0., 1.03092790e-02, 0., 0.,
          3.43642617e-03, 0., 0., 3.43642617e-03, 0., 3.43642617e-03,
          6.87285233e-03, 6.87285233e-03, 0., 0., 0., 0., 3.43642617e-03,
          1.03092790e-02, 0., 3.43642617e-03, 3.43642617e-03,
          3.43642617e-03, 6.87285233e-03, 6.87285233e-03, 0.,
          3.43642617e-03, 3.43642617e-03, 0., 3.43642617e-03,
          6.87285233e-03, 6.87285233e-03, 3.43642617e-03, 3.43642617e-03,
          0., 6.87285233e-03, 1.71821304e-02, 0., 3.43642617e-03,
          3.43642617e-03, 0., 1.03092790e-02, 0., 6.87285233e-03, 0.,
          1.03092790e-02, 0., 3.43642617e-03, 3.43642617e-03,
          1.37457047e-02, 3.43642617e-03, 0., 0., 0., 6.87285233e-03, 0.,
          0., 0., 0., 3.43642617e-03, 0., 3.43642617e-03, 1.03092790e-02,
          3.43642617e-03, 0., 0., 9.27835032e-02, 0., 0., 1.71821304e-02,
          0., 1.71821304e-02, 3.43642617e-03, 0., 0., 0., 3.43642617e-03,
          3.43642617e-03, 0., 3.43642617e-03, 0., 1.71821304e-02,
          1.03092790e-02, 0., 3.43642617e-03, 0., 3.43642617e-03, 0., 0.,
          1.03092790e-02, 3.43642617e-03, 6.87285233e-03, 2.06185579e-02,
          0., 0., 3.43642617e-03, 1.03092790e-02, 1.37457047e-02, 0.,
          3.43642617e-03, 3.09278350e-02, 0., 3.43642617e-03,
          3.43642617e-03, 0., 0., 1.37457047e-02, 3.43642617e-03,
          1.03092790e-02, 0., 6.87285233e-03, 4.81099673e-02, 0.,
          3.43642617e-03, 6.87285233e-03, 6.87285233e-03, 0.,
          1.03092790e-02, 0., 3.43642617e-03, 1.03092790e-02, 0.,
          6.87285233e-03, 3.43642617e-03, 3.43642617e-03, 0., 0.,
          6.87285233e-03, 1.03092790e-02, 1.03092790e-02, 3.43642617e-03,
          3.43642617e-03, 1.03092790e-02, 6.87285233e-03, 0.,
          6.87285233e-03, 6.87285233e-03, 1.71821304e-02, 0.,
          1.37457047e-02, 0., 0., 6.87285233e-03, 3.43642617e-03, 0.,
          1.03092790e-02, 3.43642617e-03, 3.43642617e-03, 3.43642617e-03,
          1.03092790e-02, 0., 3.43642617e-03, 1.37457047e-02,
          3.43642617e-03, 0., 1.37457047e-02, 2.40549836e-02,
          1.37457047e-02, 0., 6.87285233e-03, 6.87285233e-03, 0., 0.,
          3.43642617e-03, 3.43642617e-03 ]
      - [ 0., 0., 4.67289705e-03, 0., 4.67289705e-03, 0., 0., 0.,
          9.34579410e-03, 0., 2.80373823e-02, 4.67289705e-03,
          4.67289705e-03, 9.34579410e-03, 4.67289705e-03, 1.86915882e-02,
          9.34579410e-03, 0., 9.34579410e-03, 4.67289705e-03, 0., 0.,
          4.67289705e-03, 4.67289705e-03, 0., 4.67289705e-03, 0., 0., 0.,
          9.34579410e-03, 0., 1.86915882e-02, 0., 2.80373823e-02,
          9.34579410e-03, 0., 0., 0., 4.67289705e-03, 9.34579410e-03, 0.,
          0., 1.40186911e-02, 9.34579410e-03, 4.67289705e-03,
          9.34579410e-03, 1.40186911e-02, 4.67289705e-03, 4.67289705e-03,
          0., 0., 0., 1.40186911e-02, 4.67289705e-03, 0., 4.67289705e-03,
          0., 0., 4.67289705e-03, 0., 0., 4.67289705e-03, 0., 0., 0.,
